{"learner":{"attributes":{"scikit_learn":"{\"_estimator_type\": \"classifier\"}"},"feature_names":["deaths_per_min","gold_per_min","kills_per_min","assists_per_min","exp_per_min","td_per_min","vision_per_min","cs_per_min","mitigated_per_min","heal_per_min","turret_per_min","dragon_per_min","baron_per_min","wards_placed_per_min","wards_killed_per_min"],"feature_types":["float","float","float","float","float","float","float","float","float","float","float","float","float","float","float"],"gradient_booster":{"model":{"gbtree_model_param":{"num_parallel_tree":"1","num_trees":"100"},"iteration_indptr":[0,1,2,3,4,5,6,7,8,9,10,11,12,13,14,15,16,17,18,19,20,21,22,23,24,25,26,27,28,29,30,31,32,33,34,35,36,37,38,39,40,41,42,43,44,45,46,47,48,49,50,51,52,53,54,55,56,57,58,59,60,61,62,63,64,65,66,67,68,69,70,71,72,73,74,75,76,77,78,79,80,81,82,83,84,85,86,87,88,89,90,91,92,93,94,95,96,97,98,99,100],"tree_info":[0,0,0,0,0,0,0,0,0,0,0,0,0,0,0,0,0,0,0,0,0,0,0,0,0,0,0,0,0,0,0,0,0,0,0,0,0,0,0,0,0,0,0,0,0,0,0,0,0,0,0,0,0,0,0,0,0,0,0,0,0,0,0,0,0,0,0,0,0,0,0,0,0,0,0,0,0,0,0,0,0,0,0,0,0,0,0,0,0,0,0,0,0,0,0,0,0,0,0,0],"trees":[{"base_weights":[-1.4432415E-7,-1.0623324E0,1.3669952E0,-1.5772628E0,-2.644476E-1,7.5038236E-1,1.6927503E0,-1.7184728E0,-9.375752E-1,-8.6156684E-1,3.1580305E-1,-6.59374E-2,1.0926013E0,1.8082459E0,1.2785786E0,-6.813084E-1,-1.7569408E0,7.748191E-1,-1.0857131E0,8.033002E-2,-1.0894796E0,1.2308058E0,-7.400019E-4,-5.630202E-1,6.6265714E-1,1.3633552E0,5.033013E-1,1.6848893E0,5.8699393E-1,4.9451694E-1,1.4646131E0,-1.3240135E0,-1.0046986E-1,-1.836819E0,-1.4746283E0,9.823186E-1,-2.708499E-1,-1.4757584E0,-4.8062247E-1,-4.9271244E-1,9.870263E-1,-1.3151665E0,-1.7600349E-1,1.8399636E0,8.7460846E-1,-5.3471136E-1,7.213079E-1,6.760688E-1,-8.5733074E-1,1.1400727E0,6.9264725E-2,1.7213409E0,1.1561395E0,1.0694853E0,9.721029E-3,1.4323548E0,1.8373966E0,-2.1702698E-2,1.3607056E0,1.1908833E0,1.6935258E0,-4.3603572E-1,-1.1783383E-1,2.753315E-1,-1.9078675E-1,-5.227351E-1,-5.7194275E-1,-4.4958755E-1,1.7354354E-1,3.3808467E-1,-1.1822768E-1,-4.5228603E-1,3.349805E-1,-6.875762E-2,-4.3505093E-1,-2.2051568E-1,3.8030437E-1,1.0860963E-1,3.9352605E-1,-1.993233E-1,-4.3057755E-1,-1.0185453E-1,3.400944E-1,2.493245E-1,5.713135E-1,3.6826256E-1,9.7076155E-2,-2.2601555E-1,9.2885025E-2,3.1377205E-1,7.6326385E-2,3.586966E-1,-1.4228165E-1,-1.2754536E-1,-3.9471427E-1,3.7394044E-1,-1.3641687E-1,-2.1080782E-1,1.926849E-1,5.237228E-1,5.6427892E-2,3.947291E-1,-1.0215527E-2,6.276105E-2,3.936747E-1,-1.674906E-1,2.0884356E-1,5.0146395E-1,3.050206E-1,5.581385E-1,2.2759199E-1,1.6230446E-1,-2.5764957E-1,1.7740713E-3,4.4396946E-1,1.7999119E-1,4.1863886E-1,1.5222034E-1,5.168165E-1],"categories":[],"categories_nodes":[],"categories_segments":[],"categories_sizes":[],"default_left":[0,0,0,0,0,0,0,0,0,0,0,0,0,0,0,0,0,0,0,0,0,0,0,0,0,0,0,0,0,0,0,0,0,0,0,0,0,0,0,0,0,0,0,0,0,0,0,0,0,0,0,0,0,0,0,0,0,0,0,0,0,0,0,0,0,0,0,0,0,0,0,0,0,0,0,0,0,0,0,0,0,0,0,0,0,0,0,0,0,0,0,0,0,0,0,0,0,0,0,0,0,0,0,0,0,0,0,0,0,0,0,0,0,0,0,0,0,0,0],"id":0,"left_children":[1,3,5,7,9,11,13,15,17,19,21,23,25,27,29,31,33,35,37,39,41,43,45,47,49,51,53,55,-1,57,59,61,63,65,67,69,-1,71,73,75,77,79,81,83,85,87,89,91,93,95,97,99,101,103,105,107,109,111,113,115,117,-1,-1,-1,-1,-1,-1,-1,-1,-1,-1,-1,-1,-1,-1,-1,-1,-1,-1,-1,-1,-1,-1,-1,-1,-1,-1,-1,-1,-1,-1,-1,-1,-1,-1,-1,-1,-1,-1,-1,-1,-1,-1,-1,-1,-1,-1,-1,-1,-1,-1,-1,-1,-1,-1,-1,-1,-1,-1],"loss_changes":[5.7491333E3,9.148425E2,3.4646826E2,1.20670654E2,3.034337E2,1.6775381E2,5.1835938E1,4.2998535E1,6.349637E1,9.2715485E1,1.2874176E2,6.4928665E1,6.680411E1,1.2862793E1,3.5776947E1,1.5265562E1,2.1363525E1,7.935975E0,5.304129E1,4.4649174E1,7.140726E1,2.318016E1,1.2809698E2,3.941677E1,2.0530233E1,1.9465942E1,3.7645554E1,1.6210327E1,0E0,2.2162613E1,1.0624603E1,1.7795448E0,1.2987903E1,2.1208496E0,1.2715637E1,4.1268444E0,0E0,1.3081512E1,2.1789553E1,2.3435131E1,6.2731094E0,2.0810791E1,1.5374556E1,1.0979462E0,1.39935E1,3.5497196E1,2.1139938E1,1.3118511E1,1.657619E1,7.396206E0,1.5269559E1,3.5625916E0,3.542833E1,1.2830193E1,2.8851019E1,1.7064178E1,6.090332E0,1.5538437E1,2.9785805E0,1.0677124E1,2.8485413E0,0E0,0E0,0E0,0E0,0E0,0E0,0E0,0E0,0E0,0E0,0E0,0E0,0E0,0E0,0E0,0E0,0E0,0E0,0E0,0E0,0E0,0E0,0E0,0E0,0E0,0E0,0E0,0E0,0E0,0E0,0E0,0E0,0E0,0E0,0E0,0E0,0E0,0E0,0E0,0E0,0E0,0E0,0E0,0E0,0E0,0E0,0E0,0E0,0E0,0E0,0E0,0E0,0E0,0E0,0E0,0E0,0E0,0E0],"parents":[2147483647,0,0,1,1,2,2,3,3,4,4,5,5,6,6,7,7,8,8,9,9,10,10,11,11,12,12,13,13,14,14,15,15,16,16,17,17,18,18,19,19,20,20,21,21,22,22,23,23,24,24,25,25,26,26,27,27,29,29,30,30,31,31,32,32,33,33,34,34,35,35,37,37,38,38,39,39,40,40,41,41,42,42,43,43,44,44,45,45,46,46,47,47,48,48,49,49,50,50,51,51,52,52,53,53,54,54,55,55,56,56,57,57,58,58,59,59,60,60],"right_children":[2,4,6,8,10,12,14,16,18,20,22,24,26,28,30,32,34,36,38,40,42,44,46,48,50,52,54,56,-1,58,60,62,64,66,68,70,-1,72,74,76,78,80,82,84,86,88,90,92,94,96,98,100,102,104,106,108,110,112,114,116,118,-1,-1,-1,-1,-1,-1,-1,-1,-1,-1,-1,-1,-1,-1,-1,-1,-1,-1,-1,-1,-1,-1,-1,-1,-1,-1,-1,-1,-1,-1,-1,-1,-1,-1,-1,-1,-1,-1,-1,-1,-1,-1,-1,-1,-1,-1,-1,-1,-1,-1,-1,-1,-1,-1,-1,-1,-1,-1],"split_conditions":[8.016032E-2,4.8381546E2,1.215395E-1,4.611837E-2,4.0927693E-2,4.910865E2,2.1582733E-1,9.819967E-2,1.2793177E-1,1.3057671E-1,1.29683E-1,2.1212122E-1,2.1276596E-1,1.8170805E-1,1.1090573E-1,5.420054E-2,1.9206145E-1,1.7964073E-1,1.8532819E-1,1.8518518E-1,2.857143E-1,6.655574E-2,2.1212122E-1,1.6139878E-1,1.0417155E3,1.1327879E-1,6.348123E0,1.9493178E-1,5.8699393E-1,1.711352E-1,1.5856236E-1,9.538951E-2,3.434386E2,2.5434506E-1,3.6697246E-2,7.246453E2,-2.708499E-1,3.003003E-2,7.812838E2,3.1730768E-1,2.413273E-1,5.8536587E0,4.3373495E-1,3.8176033E-1,7.4463005E0,5.546696E2,2.2082019E-1,7.574747E2,8.65169E2,9.7885486E2,4.664516E2,2.944384E-1,7.826087E0,1.744186E-1,5.445995E2,1.444391E-1,2.299509E3,2.8865978E-1,2.217529E-1,4.7876288E2,1.09210044E-1,-4.3603572E-1,-1.1783383E-1,2.753315E-1,-1.9078675E-1,-5.227351E-1,-5.7194275E-1,-4.4958755E-1,1.7354354E-1,3.3808467E-1,-1.1822768E-1,-4.5228603E-1,3.349805E-1,-6.875762E-2,-4.3505093E-1,-2.2051568E-1,3.8030437E-1,1.0860963E-1,3.9352605E-1,-1.993233E-1,-4.3057755E-1,-1.0185453E-1,3.400944E-1,2.493245E-1,5.713135E-1,3.6826256E-1,9.7076155E-2,-2.2601555E-1,9.2885025E-2,3.1377205E-1,7.6326385E-2,3.586966E-1,-1.4228165E-1,-1.2754536E-1,-3.9471427E-1,3.7394044E-1,-1.3641687E-1,-2.1080782E-1,1.926849E-1,5.237228E-1,5.6427892E-2,3.947291E-1,-1.0215527E-2,6.276105E-2,3.936747E-1,-1.674906E-1,2.0884356E-1,5.0146395E-1,3.050206E-1,5.581385E-1,2.2759199E-1,1.6230446E-1,-2.5764957E-1,1.7740713E-3,4.4396946E-1,1.7999119E-1,4.1863886E-1,1.5222034E-1,5.168165E-1],"split_indices":[10,4,10,10,10,4,0,0,0,0,0,3,0,10,3,3,3,14,3,2,3,0,3,0,8,0,7,3,0,10,10,0,8,0,11,5,0,12,5,3,2,7,13,6,7,4,0,8,8,5,4,14,7,3,4,0,8,0,0,4,13,0,0,0,0,0,0,0,0,0,0,0,0,0,0,0,0,0,0,0,0,0,0,0,0,0,0,0,0,0,0,0,0,0,0,0,0,0,0,0,0,0,0,0,0,0,0,0,0,0,0,0,0,0,0,0,0,0,0],"split_type":[0,0,0,0,0,0,0,0,0,0,0,0,0,0,0,0,0,0,0,0,0,0,0,0,0,0,0,0,0,0,0,0,0,0,0,0,0,0,0,0,0,0,0,0,0,0,0,0,0,0,0,0,0,0,0,0,0,0,0,0,0,0,0,0,0,0,0,0,0,0,0,0,0,0,0,0,0,0,0,0,0,0,0,0,0,0,0,0,0,0,0,0,0,0,0,0,0,0,0,0,0,0,0,0,0,0,0,0,0,0,0,0,0,0,0,0,0,0,0],"sum_hessian":[3.9569038E3,2.2266958E3,1.7302079E3,1.3527172E3,8.7397876E2,5.992354E2,1.1309725E3,1.1067231E3,2.4599402E2,4.3048953E2,4.4348923E2,1.772457E2,4.2198975E2,8.817286E2,2.4924394E2,4.024902E1,1.0664741E3,1.9249533E1,2.2674449E2,8.3997955E1,3.4649158E2,1.13247246E2,3.3024197E2,1.0549744E2,7.174825E1,2.8824298E2,1.3374675E2,4.8823813E2,3.9349042E2,4.849882E1,2.0074512E2,1.849955E1,2.1749472E1,8.2697986E2,2.3949417E2,1.7499575E1,1.7499574E0,1.3699667E2,8.974782E1,5.174874E1,3.2249214E1,2.7749326E2,6.899832E1,4.024902E1,7.299822E1,1.8999538E2,1.4024658E2,1.9999514E1,8.549792E1,3.9249046E1,3.249921E1,1.029975E2,1.852455E2,6.1748497E1,7.1998245E1,1.8774544E2,3.004927E2,3.0999247E1,1.7499575E1,9.424771E1,1.0649741E2,1.5749617E1,2.7499332E0,7.2498236E0,1.4499647E1,3.6224118E2,4.647387E2,2.3699423E2,2.4999392E0,1.5999611E1,1.4999635E0,1.357467E2,1.2499696E0,7.2248245E1,1.7499575E1,4.5998882E1,5.7498603E0,1.1749714E1,2.0499502E1,4.4248924E1,2.3324432E2,6.1998493E1,6.99983E0,3.2499208E0,3.69991E1,4.3748936E1,2.9249289E1,1.5099632E2,3.899905E1,8.199801E1,5.8248585E1,1.3749665E1,6.249848E0,4.4998905E1,4.0499016E1,3.69991E1,2.2499452E0,1.3749665E1,1.8749544E1,1.01247536E2,1.7499574E0,1.6324603E2,2.1999466E1,1.399966E1,4.774884E1,3.949904E1,3.249921E1,1.1724715E2,7.049828E1,2.9349286E2,6.99983E0,1.8749544E1,1.2249702E1,1.4999635E0,1.5999611E1,2.5249386E1,6.899832E1,2.999927E0,1.0349748E2],"tree_param":{"num_deleted":"0","num_feature":"15","num_nodes":"119","size_leaf_vector":"1"}},{"base_weights":[9.583643E-4,-8.2891333E-1,9.7323334E-1,-1.0484229E0,2.3206861E-1,3.5566694E-1,1.2168889E0,-1.2175338E0,-5.384E-1,7.8923213E-1,-1.0538952E-1,-3.0991885E-1,7.1495324E-1,1.3304017E0,8.1861514E-1,-2.1561053E-2,-1.2593445E0,-9.240337E-1,-6.194554E-2,1.0247386E0,-1.6207127E-1,2.5341853E-1,-7.418559E-1,2.3050283E-1,-7.311148E-1,1.002347E0,3.20232E-1,1.1517689E0,1.4456433E0,2.0028134E-1,1.002367E0,-9.963748E-1,2.6625258E-1,-1.3130155E0,-6.3533825E-1,2.119635E-1,-1.0756224E0,4.082608E-1,-4.7676486E-1,6.270932E-1,1.4467514E0,1.1566099E0,-5.3239083E-1,-2.684731E-1,5.920794E-1,-1.1619612E0,-3.9898854E-1,1.0314343E0,-8.915107E-3,2.6230887E-1,-9.949488E-1,1.641167E-1,1.1165332E0,-1.365693E-1,7.321134E-1,1.8654603E-1,1.2049006E0,1.2424139E0,1.4810933E0,-1.7485309E-1,1.0951511E0,8.05726E-1,1.2620636E0,-3.7192744E-1,-2.6243478E-2,2.2440167E-1,-5.9740186E-2,-4.2915955E-1,-3.3706474E-1,-2.994437E-1,-6.6214144E-2,1.8912295E-1,-1.308114E-1,-3.2912216E-1,3.3987933E-1,2.9367825E-1,-2.8561573E-2,-3.582641E-2,-2.6267275E-1,1.0260634E-2,4.0875083E-1,2.6116533E-2,4.5632285E-1,1.4062416E-3,4.266543E-1,2.3758438E-1,-2.5964558E-1,-1.4347747E-1,1.7650515E-1,6.0300894E-2,3.327146E-1,-3.7337124E-1,-3.2089755E-2,-4.3380633E-2,-3.286279E-1,-3.4256123E-2,3.8011652E-1,1.4308129E-1,-1.3186057E-1,3.207682E-1,-8.572928E-2,-2.1069607E-1,-4.1710395E-1,3.0492327E-1,-1.6209641E-1,3.9911357E-1,2.6004675E-1,-1.03248216E-1,3.181645E-1,3.277285E-1,1.142116E-1,3.3453655E-1,-1.4731924E-1,1.4491953E-1,3.840459E-1,4.2515227E-1,2.6807103E-1,4.533308E-1,3.8370758E-1,1.0168E-1,-2.7722916E-1,4.2488858E-1,1.5956822E-1,2.6984704E-1,-1.7939538E-2,-3.1632986E-2,3.8661888E-1],"categories":[],"categories_nodes":[],"categories_segments":[],"categories_sizes":[],"default_left":[0,0,0,0,0,0,0,0,0,0,0,0,0,0,0,0,0,0,0,0,0,0,0,0,0,0,0,0,0,0,0,0,0,0,0,0,0,0,0,0,0,0,0,0,0,0,0,0,0,0,0,0,0,0,0,0,0,0,0,0,0,0,0,0,0,0,0,0,0,0,0,0,0,0,0,0,0,0,0,0,0,0,0,0,0,0,0,0,0,0,0,0,0,0,0,0,0,0,0,0,0,0,0,0,0,0,0,0,0,0,0,0,0,0,0,0,0,0,0,0,0,0,0,0,0,0,0],"id":1,"left_children":[1,3,5,7,9,11,13,15,17,19,21,23,25,27,29,31,33,35,37,39,41,43,45,47,49,51,53,55,57,59,61,63,65,67,69,71,73,75,77,79,81,83,85,87,89,91,93,95,97,99,101,103,105,107,109,111,113,115,117,119,121,123,125,-1,-1,-1,-1,-1,-1,-1,-1,-1,-1,-1,-1,-1,-1,-1,-1,-1,-1,-1,-1,-1,-1,-1,-1,-1,-1,-1,-1,-1,-1,-1,-1,-1,-1,-1,-1,-1,-1,-1,-1,-1,-1,-1,-1,-1,-1,-1,-1,-1,-1,-1,-1,-1,-1,-1,-1,-1,-1,-1,-1,-1,-1,-1,-1],"loss_changes":[3.0375654E3,4.7327063E2,2.604265E2,1.4451001E2,6.570134E1,1.17847115E2,5.5092773E1,6.313733E1,7.72765E1,2.9685806E1,5.002611E1,3.957779E1,3.5950897E1,1.8210327E1,3.1411667E1,1.2521984E1,4.0041504E1,4.0273376E1,3.7127155E1,1.6839172E1,1.380558E1,2.495688E1,1.0905617E1,1.4696688E1,2.5825962E1,1.7481552E1,2.5723164E1,1.9444183E1,2.3598633E0,2.2008392E1,9.92366E0,2.1410284E0,7.8876743E0,2.3394287E1,1.461179E1,7.9249973E0,1.097084E1,2.5746628E1,1.4297804E1,2.4463324E1,4.975029E0,1.9014082E0,1.0289978E1,1.0329899E1,1.7042957E1,2.9126205E0,7.8110766E0,4.9050293E0,1.2754088E1,9.707743E0,7.9651337E0,1.4537694E1,7.511322E0,1.6621325E1,8.671642E0,1.3882799E1,1.911792E1,4.3904266E0,1.0455322E0,1.8273314E1,2.7440262E0,1.0172768E1,3.437973E0,0E0,0E0,0E0,0E0,0E0,0E0,0E0,0E0,0E0,0E0,0E0,0E0,0E0,0E0,0E0,0E0,0E0,0E0,0E0,0E0,0E0,0E0,0E0,0E0,0E0,0E0,0E0,0E0,0E0,0E0,0E0,0E0,0E0,0E0,0E0,0E0,0E0,0E0,0E0,0E0,0E0,0E0,0E0,0E0,0E0,0E0,0E0,0E0,0E0,0E0,0E0,0E0,0E0,0E0,0E0,0E0,0E0,0E0,0E0,0E0,0E0,0E0,0E0,0E0],"parents":[2147483647,0,0,1,1,2,2,3,3,4,4,5,5,6,6,7,7,8,8,9,9,10,10,11,11,12,12,13,13,14,14,15,15,16,16,17,17,18,18,19,19,20,20,21,21,22,22,23,23,24,24,25,25,26,26,27,27,28,28,29,29,30,30,31,31,32,32,33,33,34,34,35,35,36,36,37,37,38,38,39,39,40,40,41,41,42,42,43,43,44,44,45,45,46,46,47,47,48,48,49,49,50,50,51,51,52,52,53,53,54,54,55,55,56,56,57,57,58,58,59,59,60,60,61,61,62,62],"right_children":[2,4,6,8,10,12,14,16,18,20,22,24,26,28,30,32,34,36,38,40,42,44,46,48,50,52,54,56,58,60,62,64,66,68,70,72,74,76,78,80,82,84,86,88,90,92,94,96,98,100,102,104,106,108,110,112,114,116,118,120,122,124,126,-1,-1,-1,-1,-1,-1,-1,-1,-1,-1,-1,-1,-1,-1,-1,-1,-1,-1,-1,-1,-1,-1,-1,-1,-1,-1,-1,-1,-1,-1,-1,-1,-1,-1,-1,-1,-1,-1,-1,-1,-1,-1,-1,-1,-1,-1,-1,-1,-1,-1,-1,-1,-1,-1,-1,-1,-1,-1,-1,-1,-1,-1,-1,-1],"split_conditions":[7.481297E-2,5.257824E2,1.0682493E-1,4.2613637E-2,1.4925373E-1,4.910865E2,2.2082019E-1,7.8175895E-2,1.7045455E-1,1.189322E3,7.209776E0,5.636449E0,1.9543974E-1,1.5113351E-1,1.2162162E-1,3.0598132E2,3.0721965E-1,1.29683E-1,2.184466E-1,1.5748031E-1,7.609385E-2,3.4985423E-2,4.0053405E-2,1.6736402E-1,1.6139878E-1,9.027081E-2,1.9933555E-1,4.1899443E-2,1.1221945E-1,1.711352E-1,1.5856236E-1,6.514658E-2,6.981707E0,4.59563E2,4.768125E2,6.748795E-1,3.1217482E-2,8.338E2,5.625E0,2.43079E-1,3.6024016E-1,2.7972028E-1,6.0509915E0,3.3632287E-1,2.5862068E-1,1.0999409E0,1.1822385E3,1.2162162E-1,9.1048865E2,6.51357E0,6.334025E2,9.819967E-2,6.797583E0,5.7527057E2,6.0849056E0,1.22824974E-1,4.768125E2,1.4104372E-1,1.4202062E3,1.0774797E3,7.152318E0,1.1232206E3,3.7419353E1,-3.7192744E-1,-2.6243478E-2,2.2440167E-1,-5.9740186E-2,-4.2915955E-1,-3.3706474E-1,-2.994437E-1,-6.6214144E-2,1.8912295E-1,-1.308114E-1,-3.2912216E-1,3.3987933E-1,2.9367825E-1,-2.8561573E-2,-3.582641E-2,-2.6267275E-1,1.0260634E-2,4.0875083E-1,2.6116533E-2,4.5632285E-1,1.4062416E-3,4.266543E-1,2.3758438E-1,-2.5964558E-1,-1.4347747E-1,1.7650515E-1,6.0300894E-2,3.327146E-1,-3.7337124E-1,-3.2089755E-2,-4.3380633E-2,-3.286279E-1,-3.4256123E-2,3.8011652E-1,1.4308129E-1,-1.3186057E-1,3.207682E-1,-8.572928E-2,-2.1069607E-1,-4.1710395E-1,3.0492327E-1,-1.6209641E-1,3.9911357E-1,2.6004675E-1,-1.03248216E-1,3.181645E-1,3.277285E-1,1.142116E-1,3.3453655E-1,-1.4731924E-1,1.4491953E-1,3.840459E-1,4.2515227E-1,2.6807103E-1,4.533308E-1,3.8370758E-1,1.0168E-1,-2.7722916E-1,4.2488858E-1,1.5956822E-1,2.6984704E-1,-1.7939538E-2,-3.1632986E-2,3.8661888E-1],"split_indices":[10,4,10,10,0,4,0,0,3,8,7,7,0,10,3,1,3,0,0,3,0,10,10,0,0,3,3,3,3,10,10,3,7,4,4,6,12,8,7,2,6,3,7,3,3,6,8,3,8,7,5,0,7,4,7,0,4,0,8,8,7,5,9,0,0,0,0,0,0,0,0,0,0,0,0,0,0,0,0,0,0,0,0,0,0,0,0,0,0,0,0,0,0,0,0,0,0,0,0,0,0,0,0,0,0,0,0,0,0,0,0,0,0,0,0,0,0,0,0,0,0,0,0,0,0,0,0],"split_type":[0,0,0,0,0,0,0,0,0,0,0,0,0,0,0,0,0,0,0,0,0,0,0,0,0,0,0,0,0,0,0,0,0,0,0,0,0,0,0,0,0,0,0,0,0,0,0,0,0,0,0,0,0,0,0,0,0,0,0,0,0,0,0,0,0,0,0,0,0,0,0,0,0,0,0,0,0,0,0,0,0,0,0,0,0,0,0,0,0,0,0,0,0,0,0,0,0,0,0,0,0,0,0,0,0,0,0,0,0,0,0,0,0,0,0,0,0,0,0,0,0,0,0,0,0,0,0],"sum_hessian":[3.7626582E3,2.0300688E3,1.7325894E3,1.6820719E3,3.479969E2,4.9087747E2,1.2417119E3,1.2621781E3,4.198939E2,1.307621E2,2.1723477E2,1.7213359E2,3.1874387E2,9.644826E2,2.7722934E2,4.2685814E1,1.2194922E3,2.315456E2,1.8834828E2,1.0475225E2,2.6009851E1,1.3930397E2,7.793081E1,7.559415E1,9.6539444E1,1.8355753E2,1.3518634E2,3.8252927E2,5.819533E2,6.3989964E1,2.1323938E2,9.168974E0,3.3516838E1,1.1218934E3,9.759876E1,2.7213194E1,2.043324E2,8.828791E1,1.0006037E2,5.521314E1,4.9539112E1,5.237219E0,2.0772633E1,5.490309E1,8.440088E1,3.394727E1,4.398354E1,1.6635351E1,5.8958797E1,2.02599E1,7.627955E1,2.2299093E1,1.6125844E2,6.441483E1,7.077151E1,2.0193485E1,3.623358E2,9.1788765E1,4.9016455E2,4.565552E1,1.8334446E1,1.2368685E2,8.955253E1,6.9451766E0,2.2237976E0,1.6170444E1,1.7346394E1,6.883776E2,4.3351584E2,5.130136E1,4.62974E1,1.655194E1,1.0661252E1,2.0286526E2,1.4671419E0,4.0939545E1,4.7348366E1,5.3459187E1,4.6601185E1,3.1147978E1,2.406516E1,2.6801283E0,4.6858982E1,1.1718664E0,4.0653524E0,3.8978307E0,1.6874802E1,4.4459442E1,1.0443647E1,4.8841854E1,3.555903E1,3.1315472E1,2.6317978E0,3.3100586E1,1.0882955E1,2.9256768E0,1.3709675E1,2.7652239E1,3.1306557E1,7.8101974E0,1.2449701E1,4.5432095E1,3.0847456E1,9.890177E0,1.2408916E1,8.453625E1,7.672219E1,5.5502663E1,8.912171E0,3.3901756E1,3.6869747E1,8.24674E0,1.1946745E1,3.490824E1,3.2742755E2,5.9112625E1,3.267614E1,4.2114203E2,6.902254E1,2.7408236E1,1.8247284E1,1.0712297E1,7.6221476E0,1.11561874E2,1.2124984E1,1.656342E0,8.789619E1],"tree_param":{"num_deleted":"0","num_feature":"15","num_nodes":"127","size_leaf_vector":"1"}},{"base_weights":[2.2450632E-3,-6.1989844E-1,8.174586E-1,-9.839873E-1,-1.2339119E-1,4.621524E-1,1.0952312E0,-1.0808945E0,-5.556639E-1,-4.8254886E-1,2.1606103E-1,9.1026455E-1,2.1660389E-1,1.2419333E0,8.980689E-1,-6.1839104E-1,-1.1404421E0,-1.2072959E-1,-8.052811E-1,7.5328225E-1,-5.620262E-1,8.834091E-1,5.1979624E-2,1.2775922E0,7.5347656E-1,-2.878338E-1,5.151292E-1,1.0340282E0,1.2855606E0,7.5696963E-1,1.2149951E0,-8.2482845E-1,1.5312211E-1,-1.2147287E0,-8.969087E-1,-8.739362E-1,1.3660827E-1,-9.88225E-1,-7.0322186E-2,4.2531303E-1,5.1306474E-1,-8.304965E-1,-1.16593E-1,1.280926E0,5.830725E-1,3.794977E-1,-3.304951E-1,3.771033E-1,1.3015685E0,1.0951316E0,5.137342E-1,-5.6914175E-1,2.807553E-1,7.022402E-1,1.23178884E-1,1.1805849E0,7.053532E-1,3.9407057E-1,1.1121956E0,5.603545E-1,1.1253124E0,6.058301E-1,1.2628797E0,-1.2482614E-1,-3.060522E-1,1.4752781E-1,-2.3508616E-1,-3.9395952E-1,-3.428991E-1,-3.4017214E-1,-2.0941441E-1,-3.6806566E-1,1.0876929E-1,1.1921985E-1,-2.5165948E-1,-2.104104E-1,-3.5785806E-1,7.951209E-2,-3.1211376E-1,3.5342133E-1,2.5310334E-2,-1.4090313E-1,-3.1544864E-1,-8.948209E-2,1.3942422E-1,1.4333792E-1,4.027172E-1,3.359656E-1,6.152539E-2,1.8821637E-1,-2.5105895E-2,-1.8699394E-1,1.7665304E-1,-5.0959833E-2,2.2433716E-1,4.0196702E-1,1.7078876E-1,-2.1486836E-2,3.510332E-1,8.122216E-2,3.1848487E-1,-1.6143156E-2,-2.838965E-1,1.7659926E-1,-8.525127E-2,7.701664E-2,2.563977E-1,-4.5772396E-2,2.5299862E-1,6.296799E-2,3.668578E-1,2.8835127E-1,-5.5005684E-2,1.6646923E-1,3.6849114E-1,3.2209215E-1,8.717431E-2,3.4915018E-1,1.1229143E-1,2.5072584E-1,-1.9056457E-1,3.865002E-1,1.1978507E-1],"categories":[],"categories_nodes":[],"categories_segments":[],"categories_sizes":[],"default_left":[0,0,0,0,0,0,0,0,0,0,0,0,0,0,0,0,0,0,0,0,0,0,0,0,0,0,0,0,0,0,0,0,0,0,0,0,0,0,0,0,0,0,0,0,0,0,0,0,0,0,0,0,0,0,0,0,0,0,0,0,0,0,0,0,0,0,0,0,0,0,0,0,0,0,0,0,0,0,0,0,0,0,0,0,0,0,0,0,0,0,0,0,0,0,0,0,0,0,0,0,0,0,0,0,0,0,0,0,0,0,0,0,0,0,0,0,0,0,0,0,0,0,0],"id":2,"left_children":[1,3,5,7,9,11,13,15,17,19,21,23,25,27,29,31,33,35,37,39,41,43,45,47,49,51,53,55,57,59,61,63,65,67,69,71,73,75,77,-1,79,81,83,85,87,89,91,93,95,97,99,101,103,105,107,109,111,-1,113,115,117,119,121,-1,-1,-1,-1,-1,-1,-1,-1,-1,-1,-1,-1,-1,-1,-1,-1,-1,-1,-1,-1,-1,-1,-1,-1,-1,-1,-1,-1,-1,-1,-1,-1,-1,-1,-1,-1,-1,-1,-1,-1,-1,-1,-1,-1,-1,-1,-1,-1,-1,-1,-1,-1,-1,-1,-1,-1,-1,-1,-1,-1],"loss_changes":[1.7352091E3,3.5065466E2,1.4564679E2,4.5861206E1,1.0032863E2,7.148741E1,2.290271E1,2.4405762E1,2.2548073E1,3.968714E1,4.6307396E1,1.2301239E1,6.372266E1,2.9655762E0,1.5083801E1,1.7038376E1,1.3502686E1,1.5089726E1,1.7725586E1,3.1961184E0,4.4887535E1,9.219612E0,4.28217E1,9.656067E-1,1.2858002E1,2.5367369E1,1.9390518E1,3.3695297E0,4.1949463E-1,1.74953E1,2.4025726E0,6.27676E0,7.7632647E0,2.8446655E0,8.273972E0,9.087406E0,1.5198083E1,5.3794556E0,9.207265E0,0E0,5.494524E0,1.8208801E1,1.5202448E1,1.090889E0,9.791498E0,2.1188042E1,4.2836884E1,7.672117E-1,1.0696487E0,5.9171066E0,1.278183E1,2.0506866E1,9.357375E0,1.1972939E1,1.7411112E1,2.1583023E0,6.857459E0,0E0,3.2258072E0,2.255943E1,2.055542E0,3.3375957E0,1.6785278E0,0E0,0E0,0E0,0E0,0E0,0E0,0E0,0E0,0E0,0E0,0E0,0E0,0E0,0E0,0E0,0E0,0E0,0E0,0E0,0E0,0E0,0E0,0E0,0E0,0E0,0E0,0E0,0E0,0E0,0E0,0E0,0E0,0E0,0E0,0E0,0E0,0E0,0E0,0E0,0E0,0E0,0E0,0E0,0E0,0E0,0E0,0E0,0E0,0E0,0E0,0E0,0E0,0E0,0E0,0E0,0E0,0E0,0E0,0E0,0E0],"parents":[2147483647,0,0,1,1,2,2,3,3,4,4,5,5,6,6,7,7,8,8,9,9,10,10,11,11,12,12,13,13,14,14,15,15,16,16,17,17,18,18,19,19,20,20,21,21,22,22,23,23,24,24,25,25,26,26,27,27,28,28,29,29,30,30,31,31,32,32,33,33,34,34,35,35,36,36,37,37,38,38,40,40,41,41,42,42,43,43,44,44,45,45,46,46,47,47,48,48,49,49,50,50,51,51,52,52,53,53,54,54,55,55,56,56,58,58,59,59,60,60,61,61,62,62],"right_children":[2,4,6,8,10,12,14,16,18,20,22,24,26,28,30,32,34,36,38,40,42,44,46,48,50,52,54,56,58,60,62,64,66,68,70,72,74,76,78,-1,80,82,84,86,88,90,92,94,96,98,100,102,104,106,108,110,112,-1,114,116,118,120,122,-1,-1,-1,-1,-1,-1,-1,-1,-1,-1,-1,-1,-1,-1,-1,-1,-1,-1,-1,-1,-1,-1,-1,-1,-1,-1,-1,-1,-1,-1,-1,-1,-1,-1,-1,-1,-1,-1,-1,-1,-1,-1,-1,-1,-1,-1,-1,-1,-1,-1,-1,-1,-1,-1,-1,-1,-1,-1,-1,-1],"split_conditions":[8.016032E-2,4.832169E2,1.2987013E-1,4.803843E-2,4.0927693E-2,1.5151516E-1,1.6251354E-1,1.4925373E-1,7.141208E2,6.655574E-2,1.1741683E-1,8.281574E-2,1.5862525E-1,1.1331445E-1,1.910828E-1,1.7772512E-1,1.9206145E-1,6.1601643E-2,2.8985506E-1,6.51357E0,2.1474588E-1,6.655574E-2,6.772655E0,8.108108E-2,6.4643965E0,5.257824E2,1.2878972E3,1.1741683E-1,1.407253E3,2.73794E-1,7.009346E-2,3.434386E2,1.149735E3,3.1826627E2,4.420456E2,4.6573514E2,6.512093E2,5.5985265E0,5.7107077E0,4.2531303E-1,3.444317E-2,7.322371E2,3.3783782E-2,3.8176033E-1,6.954689E0,1.2878972E3,5.66603E2,4.1493777E-2,1.5795854E3,4.3737302E2,5.778723E2,7.574747E2,8.941878E-2,4.7953217E2,3.7593985E-1,4.6723865E2,8.38545E0,3.9407057E-1,5.288004E2,7.943947E2,3.267974E-1,2.7355623E-1,2.221137E3,-1.2482614E-1,-3.060522E-1,1.4752781E-1,-2.3508616E-1,-3.9395952E-1,-3.428991E-1,-3.4017214E-1,-2.0941441E-1,-3.6806566E-1,1.0876929E-1,1.1921985E-1,-2.5165948E-1,-2.104104E-1,-3.5785806E-1,7.951209E-2,-3.1211376E-1,3.5342133E-1,2.5310334E-2,-1.4090313E-1,-3.1544864E-1,-8.948209E-2,1.3942422E-1,1.4333792E-1,4.027172E-1,3.359656E-1,6.152539E-2,1.8821637E-1,-2.5105895E-2,-1.8699394E-1,1.7665304E-1,-5.0959833E-2,2.2433716E-1,4.0196702E-1,1.7078876E-1,-2.1486836E-2,3.510332E-1,8.122216E-2,3.1848487E-1,-1.6143156E-2,-2.838965E-1,1.7659926E-1,-8.525127E-2,7.701664E-2,2.563977E-1,-4.5772396E-2,2.5299862E-1,6.296799E-2,3.668578E-1,2.8835127E-1,-5.5005684E-2,1.6646923E-1,3.6849114E-1,3.2209215E-1,8.717431E-2,3.4915018E-1,1.1229143E-1,2.5072584E-1,-1.9056457E-1,3.865002E-1,1.1978507E-1],"split_indices":[10,4,10,10,10,0,0,0,8,0,0,0,3,3,10,3,3,3,3,7,3,0,7,10,7,4,8,0,8,3,3,8,8,1,4,4,5,7,7,0,0,8,10,6,7,8,4,0,8,4,4,8,14,4,3,4,7,0,4,8,0,0,8,0,0,0,0,0,0,0,0,0,0,0,0,0,0,0,0,0,0,0,0,0,0,0,0,0,0,0,0,0,0,0,0,0,0,0,0,0,0,0,0,0,0,0,0,0,0,0,0,0,0,0,0,0,0,0,0,0,0,0,0],"split_type":[0,0,0,0,0,0,0,0,0,0,0,0,0,0,0,0,0,0,0,0,0,0,0,0,0,0,0,0,0,0,0,0,0,0,0,0,0,0,0,0,0,0,0,0,0,0,0,0,0,0,0,0,0,0,0,0,0,0,0,0,0,0,0,0,0,0,0,0,0,0,0,0,0,0,0,0,0,0,0,0,0,0,0,0,0,0,0,0,0,0,0,0,0,0,0,0,0,0,0,0,0,0,0,0,0,0,0,0,0,0,0,0,0,0,0,0,0,0,0,0,0,0,0],"sum_hessian":[3.4192905E3,1.9394257E3,1.4798647E3,1.1183544E3,8.210713E2,6.50481E2,8.2938367E2,9.1077094E2,2.0758345E2,3.9875098E2,4.223203E2,2.2930508E2,4.2117593E2,4.7250723E2,3.5687646E2,1.05185524E2,8.0558545E2,7.6234955E1,1.313485E2,2.3582205E1,3.7516876E2,8.247913E1,3.398412E2,6.645761E1,1.6284747E2,1.5659796E2,2.6457797E2,8.6238945E1,3.8626828E2,2.4928177E2,1.075947E2,8.29272E1,2.2258326E1,6.1423376E2,1.9135168E2,1.8803272E1,5.7431683E1,1.0489398E2,2.6454515E1,4.9603605E0,1.8621845E1,2.3354358E2,1.4162518E2,3.409156E1,4.838757E1,1.8307741E2,1.567638E2,2.1574502E0,6.430016E1,6.567977E1,9.71677E1,1.04764854E2,5.18331E1,1.7854953E2,8.602844E1,5.7851093E1,2.8387852E1,3.268822E2,5.938607E1,1.641712E2,8.511056E1,8.83623E0,9.875848E1,2.7828604E1,5.5098595E1,1.6697226E1,5.5611E0,2.5157623E2,3.6265753E2,8.515888E1,1.06192795E2,1.4633913E1,4.1693583E0,4.5784008E1,1.1647675E1,4.551649E1,5.937749E1,2.0198416E1,6.2560997E0,6.6140018E0,1.2007844E1,8.989671E1,1.4364687E2,1.0827422E2,3.3350964E1,3.047298E0,3.1044264E1,1.9182337E1,2.9205233E1,1.190232E2,6.405421E1,1.1913891E2,3.7624878E1,1.090343E0,1.0671072E0,6.0314026E1,3.9861367E0,3.9686193E0,6.1711147E1,6.834836E1,2.8819342E1,4.475708E1,6.000778E1,3.3520813E1,1.8312288E1,4.61979E1,1.3235164E2,6.2778122E1,2.325032E1,2.6632535E0,5.518784E1,2.1979437E1,6.4084153E0,1.1235734E1,4.8150337E1,5.5532387E1,1.0863882E2,8.04351E1,4.6754622E0,7.730593E0,1.1056371E0,9.545318E1,3.3052921E0],"tree_param":{"num_deleted":"0","num_feature":"15","num_nodes":"123","size_leaf_vector":"1"}},{"base_weights":[3.151686E-3,-4.6776366E-1,7.1482944E-1,-6.9426537E-1,1.5827624E-1,4.360619E-1,9.5817435E-1,-8.730243E-1,-3.419654E-1,4.419684E-1,-2.2533834E-1,1.000408E0,3.1303406E-1,1.1071384E0,7.6060605E-1,-3.5169536E-1,-9.4732755E-1,1.5632685E-1,-5.500031E-1,6.524678E-1,3.30254E-2,-3.590483E-1,6.195623E-1,1.1055052E0,4.947626E-1,3.649128E-2,6.1260265E-1,8.956557E-1,1.1524801E0,6.16449E-1,1.0613858E0,-1.9175336E-1,-1.0119551E0,-1.0352129E0,-6.9223505E-1,8.598715E-1,-1.1990765E-1,-9.289994E-1,-3.4269693E-1,1.1108006E0,3.9704904E-1,9.033931E-1,-2.592178E-1,-4.9750897E-1,3.090308E-1,-1.5294454E-1,9.42242E-1,1.1331929E0,1.9999048E-1,-4.9116805E-1,8.393829E-1,2.685411E-1,-4.4532728E-1,6.831622E-1,-1.258065E-1,6.3613755E-1,1.1543282E0,1.1577772E0,3.3887944E-1,4.49266E-1,1.0250944E0,4.749931E-1,1.1133037E0,-2.2564274E-1,7.960474E-3,-3.3688742E-1,1.7494544E-1,-3.4842268E-1,-2.8599948E-1,-1.1031639E-1,-2.631488E-1,-1.9041261E-3,3.250518E-1,-1.03646755E-1,3.1638435E-1,-2.9338858E-1,3.5680525E-2,-1.8062094E-2,-2.132364E-1,3.7245238E-1,1.050254E-1,-1.3674727E-1,1.8972756E-1,3.1929225E-1,-1.5053062E-1,-2.2936036E-1,2.1525895E-2,-8.129422E-2,-2.895374E-1,2.2100344E-1,-9.734558E-2,2.521423E-1,-1.337806E-1,3.5102457E-1,4.126871E-3,8.639675E-2,3.4845227E-1,-2.0462766E-1,2.3834284E-1,-4.8028E-1,4.4261876E-2,3.4420166E-2,3.353939E-1,-2.1595973E-1,1.176983E-1,-2.0526014E-1,1.6348203E-1,1.4939861E-1,2.670086E-1,-3.6127865E-1,6.3286036E-2,2.9452208E-1,5.546151E-3,3.630037E-1,8.130136E-2,3.1799832E-1,3.6426398E-1,2.3075618E-1,-9.434618E-2,2.635489E-1,6.27306E-2,3.1661975E-1,-7.41025E-2,-1.0351815E-1,2.574253E-1,2.5378004E-1,3.7425876E-1],"categories":[],"categories_nodes":[],"categories_segments":[],"categories_sizes":[],"default_left":[0,0,0,0,0,0,0,0,0,0,0,0,0,0,0,0,0,0,0,0,0,0,0,0,0,0,0,0,0,0,0,0,0,0,0,0,0,0,0,0,0,0,0,0,0,0,0,0,0,0,0,0,0,0,0,0,0,0,0,0,0,0,0,0,0,0,0,0,0,0,0,0,0,0,0,0,0,0,0,0,0,0,0,0,0,0,0,0,0,0,0,0,0,0,0,0,0,0,0,0,0,0,0,0,0,0,0,0,0,0,0,0,0,0,0,0,0,0,0,0,0,0,0,0,0,0,0],"id":3,"left_children":[1,3,5,7,9,11,13,15,17,19,21,23,25,27,29,31,33,35,37,39,41,43,45,47,49,51,53,55,57,59,61,63,65,67,69,71,73,75,77,79,81,83,85,87,89,91,93,95,97,99,101,103,105,107,109,111,113,115,117,119,121,123,125,-1,-1,-1,-1,-1,-1,-1,-1,-1,-1,-1,-1,-1,-1,-1,-1,-1,-1,-1,-1,-1,-1,-1,-1,-1,-1,-1,-1,-1,-1,-1,-1,-1,-1,-1,-1,-1,-1,-1,-1,-1,-1,-1,-1,-1,-1,-1,-1,-1,-1,-1,-1,-1,-1,-1,-1,-1,-1,-1,-1,-1,-1,-1,-1],"loss_changes":[1.0319172E3,2.62859E2,8.275665E1,8.540399E1,5.3763695E1,3.9490685E1,1.8399841E1,3.4612427E1,4.774228E1,2.4409477E1,2.3980057E1,4.881691E0,3.9091267E1,2.5210876E0,1.1670532E1,1.1858396E1,1.6972107E1,2.6569115E1,2.5180115E1,2.1487E1,2.5033651E1,1.7007431E1,7.3980083E0,1.8735046E0,7.0000577E0,2.7687323E1,1.1890686E1,3.958683E0,9.076538E-1,1.2830025E1,2.2327576E0,1.1409474E1,4.5540695E0,4.93573E0,1.1991562E1,7.4682217E0,2.6505678E1,5.9741364E0,2.1936127E1,6.174965E0,2.4746798E1,6.1259384E0,1.239204E1,1.5765587E1,8.880082E0,3.120768E0,4.355711E0,1.6055145E0,2.4819055E0,4.2429037E0,2.8467379E0,2.0720295E1,1.9421001E1,7.4845123E0,7.7378674E0,7.906616E0,1.3338127E0,3.6450195E-1,1.1879807E0,1.4231514E1,2.4080048E0,3.1618438E0,1.9085388E0,0E0,0E0,0E0,0E0,0E0,0E0,0E0,0E0,0E0,0E0,0E0,0E0,0E0,0E0,0E0,0E0,0E0,0E0,0E0,0E0,0E0,0E0,0E0,0E0,0E0,0E0,0E0,0E0,0E0,0E0,0E0,0E0,0E0,0E0,0E0,0E0,0E0,0E0,0E0,0E0,0E0,0E0,0E0,0E0,0E0,0E0,0E0,0E0,0E0,0E0,0E0,0E0,0E0,0E0,0E0,0E0,0E0,0E0,0E0,0E0,0E0,0E0,0E0,0E0],"parents":[2147483647,0,0,1,1,2,2,3,3,4,4,5,5,6,6,7,7,8,8,9,9,10,10,11,11,12,12,13,13,14,14,15,15,16,16,17,17,18,18,19,19,20,20,21,21,22,22,23,23,24,24,25,25,26,26,27,27,28,28,29,29,30,30,31,31,32,32,33,33,34,34,35,35,36,36,37,37,38,38,39,39,40,40,41,41,42,42,43,43,44,44,45,45,46,46,47,47,48,48,49,49,50,50,51,51,52,52,53,53,54,54,55,55,56,56,57,57,58,58,59,59,60,60,61,61,62,62],"right_children":[2,4,6,8,10,12,14,16,18,20,22,24,26,28,30,32,34,36,38,40,42,44,46,48,50,52,54,56,58,60,62,64,66,68,70,72,74,76,78,80,82,84,86,88,90,92,94,96,98,100,102,104,106,108,110,112,114,116,118,120,122,124,126,-1,-1,-1,-1,-1,-1,-1,-1,-1,-1,-1,-1,-1,-1,-1,-1,-1,-1,-1,-1,-1,-1,-1,-1,-1,-1,-1,-1,-1,-1,-1,-1,-1,-1,-1,-1,-1,-1,-1,-1,-1,-1,-1,-1,-1,-1,-1,-1,-1,-1,-1,-1,-1,-1,-1,-1,-1,-1,-1,-1,-1,-1,-1,-1],"split_conditions":[8.691453E-2,5.1463916E2,1.3544019E-1,1.8532819E-1,1.9693655E-1,1.0720667E-1,1.6251354E-1,1.3377926E-1,1.9543974E-1,7.5868726E0,3.468208E-1,1.2493011E3,2.1474588E-1,1.1331445E-1,1.910828E-1,8.12537E2,4.3636363E-2,6.1996826E2,2.5795357E-2,7.666574E2,6.655574E-2,5.7077765E2,3.1282585E-2,3.527337E-2,1.9818331E-1,1.0583567E3,1.9234956E3,1.8619084E-1,2.5855112E3,2.937063E-1,7.009346E-2,4.1637752E-2,2.6239067E-1,3.232368E2,6.585489E2,3.2669623E2,4.008222E-1,1.0776361E0,5.625E0,1.253482E-1,1.4492753E-1,4.2039847E2,4.2613637E-2,7.1947193E0,1.1822385E3,2.1479714E-1,7.6677315E-2,3.287671E-2,1.7179671E-1,5.257824E2,1.0335917E-1,4.4443396E2,5.730713E2,3.1217483E-1,4.7245602E2,1.1741683E-1,1.8508998E-1,2.2584693E-1,3.3379695E-1,8.165137E2,2.7535567E-2,4.6415678E-1,2.0905924E-1,-2.2564274E-1,7.960474E-3,-3.3688742E-1,1.7494544E-1,-3.4842268E-1,-2.8599948E-1,-1.1031639E-1,-2.631488E-1,-1.9041261E-3,3.250518E-1,-1.03646755E-1,3.1638435E-1,-2.9338858E-1,3.5680525E-2,-1.8062094E-2,-2.132364E-1,3.7245238E-1,1.050254E-1,-1.3674727E-1,1.8972756E-1,3.1929225E-1,-1.5053062E-1,-2.2936036E-1,2.1525895E-2,-8.129422E-2,-2.895374E-1,2.2100344E-1,-9.734558E-2,2.521423E-1,-1.337806E-1,3.5102457E-1,4.126871E-3,8.639675E-2,3.4845227E-1,-2.0462766E-1,2.3834284E-1,-4.8028E-1,4.4261876E-2,3.4420166E-2,3.353939E-1,-2.1595973E-1,1.176983E-1,-2.0526014E-1,1.6348203E-1,1.4939861E-1,2.670086E-1,-3.6127865E-1,6.3286036E-2,2.9452208E-1,5.546151E-3,3.630037E-1,8.130136E-2,3.1799832E-1,3.6426398E-1,2.3075618E-1,-9.434618E-2,2.635489E-1,6.27306E-2,3.1661975E-1,-7.41025E-2,-1.0351815E-1,2.574253E-1,2.5378004E-1,3.7425876E-1],"split_indices":[10,4,10,3,0,0,0,0,0,7,3,8,3,3,10,8,10,8,10,8,0,4,10,11,3,8,8,10,8,3,3,2,2,1,8,1,3,6,7,14,3,9,10,7,8,0,10,2,3,4,10,4,4,3,4,0,14,3,13,8,12,6,10,0,0,0,0,0,0,0,0,0,0,0,0,0,0,0,0,0,0,0,0,0,0,0,0,0,0,0,0,0,0,0,0,0,0,0,0,0,0,0,0,0,0,0,0,0,0,0,0,0,0,0,0,0,0,0,0,0,0,0,0,0,0,0,0],"split_type":[0,0,0,0,0,0,0,0,0,0,0,0,0,0,0,0,0,0,0,0,0,0,0,0,0,0,0,0,0,0,0,0,0,0,0,0,0,0,0,0,0,0,0,0,0,0,0,0,0,0,0,0,0,0,0,0,0,0,0,0,0,0,0,0,0,0,0,0,0,0,0,0,0,0,0,0,0,0,0,0,0,0,0,0,0,0,0,0,0,0,0,0,0,0,0,0,0,0,0,0,0,0,0,0,0,0,0,0,0,0,0,0,0,0,0,0,0,0,0,0,0,0,0,0,0,0,0],"sum_hessian":[3.077066E3,1.8519669E3,1.225099E3,1.3598596E3,4.9210727E2,5.7229236E2,6.528066E2,9.011388E2,4.5872083E2,2.828102E2,2.0929704E2,1.0115384E2,4.7113852E2,3.695595E2,2.832471E2,1.1312944E2,7.8800934E2,1.3518176E2,3.2353903E2,1.863123E2,9.649792E1,1.8119675E2,2.8100296E1,8.2765E1,1.8388838E1,2.4556776E2,2.2557077E2,6.890888E1,3.006506E2,1.9353809E2,8.9709015E1,9.210762E1,2.1021822E1,5.838138E2,2.0419559E2,3.7516853E1,9.766492E1,1.1316675E2,2.103723E2,6.5474144E1,1.2083816E2,2.3730818E1,7.27671E1,1.5030174E2,3.0895008E1,8.4342985E0,1.9665998E1,8.006543E1,2.6995683E0,4.6526737E0,1.3736165E1,1.6604234E2,7.952541E1,2.0596443E2,1.9606342E1,3.612501E1,3.278387E1,2.9828555E2,2.3650553E0,1.3883713E2,5.4700962E1,8.1220875E0,8.158693E1,2.5135132E1,6.697249E1,1.9930841E1,1.090982E0,2.2455069E2,3.592631E2,7.520797E1,1.2898761E2,7.8977146E0,2.9619137E1,8.2521484E1,1.5143429E1,1.0817909E2,4.9876523E0,1.1968449E2,9.0687805E1,5.533447E1,1.0139677E1,2.5933365E1,9.490479E1,2.1510126E1,2.2206933E0,2.828001E1,4.4487083E1,1.02316025E2,4.7985714E1,1.8347149E1,1.2547861E1,1.4953932E0,6.9389052E0,1.558212E1,4.0838776E0,2.9573765E0,7.7108055E1,1.0275502E0,1.6720182E0,1.1492729E0,3.5034006E0,4.2065277E0,9.529637E0,1.7944473E1,1.4809787E2,6.431932E1,1.5206092E1,1.10480385E2,9.548404E1,4.052477E0,1.55538645E1,2.2785845E1,1.3339165E1,3.0491848E1,2.2920227E0,1.1639609E2,1.8188948E2,1.3190564E0,1.0459988E0,4.885811E1,8.997902E1,5.359455E1,1.1064111E0,2.6177492E0,5.5043383E0,2.9709492E1,5.1877438E1],"tree_param":{"num_deleted":"0","num_feature":"15","num_nodes":"127","size_leaf_vector":"1"}},{"base_weights":[4.0055406E-3,-4.3688327E-1,5.1242006E-1,-7.828784E-1,-1.3606831E-1,2.150778E-1,7.721433E-1,-8.098828E-1,1.9258304E-1,1.7772786E-1,-3.5086003E-1,8.371991E-1,1.03366226E-1,9.8632044E-1,5.749186E-1,-6.336519E-1,-9.5268667E-1,-2.3168878E-1,9.5939463E-1,8.587968E-1,7.230405E-2,7.072927E-1,-4.3796653E-1,9.3843687E-1,4.9973655E-1,-5.5957174E-1,2.312557E-1,8.4709716E-1,1.109908E0,3.7482113E-1,8.344847E-1,-7.441199E-1,-2.4842013E-1,-9.983614E-1,-5.207346E-1,1.6071747E-1,-3.1472358E-1,-2.0364353E-1,1.354844E0,6.0583826E-2,1.0745755E0,3.2295758E-1,-4.0439886E-1,1.2028394E-1,1.2836064E0,-6.1502504E-1,3.597117E-2,9.674634E-1,-6.647198E-2,-3.4187678E-1,6.637215E-1,-6.2247986E-1,2.866748E-1,-3.7698898E-1,3.209154E-1,6.598393E-1,1.1050689E0,1.1207808E0,1.6860795E-1,-1.3601846E-2,6.9205034E-1,8.9330393E-1,7.28077E-2,-1.4606184E-1,-2.6873997E-1,4.1302913E-1,-1.00198224E-1,-3.0391887E-1,-4.423764E-2,3.3206873E-2,-2.4992003E-1,-2.2578068E-1,2.2871588E-1,4.8055074E-1,4.879675E-2,2.7930254E-1,-1.6619025E-1,3.4030035E-1,-1.3241488E-1,1.9658942E-2,2.0068066E-1,-2.0326816E-1,5.346537E-2,1.7819907E-1,-1.6449544E-1,1.348264E-1,4.2872903E-1,-1.2477481E-1,-2.9133105E-1,4.4204406E-2,-2.624679E-1,2.076986E-1,3.3735225E-1,8.4396265E-2,3.0486387E-1,-2.2384897E-1,1.6207438E-2,7.197808E-2,-2.3938923E-1,1.7557353E-1,4.1736946E-3,2.5098538E-1,8.8409886E-2,3.3580422E-1,5.085499E-2,1.4828275E-1,3.3922225E-1,1.8885265E-1,-1.18276976E-1,2.3855405E-1,-1.180612E-1,2.2787595E-1,-1.8400691E-1,9.800351E-2,2.886741E-1,-1.7878047E-1,2.0564462E-1],"categories":[],"categories_nodes":[],"categories_segments":[],"categories_sizes":[],"default_left":[0,0,0,0,0,0,0,0,0,0,0,0,0,0,0,0,0,0,0,0,0,0,0,0,0,0,0,0,0,0,0,0,0,0,0,0,0,0,0,0,0,0,0,0,0,0,0,0,0,0,0,0,0,0,0,0,0,0,0,0,0,0,0,0,0,0,0,0,0,0,0,0,0,0,0,0,0,0,0,0,0,0,0,0,0,0,0,0,0,0,0,0,0,0,0,0,0,0,0,0,0,0,0,0,0,0,0,0,0,0,0,0,0,0,0,0,0],"id":4,"left_children":[1,3,5,7,9,11,13,15,17,19,21,23,25,27,29,31,33,35,37,39,41,43,45,47,49,51,53,55,57,59,61,63,65,67,69,71,-1,-1,73,75,77,79,81,83,85,87,89,91,-1,-1,93,95,-1,97,99,101,103,105,107,109,111,113,115,-1,-1,-1,-1,-1,-1,-1,-1,-1,-1,-1,-1,-1,-1,-1,-1,-1,-1,-1,-1,-1,-1,-1,-1,-1,-1,-1,-1,-1,-1,-1,-1,-1,-1,-1,-1,-1,-1,-1,-1,-1,-1,-1,-1,-1,-1,-1,-1,-1,-1,-1,-1,-1,-1],"loss_changes":[6.218018E2,1.545217E2,9.9327545E1,1.8351105E1,5.370852E1,4.1754898E1,2.8464417E1,1.6316193E1,6.538643E0,2.3207775E1,4.3892235E1,2.6573563E0,4.349932E1,4.7048645E0,1.8395393E1,1.274884E1,6.7680054E0,4.4360523E0,5.5258813E0,7.401375E0,3.3794834E1,1.2141407E1,3.6734215E1,2.546196E0,7.0083075E0,8.507631E0,2.3545124E1,6.92778E0,1.5568237E0,2.5295788E1,6.9232254E0,8.7604065E0,1.0088062E1,4.0159607E0,7.4709377E0,5.9899855E0,0E0,0E0,1.5242977E0,6.0172267E0,3.5867157E0,1.645134E1,1.564312E1,6.3780656E0,1.5710258E0,2.2181381E1,1.2296164E1,2.1487694E0,0E0,0E0,2.6490517E0,6.760292E0,0E0,1.4641716E1,3.0413696E1,5.84182E0,6.809845E-1,4.9221802E-1,1.058865E0,2.8962938E1,1.0426338E1,5.338829E0,5.436111E0,0E0,0E0,0E0,0E0,0E0,0E0,0E0,0E0,0E0,0E0,0E0,0E0,0E0,0E0,0E0,0E0,0E0,0E0,0E0,0E0,0E0,0E0,0E0,0E0,0E0,0E0,0E0,0E0,0E0,0E0,0E0,0E0,0E0,0E0,0E0,0E0,0E0,0E0,0E0,0E0,0E0,0E0,0E0,0E0,0E0,0E0,0E0,0E0,0E0,0E0,0E0,0E0,0E0,0E0],"parents":[2147483647,0,0,1,1,2,2,3,3,4,4,5,5,6,6,7,7,8,8,9,9,10,10,11,11,12,12,13,13,14,14,15,15,16,16,17,17,18,18,19,19,20,20,21,21,22,22,23,23,24,24,25,25,26,26,27,27,28,28,29,29,30,30,31,31,32,32,33,33,34,34,35,35,38,38,39,39,40,40,41,41,42,42,43,43,44,44,45,45,46,46,47,47,50,50,51,51,53,53,54,54,55,55,56,56,57,57,58,58,59,59,60,60,61,61,62,62],"right_children":[2,4,6,8,10,12,14,16,18,20,22,24,26,28,30,32,34,36,38,40,42,44,46,48,50,52,54,56,58,60,62,64,66,68,70,72,-1,-1,74,76,78,80,82,84,86,88,90,92,-1,-1,94,96,-1,98,100,102,104,106,108,110,112,114,116,-1,-1,-1,-1,-1,-1,-1,-1,-1,-1,-1,-1,-1,-1,-1,-1,-1,-1,-1,-1,-1,-1,-1,-1,-1,-1,-1,-1,-1,-1,-1,-1,-1,-1,-1,-1,-1,-1,-1,-1,-1,-1,-1,-1,-1,-1,-1,-1,-1,-1,-1,-1,-1,-1],"split_conditions":[7.277138E-2,4.7245602E2,1.215395E-1,2.3282887E-2,7.526806E2,1.1472275E-1,1.5151516E-1,2.5E-1,4.5880734E2,5.895722E0,4.981273E0,1.1213243E3,8.8823095E-2,2.1301775E-1,5.3761304E2,4.3010753E-2,5.5096418E-2,5.8536587E0,6.535948E-2,4.66563E-1,1.9693655E-1,3.3407573E-2,5.437046E2,2.5439128E-1,9.31195E-2,4.2679313E-1,4.5067194E2,1.8619084E-1,2.792321E-1,2.006689E-1,2.0691206E3,5.161812E2,4.207921E0,4.0567952E-1,5.1041882E2,3.259098E-2,-3.1472358E-1,-2.0364353E-1,4.1291617E2,2.1479714E-1,1.2146893E0,5.2527405E2,1.910828E-1,4.670232E0,9.547582E1,6.747331E0,1.9694276E3,1.4492753E-1,-6.647198E-2,-3.4187678E-1,8.62069E-2,3.7786776E-1,2.866748E-1,7.361121E2,6.425041E0,8.954785E2,2.0761245E-1,4.4363928E2,1.0081861E0,6.905714E2,1.9694276E3,7.009346E-2,1.5754923E-1,-1.4606184E-1,-2.6873997E-1,4.1302913E-1,-1.00198224E-1,-3.0391887E-1,-4.423764E-2,3.3206873E-2,-2.4992003E-1,-2.2578068E-1,2.2871588E-1,4.8055074E-1,4.879675E-2,2.7930254E-1,-1.6619025E-1,3.4030035E-1,-1.3241488E-1,1.9658942E-2,2.0068066E-1,-2.0326816E-1,5.346537E-2,1.7819907E-1,-1.6449544E-1,1.348264E-1,4.2872903E-1,-1.2477481E-1,-2.9133105E-1,4.4204406E-2,-2.624679E-1,2.076986E-1,3.3735225E-1,8.4396265E-2,3.0486387E-1,-2.2384897E-1,1.6207438E-2,7.197808E-2,-2.3938923E-1,1.7557353E-1,4.1736946E-3,2.5098538E-1,8.8409886E-2,3.3580422E-1,5.085499E-2,1.4828275E-1,3.3922225E-1,1.8885265E-1,-1.18276976E-1,2.3855405E-1,-1.180612E-1,2.2787595E-1,-1.8400691E-1,9.800351E-2,2.886741E-1,-1.7878047E-1,2.0564462E-1],"split_indices":[10,4,10,11,8,0,0,0,4,7,7,8,3,3,4,10,10,7,2,6,0,10,4,14,3,2,4,10,14,3,8,8,7,3,5,10,0,0,1,0,6,4,3,7,9,7,8,3,0,0,14,13,0,8,7,8,3,4,6,8,8,3,10,0,0,0,0,0,0,0,0,0,0,0,0,0,0,0,0,0,0,0,0,0,0,0,0,0,0,0,0,0,0,0,0,0,0,0,0,0,0,0,0,0,0,0,0,0,0,0,0,0,0,0,0,0,0],"split_type":[0,0,0,0,0,0,0,0,0,0,0,0,0,0,0,0,0,0,0,0,0,0,0,0,0,0,0,0,0,0,0,0,0,0,0,0,0,0,0,0,0,0,0,0,0,0,0,0,0,0,0,0,0,0,0,0,0,0,0,0,0,0,0,0,0,0,0,0,0,0,0,0,0,0,0,0,0,0,0,0,0,0,0,0,0,0,0,0,0,0,0,0,0,0,0,0,0,0,0,0,0,0,0,0,0,0,0,0,0,0,0,0,0,0,0,0,0],"sum_hessian":[2.771992E3,1.4846598E3,1.2873322E3,6.897323E2,7.949275E2,6.010511E2,6.86281E2,6.7131744E2,1.8414856E1,3.2308896E2,4.7183856E2,9.050955E1,5.1054156E2,3.2708276E2,3.5919824E2,3.029236E2,3.6839383E2,1.2304635E1,6.11022E0,4.234991E1,2.8073904E2,3.534573E1,4.3649283E2,6.8253E1,2.2256552E1,8.201689E1,4.2852466E2,1.5750514E2,1.6957764E2,2.0421469E2,1.5498354E2,2.346923E2,6.823132E1,3.3197903E2,3.6414803E1,8.856332E0,3.4483035E0,1.0488111E0,5.061409E0,9.284664E0,3.3065247E1,1.8420523E2,9.653381E1,1.810919E1,1.723654E1,3.1755838E2,1.1893443E2,6.674875E1,1.5042441E0,1.4829035E0,2.077365E1,7.9313034E1,2.7038558E0,5.464081E1,3.7388385E2,9.332193E1,6.4183205E1,1.6745274E2,2.1249022E0,9.223595E1,1.11978745E2,1.4371274E2,1.1270797E1,8.861403E1,1.4607826E2,2.6582556E0,6.557307E1,3.2615338E2,5.8256683E0,1.2264982E1,2.4149818E1,3.4176135E0,5.4387183E0,3.9081316E0,1.1532774E0,3.6293151E0,5.6553493E0,3.205344E1,1.011805E0,1.063007E2,7.790453E1,6.560959E1,3.092422E1,1.06647E1,7.4444895E0,3.1670303E0,1.40695095E1,2.050617E2,1.124967E2,1.06723E2,1.2211432E1,2.622032E1,4.052843E1,1.0826548E1,9.947102E0,6.6966736E1,1.2346298E1,2.2337091E1,3.2303715E1,2.0041779E2,1.7346606E2,6.2009464E1,3.1312464E1,6.3024864E1,1.1583422E0,3.4126782E0,1.6404005E2,1.1031705E0,1.0217317E0,2.9130945E1,6.3105003E1,1.0686798E2,5.1107664E0,1.6211636E1,1.2750111E2,5.401885E0,5.8689113E0],"tree_param":{"num_deleted":"0","num_feature":"15","num_nodes":"117","size_leaf_vector":"1"}},{"base_weights":[4.232952E-3,-2.4967845E-1,5.865231E-1,-5.005485E-1,7.597698E-2,4.48063E-1,9.409779E-1,-6.833173E-1,-2.3107746E-1,1.8967502E-1,-3.0493948E-1,3.0691338E-1,8.2596236E-1,9.710163E-1,-1.9099218E-1,-3.7347525E-2,-7.3808753E-1,-5.003506E-1,2.0186096E-2,4.9760017E-1,4.1415016E-3,-5.0022197E-1,9.3949616E-2,1.4569965E-1,8.383981E-1,8.6400455E-1,-1.8990852E-1,8.357434E-1,1.087886E0,-4.6869126E-1,7.121967E-1,-7.511199E-1,1.6157737E-1,-7.573591E-1,7.92619E-1,-3.7448274E-3,-6.728678E-1,3.2368106E-1,-4.2973328E-1,6.018863E-1,-1.1554602E-1,-1.8544918E-1,4.915663E-1,-5.720256E-1,7.1091044E-1,2.2460078E-1,-7.382587E-1,4.1825223E-1,-2.5137594E-1,-1.585732E-1,8.6797047E-1,9.4044983E-1,5.3182656E-1,1.833021E-1,-7.0613146E-1,6.337345E-1,1.0570135E0,3.3080363E-1,3.1164828E-1,4.291688E-2,2.5348893E-1,3.9320994E-2,-3.115233E-1,1.1251532E-1,-1.8953076E-1,-2.5503293E-1,-1.4906102E-1,3.8978806E-1,-1.6219018E-1,1.5948346E-1,-2.1274954E-1,-5.6597345E-2,-2.6165763E-1,-1.6286435E-2,1.7119841E-1,8.5050404E-2,-1.9261737E-1,1.3902727E-1,2.8360417E-1,-1.852048E-1,2.0481779E-1,5.5222167E-3,-2.4530081E-1,1.8379788E-1,-8.136356E-2,-1.3189548E-1,-3.128218E-1,-5.953199E-2,3.0145675E-1,2.5927675E-1,1.5811307E-2,-3.1615475E-1,9.6685514E-2,1.7401022E-1,-9.547639E-4,3.9156668E-2,-1.7959505E-1,2.1581651E-1,-3.2836133E-1,2.7053413E-1,1.2478303E-2,3.099086E-1,1.9742845E-1,2.1148972E-1,-1.0657749E-1,1.7426988E-2,-3.4143427E-1,2.9154333E-1,1.1865064E-1,-5.9553754E-2,3.2909256E-1,-7.8926146E-2,2.0162906E-1],"categories":[],"categories_nodes":[],"categories_segments":[],"categories_sizes":[],"default_left":[0,0,0,0,0,0,0,0,0,0,0,0,0,0,0,0,0,0,0,0,0,0,0,0,0,0,0,0,0,0,0,0,0,0,0,0,0,0,0,0,0,0,0,0,0,0,0,0,0,0,0,0,0,0,0,0,0,0,0,0,0,0,0,0,0,0,0,0,0,0,0,0,0,0,0,0,0,0,0,0,0,0,0,0,0,0,0,0,0,0,0,0,0,0,0,0,0,0,0,0,0,0,0,0,0,0,0,0,0,0,0,0,0],"id":5,"left_children":[1,3,5,7,9,11,13,15,17,19,21,23,25,27,29,31,33,35,37,39,41,43,45,47,49,51,53,55,57,-1,59,61,63,65,67,69,71,73,75,77,79,81,83,85,87,89,91,93,95,97,99,101,103,-1,105,107,109,-1,111,-1,-1,-1,-1,-1,-1,-1,-1,-1,-1,-1,-1,-1,-1,-1,-1,-1,-1,-1,-1,-1,-1,-1,-1,-1,-1,-1,-1,-1,-1,-1,-1,-1,-1,-1,-1,-1,-1,-1,-1,-1,-1,-1,-1,-1,-1,-1,-1,-1,-1,-1,-1,-1,-1],"loss_changes":[3.7293805E2,1.4353856E2,3.7168213E1,4.8713852E1,3.3197834E1,2.9226822E1,7.4701385E0,2.0873505E1,2.7245438E1,3.3699833E1,1.3778467E1,3.4491802E1,5.9495697E0,2.3928223E0,9.006969E0,6.8270574E0,1.6663574E1,1.6647682E1,2.8704365E1,1.4251373E1,3.4202106E1,1.0711945E1,6.556738E0,3.3781174E1,2.903389E0,3.168724E0,3.0045938E0,3.8502731E0,9.049988E-1,0E0,2.2139835E-1,2.7897763E0,6.631434E0,1.2582581E1,5.606116E0,1.9679874E1,1.375605E1,1.1746186E1,1.3008606E1,8.583893E0,1.3671865E1,3.4359467E1,9.739313E0,6.5466576E0,2.091391E0,5.6247454E0,3.0871577E0,1.2607918E1,1.695807E1,3.7028873E0,2.5122986E0,2.3563461E0,4.7553806E0,0E0,1.4685972E0,4.0744286E0,2.5640793E0,0E0,8.868701E-1,0E0,0E0,0E0,0E0,0E0,0E0,0E0,0E0,0E0,0E0,0E0,0E0,0E0,0E0,0E0,0E0,0E0,0E0,0E0,0E0,0E0,0E0,0E0,0E0,0E0,0E0,0E0,0E0,0E0,0E0,0E0,0E0,0E0,0E0,0E0,0E0,0E0,0E0,0E0,0E0,0E0,0E0,0E0,0E0,0E0,0E0,0E0,0E0,0E0,0E0,0E0,0E0,0E0,0E0],"parents":[2147483647,0,0,1,1,2,2,3,3,4,4,5,5,6,6,7,7,8,8,9,9,10,10,11,11,12,12,13,13,14,14,15,15,16,16,17,17,18,18,19,19,20,20,21,21,22,22,23,23,24,24,25,25,26,26,27,27,28,28,30,30,31,31,32,32,33,33,34,34,35,35,36,36,37,37,38,38,39,39,40,40,41,41,42,42,43,43,44,44,45,45,46,46,47,47,48,48,49,49,50,50,51,51,52,52,54,54,55,55,56,56,58,58],"right_children":[2,4,6,8,10,12,14,16,18,20,22,24,26,28,30,32,34,36,38,40,42,44,46,48,50,52,54,56,58,-1,60,62,64,66,68,70,72,74,76,78,80,82,84,86,88,90,92,94,96,98,100,102,104,-1,106,108,110,-1,112,-1,-1,-1,-1,-1,-1,-1,-1,-1,-1,-1,-1,-1,-1,-1,-1,-1,-1,-1,-1,-1,-1,-1,-1,-1,-1,-1,-1,-1,-1,-1,-1,-1,-1,-1,-1,-1,-1,-1,-1,-1,-1,-1,-1,-1,-1,-1,-1,-1,-1,-1,-1,-1,-1],"split_conditions":[1.0335917E-1,4.9630972E2,1.8072289E-1,1.6818501E-1,2.534319E-1,5.6392676E2,2.221137E3,1.0291595E-1,3.841229E-2,6.5680475E0,2.5714287E-1,3.144654E-1,2.41419E3,2.1276596E-1,5.463976E2,3.0598132E2,3.4324944E-2,1.9459459E-1,6.56422E2,1.7286376E3,5.66603E2,5.878886E2,1.1500151E3,9.825651E2,3.69863E0,8.135593E0,4.8635574E2,2.2875817E-1,3.05499E-1,-4.6869126E-1,1.9417475E-1,3.444317E-2,6.520256E2,4.8582997E-2,6.36196E2,9.3072845E2,4.8256226E0,4.487828E2,4.7082496E0,5.445995E2,3.7209302E-1,1.0820946E3,1.5795854E3,4.650082E2,7.009346E-2,6.618789E2,4.3644385E2,7.1817193E0,4.3359872E2,8.733477E2,2.41419E3,1.0341791E3,4.4301187E2,1.833021E-1,2.950215E-1,7.285219E2,4.3543512E2,3.3080363E-1,1.8532819E-1,4.291688E-2,2.5348893E-1,3.9320994E-2,-3.115233E-1,1.1251532E-1,-1.8953076E-1,-2.5503293E-1,-1.4906102E-1,3.8978806E-1,-1.6219018E-1,1.5948346E-1,-2.1274954E-1,-5.6597345E-2,-2.6165763E-1,-1.6286435E-2,1.7119841E-1,8.5050404E-2,-1.9261737E-1,1.3902727E-1,2.8360417E-1,-1.852048E-1,2.0481779E-1,5.5222167E-3,-2.4530081E-1,1.8379788E-1,-8.136356E-2,-1.3189548E-1,-3.128218E-1,-5.953199E-2,3.0145675E-1,2.5927675E-1,1.5811307E-2,-3.1615475E-1,9.6685514E-2,1.7401022E-1,-9.547639E-4,3.9156668E-2,-1.7959505E-1,2.1581651E-1,-3.2836133E-1,2.7053413E-1,1.2478303E-2,3.099086E-1,1.9742845E-1,2.1148972E-1,-1.0657749E-1,1.7426988E-2,-3.4143427E-1,2.9154333E-1,1.1865064E-1,-5.9553754E-2,3.2909256E-1,-7.8926146E-2,2.0162906E-1],"split_indices":[10,4,10,3,0,4,8,0,10,7,3,3,8,10,4,1,11,0,5,8,4,4,5,8,7,7,1,3,0,0,10,0,8,10,5,8,7,4,7,4,3,8,8,1,3,8,9,7,1,8,8,5,9,0,13,8,4,0,3,0,0,0,0,0,0,0,0,0,0,0,0,0,0,0,0,0,0,0,0,0,0,0,0,0,0,0,0,0,0,0,0,0,0,0,0,0,0,0,0,0,0,0,0,0,0,0,0,0,0,0,0,0,0],"split_type":[0,0,0,0,0,0,0,0,0,0,0,0,0,0,0,0,0,0,0,0,0,0,0,0,0,0,0,0,0,0,0,0,0,0,0,0,0,0,0,0,0,0,0,0,0,0,0,0,0,0,0,0,0,0,0,0,0,0,0,0,0,0,0,0,0,0,0,0,0,0,0,0,0,0,0,0,0,0,0,0,0,0,0,0,0,0,0,0,0,0,0,0,0,0,0,0,0,0,0,0,0,0,0,0,0,0,0,0,0,0,0,0,0],"sum_hessian":[2.5204155E3,1.7554927E3,7.649227E2,9.9130194E2,7.6419073E2,5.5168353E2,2.1323923E2,5.897608E2,4.0154117E2,5.889113E2,1.7527942E2,4.0297867E2,1.4870485E2,2.0786542E2,5.373807E0,4.6227486E1,5.435333E2,1.933458E2,2.0819537E2,2.2078996E2,3.6812134E2,1.1750094E2,5.7778484E1,3.1016986E2,9.28088E1,1.4348128E2,5.2235737E0,1.0012502E2,1.077404E2,1.8441179E0,3.529689E0,9.470394E0,3.675709E1,5.3727423E2,6.259054E0,5.011297E1,1.4323282E2,1.244964E2,8.3698975E1,1.887116E2,3.2078373E1,2.654791E2,1.02642265E2,1.1142278E2,6.0781612E0,5.056952E1,7.2089624E0,1.8389267E2,1.262772E2,2.5479426E0,9.026086E1,1.15150185E2,2.8331085E1,1.9753008E0,3.2482727E0,5.4360546E1,4.5764473E1,1.053129E2,2.4275014E0,1.0606055E0,2.4690835E0,2.4600487E0,7.010345E0,2.9379036E1,7.3780556E0,3.9453217E2,1.4274208E2,4.553909E0,1.7051452E0,2.863087E1,2.1482098E1,4.2335487E1,1.0089734E2,4.9509365E1,7.498704E1,1.9123766E1,6.457521E1,1.3616689E2,5.254471E1,1.9835918E1,1.2242455E1,2.0148274E2,6.3996334E1,8.874979E1,1.3892482E1,8.847567E1,2.2947107E1,1.5641643E0,4.5139966E0,9.858106E0,4.0711414E1,5.560588E0,1.6483744E0,1.3260968E2,5.1282986E1,6.0437794E1,6.583941E1,1.4341048E0,1.1138378E0,8.662546E1,3.6353989E0,8.4715126E1,3.043506E1,2.387627E1,4.454815E0,1.4856079E0,1.7626648E0,2.1198467E1,3.316208E1,1.2893047E0,4.4475166E1,1.039743E0,1.3877586E0],"tree_param":{"num_deleted":"0","num_feature":"15","num_nodes":"113","size_leaf_vector":"1"}},{"base_weights":[4.2405096E-3,-4.389739E-1,2.3932977E-1,-7.84564E-1,-2.9348752E-1,7.343858E-1,1.2157056E-1,-8.0142814E-1,2.5532243E-1,8.2858694E-1,-3.4232268E-1,9.298828E-1,5.3281957E-1,-1.3198885E-1,2.9232466E-1,-5.456776E-1,-9.0223676E-1,1.208141E0,7.2346464E-2,-1.6451398E-1,-5.410127E-1,9.406851E-1,-8.022719E-2,-5.325552E-1,5.885296E-1,1.01859935E-1,-4.8980784E-1,4.3209586E-1,-2.5716655E-2,-7.9570556E-1,4.4869375E-1,-9.148292E-1,6.8244435E-2,1.6500806E0,1.683931E-1,-6.473507E-1,1.3486471E0,-2.8222108E-1,3.0203205E-1,-2.4695934E-1,-6.837483E-1,8.305148E-1,1.0546036E0,-1.2466087E0,3.1817362E-1,4.37385E-1,9.3907195E-1,-4.2069504E-1,2.5014195E-1,-2.571334E-1,-7.8875303E-1,5.7188714E-1,1.0999624E-1,-3.284541E-1,3.6977446E-1,-3.0023536E-1,-1.3953942E-1,5.636632E-1,-6.460089E-3,-2.8439766E-1,-1.5308154E-1,-5.9194148E-2,5.628185E-1,-1.8468276E-1,2.618202E-1,2.520963E-2,-3.4494185E-1,1.0694824E-1,4.9290198E-1,-1.0980243E-1,1.4465858E-1,2.884805E-1,1.753129E-2,1.2014387E-1,-1.3248459E-1,-2.1033661E-1,3.3383945E-1,2.5947887E-1,3.5720147E-2,9.308164E-2,3.2349578E-1,-1.3172704E-1,-4.2762282E-1,2.646779E-1,-1.2087868E-1,1.7802505E-1,-4.3471724E-2,1.0499232E-1,3.0355105E-1,1.4935527E-2,-2.55321E-1,1.5579699E-1,-6.226225E-2,8.361634E-3,-1.6982651E-1,-2.550245E-1,8.889156E-3,2.4467534E-1,1.1373843E-1,2.1428563E-1,-8.371757E-3,-1.9358104E-1,1.5202939E-2,1.673997E-1,-7.009595E-2],"categories":[],"categories_nodes":[],"categories_segments":[],"categories_sizes":[],"default_left":[0,0,0,0,0,0,0,0,0,0,0,0,0,0,0,0,0,0,0,0,0,0,0,0,0,0,0,0,0,0,0,0,0,0,0,0,0,0,0,0,0,0,0,0,0,0,0,0,0,0,0,0,0,0,0,0,0,0,0,0,0,0,0,0,0,0,0,0,0,0,0,0,0,0,0,0,0,0,0,0,0,0,0,0,0,0,0,0,0,0,0,0,0,0,0,0,0,0,0,0,0,0,0,0,0],"id":6,"left_children":[1,3,5,7,9,11,13,15,-1,17,19,21,23,25,27,29,31,33,35,37,39,41,-1,43,45,47,49,51,53,55,57,59,-1,61,63,65,67,69,71,73,75,77,79,81,83,85,87,89,91,93,95,97,99,101,103,-1,-1,-1,-1,-1,-1,-1,-1,-1,-1,-1,-1,-1,-1,-1,-1,-1,-1,-1,-1,-1,-1,-1,-1,-1,-1,-1,-1,-1,-1,-1,-1,-1,-1,-1,-1,-1,-1,-1,-1,-1,-1,-1,-1,-1,-1,-1,-1,-1,-1],"loss_changes":[2.4142761E2,4.014676E1,8.817316E1,7.2282104E0,3.133947E1,1.096109E1,5.3044903E1,5.5770264E0,0E0,6.781225E0,1.9123413E1,2.1430588E0,8.948372E0,4.1332436E1,3.2546463E1,1.7533588E1,2.5884247E0,7.014162E0,9.195469E0,1.5924374E1,1.0592339E1,9.459686E-1,0E0,5.107319E0,6.9396553E0,2.3288635E1,1.3372456E1,2.283355E1,2.6988361E1,3.3015862E0,9.805767E0,1.7390747E0,0E0,4.9717407E0,3.765973E0,2.473954E0,4.6309614E-1,1.4961039E1,9.357479E0,1.0933311E1,6.1500626E0,1.819046E0,8.59787E-1,1.2198448E-2,2.1189408E0,9.063265E0,1.4001312E0,1.3508981E1,2.8898212E1,9.810209E0,4.2881355E0,1.6337273E1,1.2948024E1,1.5363175E1,1.1234382E1,0E0,0E0,0E0,0E0,0E0,0E0,0E0,0E0,0E0,0E0,0E0,0E0,0E0,0E0,0E0,0E0,0E0,0E0,0E0,0E0,0E0,0E0,0E0,0E0,0E0,0E0,0E0,0E0,0E0,0E0,0E0,0E0,0E0,0E0,0E0,0E0,0E0,0E0,0E0,0E0,0E0,0E0,0E0,0E0,0E0,0E0,0E0,0E0,0E0,0E0],"parents":[2147483647,0,0,1,1,2,2,3,3,4,4,5,5,6,6,7,7,9,9,10,10,11,11,12,12,13,13,14,14,15,15,16,16,17,17,18,18,19,19,20,20,21,21,23,23,24,24,25,25,26,26,27,27,28,28,29,29,30,30,31,31,33,33,34,34,35,35,36,36,37,37,38,38,39,39,40,40,41,41,42,42,43,43,44,44,45,45,46,46,47,47,48,48,49,49,50,50,51,51,52,52,53,53,54,54],"right_children":[2,4,6,8,10,12,14,16,-1,18,20,22,24,26,28,30,32,34,36,38,40,42,-1,44,46,48,50,52,54,56,58,60,-1,62,64,66,68,70,72,74,76,78,80,82,84,86,88,90,92,94,96,98,100,102,104,-1,-1,-1,-1,-1,-1,-1,-1,-1,-1,-1,-1,-1,-1,-1,-1,-1,-1,-1,-1,-1,-1,-1,-1,-1,-1,-1,-1,-1,-1,-1,-1,-1,-1,-1,-1,-1,-1,-1,-1,-1,-1,-1,-1,-1,-1,-1,-1,-1,-1],"split_conditions":[4.2613637E-2,4.420456E2,1.1741683E-1,4.8833424E-1,4.6031747E0,8.281574E-2,4.9773325E2,4.7528818E2,2.5532243E-1,1.3957725E3,2.1276596E-1,2.41419E3,3.816794E-2,6.07298E0,7.26812E0,3.347334E2,3.4582134E-2,2.210759E-1,3.6660413E2,2.346041E-1,5.841785E0,2.2770399E-1,-8.022719E-2,1.3413158E2,5.677763E2,4.2586862E2,7.943947E2,1.3273302E3,5.66603E2,2.92E2,2.1699819E-1,2.8985506E-1,6.8244435E-2,2.9915424E2,4.768125E2,2.5684932E-1,4.8465267E-2,3.4398034E-1,5.0715214E-1,7.1036676E2,2.942619E-2,8.311293E2,6.04534E-2,4.5435684E1,8.695652E-2,1.3377926E-1,5.8536585E-2,7.141208E2,7.098327E2,2.2712934E-1,1.0666667E0,7.1871967E2,5.3550487E0,1.4026885E-1,1.4202062E3,-3.0023536E-1,-1.3953942E-1,5.636632E-1,-6.460089E-3,-2.8439766E-1,-1.5308154E-1,-5.9194148E-2,5.628185E-1,-1.8468276E-1,2.618202E-1,2.520963E-2,-3.4494185E-1,1.0694824E-1,4.9290198E-1,-1.0980243E-1,1.4465858E-1,2.884805E-1,1.753129E-2,1.2014387E-1,-1.3248459E-1,-2.1033661E-1,3.3383945E-1,2.5947887E-1,3.5720147E-2,9.308164E-2,3.2349578E-1,-1.3172704E-1,-4.2762282E-1,2.646779E-1,-1.2087868E-1,1.7802505E-1,-4.3471724E-2,1.0499232E-1,3.0355105E-1,1.4935527E-2,-2.55321E-1,1.5579699E-1,-6.226225E-2,8.361634E-3,-1.6982651E-1,-2.550245E-1,8.889156E-3,2.4467534E-1,1.1373843E-1,2.1428563E-1,-8.371757E-3,-1.9358104E-1,1.5202939E-2,1.673997E-1,-7.009595E-2],"split_indices":[10,4,0,3,7,0,4,8,0,8,0,8,3,7,7,1,11,2,1,2,7,2,0,9,4,4,8,8,4,1,13,3,0,1,4,0,14,3,6,8,12,5,10,9,14,14,10,8,5,0,6,5,7,3,8,0,0,0,0,0,0,0,0,0,0,0,0,0,0,0,0,0,0,0,0,0,0,0,0,0,0,0,0,0,0,0,0,0,0,0,0,0,0,0,0,0,0,0,0,0,0,0,0,0,0],"split_type":[0,0,0,0,0,0,0,0,0,0,0,0,0,0,0,0,0,0,0,0,0,0,0,0,0,0,0,0,0,0,0,0,0,0,0,0,0,0,0,0,0,0,0,0,0,0,0,0,0,0,0,0,0,0,0,0,0,0,0,0,0,0,0,0,0,0,0,0,0,0,0,0,0,0,0,0,0,0,0,0,0,0,0,0,0,0,0,0,0,0,0,0,0,0,0,0,0,0,0,0,0,0,0,0,0],"sum_hessian":[2.3150676E3,8.02065E2,1.5130027E3,2.3631851E2,5.657465E2,2.8973392E2,1.2232687E3,2.3441164E2,1.9068673E0,2.2929667E1,5.4281683E2,1.4524701E2,1.4448691E2,4.923645E2,7.309042E2,6.808743E1,1.663242E2,1.4869275E1,8.06039E0,2.8742593E2,2.5539091E2,1.441607E2,1.0863049E0,6.7546415E0,1.3773227E2,2.9819662E2,1.9416788E2,5.0750836E2,2.2339583E2,5.456678E1,1.3520656E1,1.6467882E2,1.645383E0,1.0022332E1,4.846943E0,5.46916E0,2.5912304E0,2.2983488E2,5.759104E1,8.4349815E1,1.7104109E2,7.750052E1,6.666019E1,3.4193177E0,3.3353236E0,9.7807846E1,3.9924423E1,6.55074E1,2.3268922E2,1.10232254E2,8.393563E1,3.5337018E2,1.541382E2,1.2663204E2,9.6763794E1,3.242426E1,2.2142519E1,2.6042433E0,1.0916412E1,1.5096077E2,1.3718049E1,1.1061791E0,8.916153E0,2.3533764E0,2.4935665E0,2.5663269E0,2.902833E0,1.0987898E0,1.4924406E0,2.076011E2,2.2233788E1,1.4738022E1,4.285302E1,1.9253614E1,6.50962E1,1.7000676E2,1.034327E0,7.37188E1,3.7817147E0,2.4931743E0,6.416701E1,1.2463175E0,2.1730003E0,1.7460108E0,1.5893127E0,7.7122765E1,2.0685081E1,5.027978E0,3.4896442E1,3.1718012E1,3.3789383E1,1.4643207E2,8.625716E1,5.781173E1,5.2420525E1,7.804807E1,5.887556E0,1.5463739E2,1.9873279E2,2.7862894E1,1.262753E2,6.8602875E1,5.8029163E1,7.381445E1,2.2949339E1],"tree_param":{"num_deleted":"0","num_feature":"15","num_nodes":"105","size_leaf_vector":"1"}},{"base_weights":[3.2657096E-3,-1.7004928E-1,4.260417E-1,-5.4808384E-1,-5.5369377E-2,3.1359097E-1,8.8888335E-1,2.012252E-1,-5.940388E-1,6.5927863E-1,-9.822026E-2,1.3178174E-1,5.599138E-1,9.389175E-1,3.859881E-1,-5.2242273E-1,5.272702E-1,-6.608652E-1,-8.520906E-2,1.1366764E0,4.3418834E-1,-2.2762926E-1,1.2914224E-1,4.5072117E-1,-2.3167104E-1,7.5980765E-1,3.7429374E-1,9.9757403E-1,4.78262E-1,-2.6923773E-1,6.8887115E-1,8.2421236E-2,-8.1731826E-1,2.2900213E-1,9.902712E-1,-6.8965304E-1,7.0965743E-1,9.7210187E-1,-2.766437E-1,-1.374075E-1,1.266898E0,9.556453E-1,6.747311E-2,4.010955E-1,-3.0187413E-1,1.7851722E-1,-5.808168E-1,-4.9252087E-1,5.263413E-1,-1.1595706E0,-1.1478722E-1,-1.5015823E-1,8.2236433E-1,7.2462505E-1,1.921764E-1,2.691151E-2,1.0065677E0,3.0123138E-1,-1.4388317E-1,-2.4444261E-1,2.958842E-1,-9.670612E-2,-2.7956027E-1,-2.5211869E-2,2.9240456E-1,4.2070264E-1,-1.1262293E-1,-2.7941078E-1,-1.7401549E-1,4.0009218E-1,-1.7371273E-1,-1.4285496E-1,5.5134857E-1,-2.283138E-1,1.6584668E-2,4.1755584E-1,2.5684267E-2,-7.671279E-2,3.1174734E-1,1.2349043E-1,-8.604655E-2,-5.264798E-2,1.91497E-1,-5.263478E-2,-2.2784661E-1,9.40436E-2,-3.8302176E-2,4.43099E-2,-2.6531324E-1,2.827137E-1,-2.7172887E-1,2.2669923E-2,1.9552693E-1,8.113958E-2,-4.0400106E-1,8.3778985E-3,-2.727073E-1,1.219306E-1,-2.7658266E-1,2.5662085E-1,-1.574973E-1,2.5010693E-1,-4.291686E-2,9.850172E-2,-1.3947223E-1,3.0448866E-1,1.2063909E-1,-1.9411947E-1,2.325649E-1,-2.815697E-1,1.8822525E-1],"categories":[],"categories_nodes":[],"categories_segments":[],"categories_sizes":[],"default_left":[0,0,0,0,0,0,0,0,0,0,0,0,0,0,0,0,0,0,0,0,0,0,0,0,0,0,0,0,0,0,0,0,0,0,0,0,0,0,0,0,0,0,0,0,0,0,0,0,0,0,0,0,0,0,0,0,0,0,0,0,0,0,0,0,0,0,0,0,0,0,0,0,0,0,0,0,0,0,0,0,0,0,0,0,0,0,0,0,0,0,0,0,0,0,0,0,0,0,0,0,0,0,0,0,0,0,0,0,0,0,0],"id":7,"left_children":[1,3,5,7,9,11,13,15,17,19,21,23,25,27,29,31,33,35,37,39,41,43,45,47,49,51,53,55,57,-1,59,-1,61,63,65,67,69,71,73,-1,75,77,79,81,83,85,87,89,91,93,95,97,99,101,103,-1,105,-1,107,109,-1,-1,-1,-1,-1,-1,-1,-1,-1,-1,-1,-1,-1,-1,-1,-1,-1,-1,-1,-1,-1,-1,-1,-1,-1,-1,-1,-1,-1,-1,-1,-1,-1,-1,-1,-1,-1,-1,-1,-1,-1,-1,-1,-1,-1,-1,-1,-1,-1,-1,-1],"loss_changes":[1.580577E2,6.629654E1,3.2363937E1,1.237751E1,3.6045513E1,2.2592663E1,2.7085419E0,5.3051553E0,1.1357307E1,6.6626225E0,3.266959E1,3.401164E1,7.6790924E0,2.5034027E0,5.571515E0,1.899191E0,1.8714643E0,1.218956E1,8.388277E0,4.883135E0,8.899228E0,3.313883E1,1.4231405E1,1.1395918E1,1.4765944E1,5.9507217E0,7.0866528E0,7.0111847E-1,4.8489037E0,0E0,3.2597122E0,0E0,8.705378E-3,2.5426307E0,3.7072506E0,7.167862E0,6.074415E0,8.863357E0,5.6282635E0,0E0,2.747589E0,2.2159576E0,3.605009E0,1.038914E1,3.64994E1,1.5643277E1,5.978112E0,8.031269E0,8.149784E0,4.4468136E0,1.3980267E1,3.5665553E0,4.719696E0,3.7510052E0,6.9415903E0,0E0,7.8315735E-2,0E0,3.9523728E0,2.664244E0,0E0,0E0,0E0,0E0,0E0,0E0,0E0,0E0,0E0,0E0,0E0,0E0,0E0,0E0,0E0,0E0,0E0,0E0,0E0,0E0,0E0,0E0,0E0,0E0,0E0,0E0,0E0,0E0,0E0,0E0,0E0,0E0,0E0,0E0,0E0,0E0,0E0,0E0,0E0,0E0,0E0,0E0,0E0,0E0,0E0,0E0,0E0,0E0,0E0,0E0,0E0],"parents":[2147483647,0,0,1,1,2,2,3,3,4,4,5,5,6,6,7,7,8,8,9,9,10,10,11,11,12,12,13,13,14,14,15,15,16,16,17,17,18,18,19,19,20,20,21,21,22,22,23,23,24,24,25,25,26,26,27,27,28,28,30,30,32,32,33,33,34,34,35,35,36,36,37,37,38,38,40,40,41,41,42,42,43,43,44,44,45,45,46,46,47,47,48,48,49,49,50,50,51,51,52,52,53,53,54,54,56,56,58,58,59,59],"right_children":[2,4,6,8,10,12,14,16,18,20,22,24,26,28,30,32,34,36,38,40,42,44,46,48,50,52,54,56,58,-1,60,-1,62,64,66,68,70,72,74,-1,76,78,80,82,84,86,88,90,92,94,96,98,100,102,104,-1,106,-1,108,110,-1,-1,-1,-1,-1,-1,-1,-1,-1,-1,-1,-1,-1,-1,-1,-1,-1,-1,-1,-1,-1,-1,-1,-1,-1,-1,-1,-1,-1,-1,-1,-1,-1,-1,-1,-1,-1,-1,-1,-1,-1,-1,-1,-1,-1,-1,-1,-1,-1,-1,-1],"split_conditions":[1.0335917E-1,4.487828E2,1.910828E-1,1.1472275E-1,4.8E0,5.3761304E2,1.5795854E3,2.938938E2,2.878684E-1,9.2063586E2,5.257824E2,4.2473102E2,1.5717092E-1,2.5231287E-1,1.2857144E-1,3.444317E-2,1.6818501E-1,9.6463025E-2,2.95858E-2,4.5150272E2,2.2900763E-1,4.0466367E2,3.039074E-1,4.4378698E-2,4.664516E2,3.816794E-2,6.4897146E0,4.2325894E2,6.5467625E0,-2.6923773E-1,5.257824E2,8.2421236E-2,2.2329994E1,4.4286206E2,4.420456E2,6.2728696E-2,6.0387096E0,2.1188934E-1,3.785489E-2,-1.374075E-1,5.108043E2,1.7045455E-1,1.3273302E3,5.2447554E-2,7.0972424E0,7.5868726E0,7.285219E2,1.5371478E-1,4.5328638E2,3.937654E-1,7.556779E0,3.1864047E-2,2.792321E-1,2.221137E3,1.7286376E3,2.691151E-2,1.514494E3,3.0123138E-1,2.2153845E-1,2.149437E-1,2.958842E-1,-9.670612E-2,-2.7956027E-1,-2.5211869E-2,2.9240456E-1,4.2070264E-1,-1.1262293E-1,-2.7941078E-1,-1.7401549E-1,4.0009218E-1,-1.7371273E-1,-1.4285496E-1,5.5134857E-1,-2.283138E-1,1.6584668E-2,4.1755584E-1,2.5684267E-2,-7.671279E-2,3.1174734E-1,1.2349043E-1,-8.604655E-2,-5.264798E-2,1.91497E-1,-5.263478E-2,-2.2784661E-1,9.40436E-2,-3.8302176E-2,4.43099E-2,-2.6531324E-1,2.827137E-1,-2.7172887E-1,2.2669923E-2,1.9552693E-1,8.113958E-2,-4.0400106E-1,8.3778985E-3,-2.727073E-1,1.219306E-1,-2.7658266E-1,2.5662085E-1,-1.574973E-1,2.5010693E-1,-4.291686E-2,9.850172E-2,-1.3947223E-1,3.0448866E-1,1.2063909E-1,-1.9411947E-1,2.325649E-1,-2.815697E-1,1.8822525E-1],"split_indices":[10,4,10,0,7,4,8,1,3,8,4,1,0,0,3,0,3,10,2,4,0,8,0,3,4,3,7,4,7,0,4,0,9,4,4,3,7,0,10,0,4,3,8,3,7,7,8,0,4,6,7,3,14,8,8,0,8,0,10,10,0,0,0,0,0,0,0,0,0,0,0,0,0,0,0,0,0,0,0,0,0,0,0,0,0,0,0,0,0,0,0,0,0,0,0,0,0,0,0,0,0,0,0,0,0,0,0,0,0,0,0],"split_type":[0,0,0,0,0,0,0,0,0,0,0,0,0,0,0,0,0,0,0,0,0,0,0,0,0,0,0,0,0,0,0,0,0,0,0,0,0,0,0,0,0,0,0,0,0,0,0,0,0,0,0,0,0,0,0,0,0,0,0,0,0,0,0,0,0,0,0,0,0,0,0,0,0,0,0,0,0,0,0,0,0,0,0,0,0,0,0,0,0,0,0,0,0,0,0,0,0,0,0,0,0,0,0,0,0,0,0,0,0,0,0],"sum_hessian":[2.155106E3,1.5289274E3,6.2617865E2,3.5498007E2,1.1739473E3,5.0513098E2,1.2104766E2,2.0317537E1,3.3466254E2,6.5595146E1,1.108352E3,2.9150677E2,2.136242E2,1.09305595E2,1.1742072E1,6.123746E0,1.419379E1,2.9554834E2,3.9114197E1,1.9720255E1,4.5874893E1,7.063273E2,4.0202484E2,1.551332E2,1.3637358E2,1.01367935E2,1.1225626E2,9.5925575E1,1.338002E1,1.8671386E0,9.874933E0,1.6720972E0,4.4516487E0,9.541623E0,4.6521673E0,2.8995462E2,5.5937104E0,5.371106E0,3.374309E1,1.2987243E0,1.842153E1,1.827809E1,2.7596804E1,7.413453E1,6.3219275E2,3.7658344E2,2.5441412E1,1.1104838E1,1.4402837E2,1.425863E1,1.2211496E2,6.430328E0,9.493761E1,3.7376945E1,7.487932E1,1.0486038E0,9.487697E1,6.9185023E0,6.461518E0,2.4293566E0,7.4455767E0,1.5534283E0,2.8982205E0,7.3453083E0,2.196315E0,3.5532043E0,1.0989631E0,8.811874E1,2.0183589E2,3.745353E0,1.8483573E0,2.1777992E0,3.193307E0,1.3194554E1,2.0548538E1,1.6498125E1,1.9234046E0,1.0458616E0,1.7232227E1,1.3916495E1,1.3680307E1,2.1686098E1,5.2448437E1,4.9642822E2,1.3576451E2,2.6135907E2,1.15224365E2,7.633995E0,1.7807417E1,2.1967194E0,8.908119E0,3.169841E1,1.1232995E2,1.5981456E0,1.2660483E1,1.0433265E2,1.7782312E1,4.011038E0,2.41929E0,9.302175E1,1.9158587E0,3.323819E1,4.1387553E0,6.2440536E1,1.2438784E1,9.2907486E1,1.9694859E0,4.3667965E0,2.0947216E0,1.3099463E0,1.1194103E0],"tree_param":{"num_deleted":"0","num_feature":"15","num_nodes":"111","size_leaf_vector":"1"}},{"base_weights":[3.986385E-3,-3.4421784E-1,1.4566539E-1,3.6797163E-1,-3.895155E-1,5.1544655E-2,5.54114E-1,-1.12384975E-1,5.8822775E-1,-8.6230737E-1,-3.3044463E-1,1.7099127E-2,9.012233E-1,4.355764E-1,9.6677744E-1,1.5097728E-1,-2.9709792E-1,7.2190493E-1,-1.2705779E-1,-9.1436255E-1,1.9981949E-1,-3.6802277E-2,-4.4282413E-1,1.505869E-1,-1.7828462E-1,3.919674E-3,1.0991507E0,2.3621435E-1,7.2174007E-1,4.0953037E-1,1.0157667E0,-5.7300586E-1,5.6760997E-1,8.562835E-1,5.9388652E-2,-3.134114E-1,6.6054827E-1,-9.68892E-1,-3.5531148E-1,2.6520777E-1,-1.8522215E-1,9.7163177E-1,-1.3152045E-1,1.6576958E-1,-5.093669E-1,6.991928E-1,9.8472245E-2,-5.219414E-1,-7.828035E-2,6.137145E-1,-8.5242975E-1,4.2035264E-1,1.2097069E0,5.460771E-1,-4.3856665E-2,7.9752326E-1,-2.7841792E-1,-2.1102457E-1,7.5851756E-1,3.1427416E-1,2.6272652E-1,-2.4543597E-1,-3.0518696E-2,2.7073175E-1,-3.0919842E-2,3.0583772E-1,5.9121836E-2,-1.9667093E-1,1.8024611E-1,4.4987172E-2,2.5875866E-1,-1.03557356E-1,-3.0458033E-1,-1.9346866E-1,7.074804E-2,7.061247E-1,8.730692E-2,6.9557056E-2,-1.1629688E-1,-3.9036468E-2,3.1212607E-1,-2.3124067E-1,-9.792726E-2,2.2721346E-1,-6.323202E-3,4.3689314E-2,-1.8726198E-1,-1.822207E-1,4.9022254E-2,4.7358748E-2,-6.255115E-2,-9.784692E-2,2.625884E-1,-3.082354E-1,-6.2050216E-2,-2.4583136E-1,2.3439331E-1,3.8918328E-1,2.0757584E-1,1.8222693E-1,-2.2797145E-1,-1.6971469E-1,7.158893E-2,2.5309774E-1,1.8989732E-2,-5.0055057E-1,1.7020972E-1,4.773082E-2,2.5819018E-1,1.9297774E-1,-1.0024894E-1],"categories":[],"categories_nodes":[],"categories_segments":[],"categories_sizes":[],"default_left":[0,0,0,0,0,0,0,0,0,0,0,0,0,0,0,0,0,0,0,0,0,0,0,0,0,0,0,0,0,0,0,0,0,0,0,0,0,0,0,0,0,0,0,0,0,0,0,0,0,0,0,0,0,0,0,0,0,0,0,0,0,0,0,0,0,0,0,0,0,0,0,0,0,0,0,0,0,0,0,0,0,0,0,0,0,0,0,0,0,0,0,0,0,0,0,0,0,0,0,0,0,0,0,0,0,0,0,0,0,0,0],"id":8,"left_children":[1,3,5,7,9,11,13,15,17,19,21,23,25,27,29,31,-1,33,35,37,39,41,43,45,47,49,51,53,55,57,59,61,63,65,67,-1,69,71,73,-1,-1,75,77,79,81,83,85,87,89,91,93,95,97,99,101,103,105,-1,107,-1,109,-1,-1,-1,-1,-1,-1,-1,-1,-1,-1,-1,-1,-1,-1,-1,-1,-1,-1,-1,-1,-1,-1,-1,-1,-1,-1,-1,-1,-1,-1,-1,-1,-1,-1,-1,-1,-1,-1,-1,-1,-1,-1,-1,-1,-1,-1,-1,-1,-1,-1],"loss_changes":[1.0009221E2,1.9073196E1,5.5410896E1,3.8330297E0,1.5136391E1,3.4319313E1,1.2784935E1,2.931642E0,2.4411497E0,3.5390816E0,1.6234959E1,2.9458176E1,8.109543E0,1.1898403E1,1.2062569E0,3.378902E0,0E0,1.805543E0,4.1009192E0,1.4253464E0,2.590546E0,1.3251627E1,1.4504555E1,1.911402E1,1.571611E1,5.3585987E0,2.300148E0,1.0973519E1,6.769047E0,3.0494654E0,1.0171814E0,4.0142465E-1,1.6488142E0,1.6558189E0,2.1709538E0,0E0,1.9574535E-1,1.1626167E0,1.3055127E0,0E0,0E0,1.052453E1,1.1862009E1,9.413365E0,1.5111801E1,2.448532E0,2.1013397E1,6.141987E0,1.0990204E1,1.7581103E0,2.6995826E-1,3.671861E0,5.3756714E-1,5.26651E0,1.0041046E1,2.6752396E0,8.971084E0,0E0,1.9436574E-1,0E0,1.014805E0,0E0,0E0,0E0,0E0,0E0,0E0,0E0,0E0,0E0,0E0,0E0,0E0,0E0,0E0,0E0,0E0,0E0,0E0,0E0,0E0,0E0,0E0,0E0,0E0,0E0,0E0,0E0,0E0,0E0,0E0,0E0,0E0,0E0,0E0,0E0,0E0,0E0,0E0,0E0,0E0,0E0,0E0,0E0,0E0,0E0,0E0,0E0,0E0,0E0,0E0],"parents":[2147483647,0,0,1,1,2,2,3,3,4,4,5,5,6,6,7,7,8,8,9,9,10,10,11,11,12,12,13,13,14,14,15,15,17,17,18,18,19,19,20,20,21,21,22,22,23,23,24,24,25,25,26,26,27,27,28,28,29,29,30,30,31,31,32,32,33,33,34,34,36,36,37,37,38,38,41,41,42,42,43,43,44,44,45,45,46,46,47,47,48,48,49,49,50,50,51,51,52,52,53,53,54,54,55,55,56,56,58,58,60,60],"right_children":[2,4,6,8,10,12,14,16,18,20,22,24,26,28,30,32,-1,34,36,38,40,42,44,46,48,50,52,54,56,58,60,62,64,66,68,-1,70,72,74,-1,-1,76,78,80,82,84,86,88,90,92,94,96,98,100,102,104,106,-1,108,-1,110,-1,-1,-1,-1,-1,-1,-1,-1,-1,-1,-1,-1,-1,-1,-1,-1,-1,-1,-1,-1,-1,-1,-1,-1,-1,-1,-1,-1,-1,-1,-1,-1,-1,-1,-1,-1,-1,-1,-1,-1,-1,-1,-1,-1,-1,-1,-1,-1,-1,-1],"split_conditions":[3.7243947E-2,6.655574E-2,1.4625229E-1,2.8520498E-1,2.9603857E2,3.259098E-2,2.1276596E-1,2.4760774E2,4.2523032E-1,9.560229E-1,5.572588E0,2.2520107E-1,1.1221945E-1,2.3043688E-1,6.2728696E-2,4.6436035E2,-2.9709792E-1,1.0273973E-1,1.2552302E-1,2.955665E-1,2.95858E-2,5.479452E-2,3.7720773E2,7.8175895E-2,9.6618354E-2,9.5036084E2,1.1327879E-1,8.8386206E2,2.9577464E-1,1.2552302E-1,2.1201414E-1,2.5435785E2,3.8103897E2,3.764479E-1,6.1601643E-2,-3.134114E-1,6.528836E-2,1.2793177E-1,4.602353E2,2.6520777E-1,-1.8522215E-1,7.0670105E2,2.4896266E-1,1.8292683E-1,4.846256E2,1.4994109E3,8.336896E0,5.4891895E2,5.5573506E0,4.0466367E2,1.0335917E-1,1.4492753E-1,4.0124834E-1,1.0880416E3,5.230633E2,2.221137E3,3.9087947E-2,-2.1102457E-1,5.2151E2,3.1427416E-1,2.1234637E2,-2.4543597E-1,-3.0518696E-2,2.7073175E-1,-3.0919842E-2,3.0583772E-1,5.9121836E-2,-1.9667093E-1,1.8024611E-1,4.4987172E-2,2.5875866E-1,-1.03557356E-1,-3.0458033E-1,-1.9346866E-1,7.074804E-2,7.061247E-1,8.730692E-2,6.9557056E-2,-1.1629688E-1,-3.9036468E-2,3.1212607E-1,-2.3124067E-1,-9.792726E-2,2.2721346E-1,-6.323202E-3,4.3689314E-2,-1.8726198E-1,-1.822207E-1,4.9022254E-2,4.7358748E-2,-6.255115E-2,-9.784692E-2,2.625884E-1,-3.082354E-1,-6.2050216E-2,-2.4583136E-1,2.3439331E-1,3.8918328E-1,2.0757584E-1,1.8222693E-1,-2.2797145E-1,-1.6971469E-1,7.158893E-2,2.5309774E-1,1.8989732E-2,-5.0055057E-1,1.7020972E-1,4.773082E-2,2.5819018E-1,1.9297774E-1,-1.0024894E-1],"split_indices":[10,0,10,13,1,11,10,9,13,6,7,0,3,3,3,4,0,14,2,3,2,2,8,0,3,8,0,8,0,2,14,8,1,13,3,0,14,0,5,0,0,8,0,2,4,8,7,4,7,8,10,3,13,5,4,8,14,0,4,0,9,0,0,0,0,0,0,0,0,0,0,0,0,0,0,0,0,0,0,0,0,0,0,0,0,0,0,0,0,0,0,0,0,0,0,0,0,0,0,0,0,0,0,0,0,0,0,0,0,0,0],"split_type":[0,0,0,0,0,0,0,0,0,0,0,0,0,0,0,0,0,0,0,0,0,0,0,0,0,0,0,0,0,0,0,0,0,0,0,0,0,0,0,0,0,0,0,0,0,0,0,0,0,0,0,0,0,0,0,0,0,0,0,0,0,0,0,0,0,0,0,0,0,0,0,0,0,0,0,0,0,0,0,0,0,0,0,0,0,0,0,0,0,0,0,0,0,0,0,0,0,0,0,0,0,0,0,0,0,0,0,0,0,0,0],"sum_hessian":[2.0268842E3,5.8578125E2,1.4411029E3,3.4603672E1,5.5117755E2,1.1721298E3,2.689732E2,1.1032547E1,2.3571125E1,5.9705795E1,4.9147174E2,1.1274438E3,4.468586E1,2.1054863E2,5.8424572E1,9.123684E0,1.908863E0,1.9851833E1,3.7192922E0,5.704893E1,2.6568646E0,1.3639787E2,3.5507388E2,6.6995465E2,4.5748923E2,8.259811E0,3.642605E1,1.2517101E2,8.537762E1,5.4775696E0,5.2947002E1,3.1955123E0,5.9281716E0,1.626111E1,3.5907228E0,1.5670629E0,2.1522293E0,5.131099E1,5.7379413E0,1.4016352E0,1.2552295E0,1.0916393E1,1.2548148E2,3.4849827E1,3.2022406E2,5.7043797E1,6.129108E2,1.0217019E2,3.5531903E2,4.9899044E0,3.269907E0,5.774389E0,3.065166E1,5.897403E1,6.619698E1,7.955244E1,5.82518E0,1.0651473E0,4.412422E0,5.0425537E1,2.5214658E0,1.6180106E0,1.5775018E0,3.7236207E0,2.204551E0,1.2596577E1,3.664534E0,1.4565485E0,2.1341743E0,1.1039541E0,1.0482754E0,4.1355715E0,4.7175415E1,3.7902522E0,1.947689E0,2.7907982E0,8.125595E0,5.1919125E1,7.3562355E1,2.6676495E1,8.173331E0,1.3050783E2,1.8971622E2,5.2732407E1,4.3113866E0,5.761146E2,3.679619E1,9.094354E1,1.1226647E1,1.2622132E2,2.290977E2,1.0326542E0,3.95725E0,2.1071727E0,1.1627343E0,1.0156713E0,4.7587175E0,2.4929964E1,5.721697E0,5.6839016E1,2.1350124E0,2.2896286E1,4.33007E1,7.470896E1,4.8434753E0,1.8355846E0,3.9895954E0,1.0146371E0,3.3977854E0,1.4923615E0,1.0291041E0],"tree_param":{"num_deleted":"0","num_feature":"15","num_nodes":"111","size_leaf_vector":"1"}},{"base_weights":[3.499776E-3,-1.279161E-1,2.5179824E-1,-2.896618E-1,1.3091282E-2,1.19493246E-1,5.2660227E-1,-6.8783194E-2,-4.924967E-1,2.1640928E-1,-2.555145E-1,3.1176037E-1,-6.522592E-2,4.1268492E-1,8.2552344E-1,-7.185006E-1,5.7293065E-2,-3.3769074E-1,-7.967368E-1,3.0344966E-1,-2.090575E-1,-6.854126E-2,-4.7223654E-1,2.2759724E-1,9.9811816E-1,-2.1273011E-1,3.719489E-1,5.759696E-1,6.544317E-2,9.004495E-1,4.9225986E-2,-7.798824E-1,1.5257293E-1,2.733007E-1,-2.2961855E-1,-6.434379E-1,-4.8069607E-2,-8.168403E-1,1.7529728E-1,-2.4317808E-2,4.4325128E-1,-1.2597321E-1,-4.2714632E-1,-2.550823E-1,3.186612E-1,-1.167479E-1,-6.633446E-1,-1.6161312E-1,3.7222883E-1,4.16515E-2,1.1550566E0,-3.404328E-1,1.2484491E-1,5.168899E-1,-4.110986E-1,6.790012E-1,9.844313E-2,-4.590598E-1,3.7518364E-1,9.669106E-1,5.225134E-1,-2.9639778E-1,4.97689E-1,1.2295802E-1,-2.5363928E-1,1.610707E-1,-4.026496E-2,-2.0459658E-3,-1.9686607E-1,-1.02865644E-1,-2.779055E-1,-9.6025564E-2,8.20881E-2,-2.1500269E-1,-3.5465166E-1,2.1556623E-1,-4.58233E-2,1.7346819E-1,1.7537901E-2,-1.2219488E-2,-3.3396122E-1,-1.0576998E-1,1.1215418E-1,1.328587E-1,-3.0342108E-1,-1.4101397E-1,1.8571837E-1,-2.133777E-1,8.135759E-2,1.1125808E-1,-1.7227042E-1,1.56743E-1,-1.3469279E-2,1.810635E-1,-2.0854335E-1,3.7266797E-1,-6.9012895E-2,-7.610209E-3,-1.6669987E-1,1.7769134E-1,-2.2951076E-2,8.00226E-2,2.6907542E-1,-2.948589E-1,4.7213014E-2,2.1451953E-1,-1.1776092E-1,-2.1164288E-1,2.2289462E-1,-2.926067E-1,1.5107702E-1,2.8902072E-1,2.3706343E-2,3.376202E-2,2.9563403E-1,-1.0248122E-1,2.205935E-1,-1.2882717E-1,2.5177607E-1],"categories":[],"categories_nodes":[],"categories_segments":[],"categories_sizes":[],"default_left":[0,0,0,0,0,0,0,0,0,0,0,0,0,0,0,0,0,0,0,0,0,0,0,0,0,0,0,0,0,0,0,0,0,0,0,0,0,0,0,0,0,0,0,0,0,0,0,0,0,0,0,0,0,0,0,0,0,0,0,0,0,0,0,0,0,0,0,0,0,0,0,0,0,0,0,0,0,0,0,0,0,0,0,0,0,0,0,0,0,0,0,0,0,0,0,0,0,0,0,0,0,0,0,0,0,0,0,0,0,0,0,0,0,0,0,0,0,0,0],"id":9,"left_children":[1,3,5,7,9,11,13,15,17,19,21,23,25,27,29,31,33,35,37,39,41,43,45,47,49,51,53,55,57,59,61,63,-1,65,67,69,71,73,-1,75,77,79,-1,81,83,85,87,89,91,93,95,97,99,101,103,105,107,109,111,113,115,-1,117,-1,-1,-1,-1,-1,-1,-1,-1,-1,-1,-1,-1,-1,-1,-1,-1,-1,-1,-1,-1,-1,-1,-1,-1,-1,-1,-1,-1,-1,-1,-1,-1,-1,-1,-1,-1,-1,-1,-1,-1,-1,-1,-1,-1,-1,-1,-1,-1,-1,-1,-1,-1,-1,-1,-1,-1],"loss_changes":[6.2808086E1,2.8711027E1,2.4157448E1,2.6232403E1,3.6831734E1,1.6036493E1,7.0214577E0,2.3125921E1,1.41175E1,1.4277609E1,1.1742359E1,1.2547216E1,1.4963789E1,8.951563E0,3.367527E0,3.8517685E0,1.4747414E1,1.8049683E1,3.3168945E0,1.46303425E1,6.459496E0,1.1433348E1,9.054239E0,1.1221795E1,3.5333557E0,7.510175E0,6.86294E0,5.232376E0,8.593476E0,8.3701324E-1,3.3854454E0,3.786047E0,0E0,1.4641905E1,9.719984E0,8.121269E0,9.357816E0,2.856926E0,0E0,9.301244E0,1.1584946E1,5.228067E0,0E0,6.6689367E0,8.962809E0,1.2823489E1,4.0977325E0,1.21688385E1,9.102428E0,2.2413588E0,2.7559662E0,8.526926E0,4.589203E0,4.503212E0,3.3104625E0,3.6976776E0,1.103463E1,1.02800865E1,5.697197E0,5.9018326E-1,2.12081E0,0E0,1.9463272E0,0E0,0E0,0E0,0E0,0E0,0E0,0E0,0E0,0E0,0E0,0E0,0E0,0E0,0E0,0E0,0E0,0E0,0E0,0E0,0E0,0E0,0E0,0E0,0E0,0E0,0E0,0E0,0E0,0E0,0E0,0E0,0E0,0E0,0E0,0E0,0E0,0E0,0E0,0E0,0E0,0E0,0E0,0E0,0E0,0E0,0E0,0E0,0E0,0E0,0E0,0E0,0E0,0E0,0E0,0E0,0E0],"parents":[2147483647,0,0,1,1,2,2,3,3,4,4,5,5,6,6,7,7,8,8,9,9,10,10,11,11,12,12,13,13,14,14,15,15,16,16,17,17,18,18,19,19,20,20,21,21,22,22,23,23,24,24,25,25,26,26,27,27,28,28,29,29,30,30,31,31,33,33,34,34,35,35,36,36,37,37,39,39,40,40,41,41,43,43,44,44,45,45,46,46,47,47,48,48,49,49,50,50,51,51,52,52,53,53,54,54,55,55,56,56,57,57,58,58,59,59,60,60,62,62],"right_children":[2,4,6,8,10,12,14,16,18,20,22,24,26,28,30,32,34,36,38,40,42,44,46,48,50,52,54,56,58,60,62,64,-1,66,68,70,72,74,-1,76,78,80,-1,82,84,86,88,90,92,94,96,98,100,102,104,106,108,110,112,114,116,-1,118,-1,-1,-1,-1,-1,-1,-1,-1,-1,-1,-1,-1,-1,-1,-1,-1,-1,-1,-1,-1,-1,-1,-1,-1,-1,-1,-1,-1,-1,-1,-1,-1,-1,-1,-1,-1,-1,-1,-1,-1,-1,-1,-1,-1,-1,-1,-1,-1,-1,-1,-1,-1,-1,-1,-1,-1],"split_conditions":[5.257824E2,1.6E-1,1.2E-1,6.585489E2,1.0114286E3,7.630318E2,1.8619084E-1,3.1013513E2,6.7148013E0,8.075126E2,5.5573506E0,2.962963E-1,3.5311428E-1,7.556779E0,2.5974026E-1,4.6802625E2,6.954689E0,4.6573514E2,1.986755E-1,4.5150272E2,2.2522523E-1,4.8807074E2,5.5944055E-1,1.1090573E-1,3.816794E-2,2.9758215E-1,1.7525E3,5.243004E2,5.603656E2,1.514494E3,1.3057671E-1,3.444317E-2,1.5257293E-1,5.4361395E2,6.586169E-2,5.6639004E0,7.1301244E-2,7.689796E0,1.7529728E-1,1.4652015E-1,6.7846947E0,7.3962264E0,-4.2714632E-1,9.72973E-1,1.064328E3,2.9577464E-1,2.8694404E-2,7.732865E0,1.2636877E3,3.1864047E-2,4.4895777E-1,4.4941272E2,5.869565E0,4.4117647E-1,7.751938E-2,2.5855112E3,5.687538E2,1.5862525E-1,1.5009308E2,3.6856543E2,1.0489511E-1,-2.9639778E-1,2.638191E-1,1.2295802E-1,-2.5363928E-1,1.610707E-1,-4.026496E-2,-2.0459658E-3,-1.9686607E-1,-1.02865644E-1,-2.779055E-1,-9.6025564E-2,8.20881E-2,-2.1500269E-1,-3.5465166E-1,2.1556623E-1,-4.58233E-2,1.7346819E-1,1.7537901E-2,-1.2219488E-2,-3.3396122E-1,-1.0576998E-1,1.1215418E-1,1.328587E-1,-3.0342108E-1,-1.4101397E-1,1.8571837E-1,-2.133777E-1,8.135759E-2,1.1125808E-1,-1.7227042E-1,1.56743E-1,-1.3469279E-2,1.810635E-1,-2.0854335E-1,3.7266797E-1,-6.9012895E-2,-7.610209E-3,-1.6669987E-1,1.7769134E-1,-2.2951076E-2,8.00226E-2,2.6907542E-1,-2.948589E-1,4.7213014E-2,2.1451953E-1,-1.1776092E-1,-2.1164288E-1,2.2289462E-1,-2.926067E-1,1.5107702E-1,2.8902072E-1,2.3706343E-2,3.376202E-2,2.9563403E-1,-1.0248122E-1,2.205935E-1,-1.2882717E-1,2.5177607E-1],"split_indices":[4,3,10,8,8,5,10,1,7,5,7,2,2,7,0,4,7,4,10,4,14,4,6,3,3,3,8,1,4,8,2,0,0,5,14,7,10,7,0,0,7,7,0,6,5,13,11,7,8,3,2,1,7,2,10,8,4,3,9,5,3,0,0,0,0,0,0,0,0,0,0,0,0,0,0,0,0,0,0,0,0,0,0,0,0,0,0,0,0,0,0,0,0,0,0,0,0,0,0,0,0,0,0,0,0,0,0,0,0,0,0,0,0,0,0,0,0,0,0],"split_type":[0,0,0,0,0,0,0,0,0,0,0,0,0,0,0,0,0,0,0,0,0,0,0,0,0,0,0,0,0,0,0,0,0,0,0,0,0,0,0,0,0,0,0,0,0,0,0,0,0,0,0,0,0,0,0,0,0,0,0,0,0,0,0,0,0,0,0,0,0,0,0,0,0,0,0,0,0,0,0,0,0,0,0,0,0,0,0,0,0,0,0,0,0,0,0,0,0,0,0,0,0,0,0,0,0,0,0,0,0,0,0,0,0,0,0,0,0,0,0],"sum_hessian":[1.9228489E3,1.2576843E3,6.651645E2,5.8527606E2,6.724083E2,4.4996344E2,2.1520102E2,2.8081717E2,3.0445886E2,3.8282657E2,2.8958176E2,2.2014018E2,2.2982324E2,1.5754283E2,5.7658188E1,4.4872696E1,2.3594449E2,2.0318336E2,1.012755E2,3.1804825E2,6.477833E1,1.5616731E2,1.3341444E2,1.9728067E2,2.285951E1,1.7222678E2,5.759647E1,1.0670697E2,5.0835865E1,5.2437172E1,5.221018E0,4.3082054E1,1.7906439E0,1.3463159E2,1.0131289E2,9.8245705E1,1.0493766E2,1.00225105E2,1.0503887E0,9.5342354E1,2.2270589E2,6.166446E1,3.113866E0,1.0562296E2,5.0544353E1,4.7209274E1,8.620516E1,5.3416626E1,1.4386404E2,3.4004927E0,1.9459019E1,1.24950325E2,4.727645E1,4.8887383E1,8.709087E0,8.7422646E1,1.9284327E1,1.8695509E1,3.2140358E1,4.3269684E1,9.167488E0,1.2128466E0,4.008171E0,1.9764795E0,4.110557E1,8.1558304E1,5.30733E1,6.7221504E1,3.409138E1,4.8710373E1,4.9535336E1,5.6862064E1,4.80756E1,8.098328E1,1.924183E1,1.3375853E1,8.19665E1,1.6450029E2,5.82056E1,5.7721783E1,3.942679E0,9.182888E1,1.3794082E1,4.6837696E1,3.7066553E0,3.2138947E1,1.5070326E1,8.222819E1,3.9769757E0,2.3365498E1,3.0051128E1,1.0558135E2,3.82827E1,2.0318332E0,1.3686595E0,1.8403934E1,1.055083E0,5.116754E1,7.378278E1,1.3648291E1,3.3628162E1,3.0507904E1,1.8379478E1,3.9785612E0,4.730526E0,8.489797E1,2.5246677E0,8.539122E0,1.0745205E1,1.2160367E1,6.535142E0,1.0008725E1,2.2131632E1,1.0689919E0,4.220069E1,1.6918868E0,7.475601E0,1.0098623E0,2.9983087E0],"tree_param":{"num_deleted":"0","num_feature":"15","num_nodes":"119","size_leaf_vector":"1"}},{"base_weights":[2.719825E-3,-2.5592557E-1,1.0487063E-1,-2.809146E-1,6.3839114E-1,4.483802E-2,4.937526E-1,6.187887E-1,-3.0295667E-1,3.8473693E-1,6.9162674E-2,-1.0174477E-2,5.190112E-1,8.632508E-1,3.7142083E-1,-1.4974123E-1,1.0255214E0,-6.4518946E-1,-2.4435577E-1,-2.977924E-1,4.525428E-1,1.9674338E-1,-1.6713221E-1,7.106421E-1,2.1927977E-1,4.3713167E-2,9.152673E-1,8.049124E-2,6.608819E-1,1.4937119E-1,-5.887417E-1,1.3427448E0,1.4253034E-1,-9.04487E-2,-7.6806295E-1,-2.7293038E-1,4.7842848E-1,-5.768723E-1,1.1650189E0,2.3343647E-1,-9.082404E-1,-2.0026101E-1,7.340808E-1,-1.6868535E-1,7.401568E-1,5.103583E-1,-8.305317E-2,1.770364E-1,-1.3829263E-1,9.5125204E-1,-3.252692E-2,2.1820045E-1,-6.241924E-1,8.3525157E-1,3.1017914E-1,3.2026604E-2,-2.72628E-1,1.273434E-1,4.400483E-1,-8.371222E-2,1.4218524E-1,-1.6500962E-1,2.873645E-1,9.700188E-2,-2.3859346E-1,-2.1534815E-1,-6.878275E-2,2.1865623E-1,-1.5054408E-1,-2.148784E-1,-3.2602333E-2,4.8155352E-1,-5.223161E-2,-4.3015085E-2,9.494867E-2,-4.8123556E-1,-8.4102646E-2,-2.8414177E-2,-1.2883604E-1,-3.482476E-3,2.8123623E-1,2.3167686E-1,-1.26308E-1,-1.7596656E-1,1.9135417E-1,-1.0323618E-1,2.0370933E-1,3.0514157E-1,1.18609704E-1,1.2524512E-1,-4.5529895E-2,4.6803247E-2,-3.8434318E-1,3.014418E-1,1.508533E-1,-1.7456304E-2,2.512308E-1],"categories":[],"categories_nodes":[],"categories_segments":[],"categories_sizes":[],"default_left":[0,0,0,0,0,0,0,0,0,0,0,0,0,0,0,0,0,0,0,0,0,0,0,0,0,0,0,0,0,0,0,0,0,0,0,0,0,0,0,0,0,0,0,0,0,0,0,0,0,0,0,0,0,0,0,0,0,0,0,0,0,0,0,0,0,0,0,0,0,0,0,0,0,0,0,0,0,0,0,0,0,0,0,0,0,0,0,0,0,0,0,0,0,0,0,0,0],"id":10,"left_children":[1,3,5,7,9,11,13,15,17,-1,19,21,23,25,27,29,31,33,35,-1,37,39,41,43,45,47,49,51,53,-1,55,57,59,61,63,65,67,69,71,73,75,77,79,-1,81,83,85,-1,-1,87,-1,89,91,93,95,-1,-1,-1,-1,-1,-1,-1,-1,-1,-1,-1,-1,-1,-1,-1,-1,-1,-1,-1,-1,-1,-1,-1,-1,-1,-1,-1,-1,-1,-1,-1,-1,-1,-1,-1,-1,-1,-1,-1,-1,-1,-1],"loss_changes":[4.8776745E1,1.1860592E1,3.087426E1,1.0285206E1,5.232337E0,2.9939766E1,7.6746407E0,4.0624337E0,9.823326E0,0E0,4.015792E0,3.3459858E1,6.697384E0,1.8032913E0,1.1285299E1,1.7716607E0,2.1348E0,4.8484497E0,8.93977E0,0E0,5.8971167E0,1.8231203E1,1.7637241E1,3.1338577E0,4.264681E0,1.2732903E0,1.5990715E0,6.7630453E0,3.8596325E0,0E0,8.8883305E-1,5.9978485E-2,5.9523594E-1,7.3763213E0,2.009777E0,7.8166637E0,4.436833E0,1.5597677E-1,2.956263E0,1.3532888E1,5.880704E0,1.3647142E1,3.1934128E0,0E0,2.9763412E0,3.8121386E0,5.0871167E0,0E0,0E0,1.0384254E0,0E0,4.3297434E0,6.054521E0,1.9968681E0,4.701848E0,0E0,0E0,0E0,0E0,0E0,0E0,0E0,0E0,0E0,0E0,0E0,0E0,0E0,0E0,0E0,0E0,0E0,0E0,0E0,0E0,0E0,0E0,0E0,0E0,0E0,0E0,0E0,0E0,0E0,0E0,0E0,0E0,0E0,0E0,0E0,0E0,0E0,0E0,0E0,0E0,0E0,0E0],"parents":[2147483647,0,0,1,1,2,2,3,3,4,4,5,5,6,6,7,7,8,8,10,10,11,11,12,12,13,13,14,14,15,15,16,16,17,17,18,18,20,20,21,21,22,22,23,23,24,24,25,25,26,26,27,27,28,28,30,30,31,31,32,32,33,33,34,34,35,35,36,36,37,37,38,38,39,39,40,40,41,41,42,42,44,44,45,45,46,46,49,49,51,51,52,52,53,53,54,54],"right_children":[2,4,6,8,10,12,14,16,18,-1,20,22,24,26,28,30,32,34,36,-1,38,40,42,44,46,48,50,52,54,-1,56,58,60,62,64,66,68,70,72,74,76,78,80,-1,82,84,86,-1,-1,88,-1,90,92,94,96,-1,-1,-1,-1,-1,-1,-1,-1,-1,-1,-1,-1,-1,-1,-1,-1,-1,-1,-1,-1,-1,-1,-1,-1,-1,-1,-1,-1,-1,-1,-1,-1,-1,-1,-1,-1,-1,-1,-1,-1,-1,-1],"split_conditions":[3.7243947E-2,3.188098E-2,5.730713E2,3.444317E-2,1.7582418E-1,3.6490008E-1,1.0869565E-1,3.6009247E1,4.7694754E-2,3.8473693E-1,2.0236088E-1,7.807257E2,1.3175494E3,3.372681E-2,2.6969492E2,1.9233128E2,1.8641039E2,2.0356233E-1,1.1426351E0,-2.977924E-1,4.6573514E2,1.0880416E3,3.275109E-2,3.798513E2,7.412195E2,6.5005414E-2,2.41419E3,2.3673195E2,1.0880416E3,1.4937119E-1,1.9543974E-1,2.3837902E-1,4.9682742E2,1.8867925E-1,2.5751072E-1,4.0578946E2,4.3359872E2,7.005254E-2,6.348123E0,4.8582997E-2,2.9411766E-1,1.3273302E3,1.1221945E-1,-1.6868535E-1,8.577855E2,4.573522E2,1.2738854E-1,1.770364E-1,-1.3829263E-1,4.1338584E-1,-3.252692E-2,1.088E3,7.415254E0,7.556779E0,1.2903225E-1,3.2026604E-2,-2.72628E-1,1.273434E-1,4.400483E-1,-8.371222E-2,1.4218524E-1,-1.6500962E-1,2.873645E-1,9.700188E-2,-2.3859346E-1,-2.1534815E-1,-6.878275E-2,2.1865623E-1,-1.5054408E-1,-2.148784E-1,-3.2602333E-2,4.8155352E-1,-5.223161E-2,-4.3015085E-2,9.494867E-2,-4.8123556E-1,-8.4102646E-2,-2.8414177E-2,-1.2883604E-1,-3.482476E-3,2.8123623E-1,2.3167686E-1,-1.26308E-1,-1.7596656E-1,1.9135417E-1,-1.0323618E-1,2.0370933E-1,3.0514157E-1,1.18609704E-1,1.2524512E-1,-4.5529895E-2,4.6803247E-2,-3.8434318E-1,3.014418E-1,1.508533E-1,-1.7456304E-2,2.512308E-1],"split_indices":[10,11,4,0,0,3,0,9,3,0,0,8,8,3,9,8,9,13,6,0,4,5,11,4,5,0,8,9,5,0,13,13,5,2,6,4,1,14,7,3,2,8,3,0,9,5,10,0,0,13,0,8,7,7,10,0,0,0,0,0,0,0,0,0,0,0,0,0,0,0,0,0,0,0,0,0,0,0,0,0,0,0,0,0,0,0,0,0,0,0,0,0,0,0,0,0,0],"split_type":[0,0,0,0,0,0,0,0,0,0,0,0,0,0,0,0,0,0,0,0,0,0,0,0,0,0,0,0,0,0,0,0,0,0,0,0,0,0,0,0,0,0,0,0,0,0,0,0,0,0,0,0,0,0,0,0,0,0,0,0,0,0,0,0,0,0,0,0,0,0,0,0,0,0,0,0,0,0,0,0,0,0,0,0,0,0,0,0,0,0,0,0,0,0,0,0,0],"sum_hessian":[1.8441311E3,5.216954E2,1.3224358E3,5.0818164E2,1.3513751E1,1.1465547E3,1.7588103E2,1.1504935E1,4.966767E2,5.752262E0,7.7614884E0,1.0282393E3,1.1831544E2,4.2240044E1,1.3364098E2,4.200273E0,7.3046618E0,7.11495E1,4.255272E2,1.6373963E0,6.124092E0,4.4342166E2,5.848176E2,7.133625E1,4.6979183E1,2.6308284E0,3.9609215E1,6.728884E1,6.6352135E1,1.6426868E0,2.5575862E0,4.9909387E0,2.3137233E0,1.3216531E1,5.793297E1,4.0994287E2,1.5584334E1,2.582752E0,3.5413399E0,4.2993365E2,1.348802E1,5.648321E2,1.9985573E1,1.2075007E0,7.012875E1,2.3584528E1,2.3394657E1,1.1819237E0,1.4489045E0,3.833251E1,1.2767017E0,5.6866375E1,1.0422464E1,4.339464E1,2.2957497E1,1.0159738E0,1.5416123E0,1.1204016E0,3.870537E0,1.0879204E0,1.2258028E0,9.51884E0,3.6976907E0,1.1464694E0,5.67865E1,3.5250572E1,3.746923E2,1.2617385E1,2.9669492E0,1.581956E0,1.000796E0,2.5157542E0,1.0255858E0,7.751945E1,3.524142E2,5.660234E0,7.827786E0,3.8770187E2,1.7713019E2,4.48474E0,1.55008335E1,6.8568214E1,1.5605376E0,2.0807698E0,2.150376E1,1.783378E1,5.5608754E0,3.3528755E1,4.8037567E0,3.68751E1,1.9991278E1,5.1128755E0,5.3095884E0,2.7397102E1,1.5997538E1,1.4038896E1,8.918601E0],"tree_param":{"num_deleted":"0","num_feature":"15","num_nodes":"97","size_leaf_vector":"1"}},{"base_weights":[3.6829568E-3,-2.1850008E-1,9.3789704E-2,-5.8519196E-2,-3.7971595E-1,5.581464E-1,5.4544155E-2,-6.530646E-1,4.6010982E-2,4.3123227E-1,-4.736869E-1,3.3051497E-1,7.807679E-1,2.6015183E-1,-5.4222822E-2,-7.712044E-1,3.363477E-1,2.5571078E-1,-3.0547357E-1,-6.2696844E-2,9.849027E-1,-3.2051808E-1,-4.2263493E-1,8.517848E-1,6.258523E-2,8.7870723E-1,1.7007428E-1,8.662199E-2,4.2941055E-1,-1.4173421E-1,2.4771082E-1,-8.356049E-1,6.540275E-2,9.145673E-1,-1.7190796E-1,7.552648E-1,1.3689858E-1,3.9498538E-1,-3.9412946E-1,-3.6581606E-1,6.231846E-1,8.210806E-1,4.6538958E-1,-1.016066E-1,-5.51913E-1,9.858387E-1,1.5674794E-1,2.918249E-1,-4.069112E-1,9.1553867E-1,-6.5447845E-2,2.5800997E-1,-5.6430584E-1,2.656223E-1,-1.00921296E-1,7.3159593E-1,2.6621372E-1,2.0801419E-1,-2.2906145E-1,1.241919E-1,5.4170823E-1,4.8117563E-2,-2.6222685E-1,4.0647355E-1,3.0178467E-3,2.977355E-1,-8.538473E-2,-7.951424E-4,1.698017E-1,-1.4244574E-1,2.891041E-1,-1.6753192E-1,-4.1689683E-2,1.1655942E-1,-2.4487762E-1,3.4874994E-1,3.147488E-2,3.2531723E-1,-3.3556476E-2,1.9308008E-2,-1.8008886E-1,-2.3259784E-1,-1.24857314E-1,6.4914435E-2,3.44978E-1,2.1375929E-1,-9.872985E-2,-4.976368E-2,1.8018194E-1,-2.3178285E-1,1.346425E-1,1.0698298E-1,2.9499158E-1,-3.1646776E-1,1.6070938E-1,-1.2362125E-1,1.3139708E-1,-1.11407444E-1,4.914237E-2,2.622628E-1,1.0289811E-1,-8.138687E-3,1.596595E-1,9.458585E-2,-2.3825873E-1,-4.586324E-2,-1.6060503E-1,7.717258E-2,-1.3637611E-1,1.8738365E-1,-2.2401439E-1],"categories":[],"categories_nodes":[],"categories_segments":[],"categories_sizes":[],"default_left":[0,0,0,0,0,0,0,0,0,0,0,0,0,0,0,0,0,0,0,0,0,0,0,0,0,0,0,0,0,0,0,0,0,0,0,0,0,0,0,0,0,0,0,0,0,0,0,0,0,0,0,0,0,0,0,0,0,0,0,0,0,0,0,0,0,0,0,0,0,0,0,0,0,0,0,0,0,0,0,0,0,0,0,0,0,0,0,0,0,0,0,0,0,0,0,0,0,0,0,0,0,0,0,0,0,0,0,0,0,0,0],"id":11,"left_children":[1,3,5,7,9,11,13,15,17,19,21,23,25,27,29,31,33,35,37,39,41,-1,43,45,47,49,51,53,55,57,59,61,-1,63,-1,65,67,69,71,73,75,-1,77,79,81,83,85,87,89,91,-1,-1,93,95,97,99,101,103,105,107,109,-1,-1,-1,-1,-1,-1,-1,-1,-1,-1,-1,-1,-1,-1,-1,-1,-1,-1,-1,-1,-1,-1,-1,-1,-1,-1,-1,-1,-1,-1,-1,-1,-1,-1,-1,-1,-1,-1,-1,-1,-1,-1,-1,-1,-1,-1,-1,-1,-1,-1],"loss_changes":[3.569799E1,1.3247297E1,2.308813E1,1.6152323E1,1.9718628E1,4.7462654E0,2.6197786E1,4.8011856E0,1.6408625E1,7.4771266E0,6.5302544E0,7.008176E0,2.7927341E0,1.1865734E1,2.0290062E1,2.4128036E0,3.0695262E0,8.165358E0,5.3253345E0,3.40288E0,1.0417313E1,0E0,8.801849E0,1.437396E0,3.8291762E0,1.9026642E0,4.558455E0,6.786377E0,9.910011E0,1.821914E1,6.201275E0,1.4082241E0,0E0,1.3184676E0,0E0,6.83002E0,6.814109E0,5.3309984E0,3.0415E0,4.129838E0,1.289648E0,0E0,4.0916824E0,5.211522E0,4.2842674E0,1.5357418E0,1.3015343E0,3.4557686E0,4.0168777E0,1.2013588E0,0E0,0E0,2.9923272E0,1.2247175E1,7.1524982E0,3.6505165E0,1.0518031E1,1.30865135E1,1.1038355E1,9.577108E0,5.889495E0,0E0,0E0,0E0,0E0,0E0,0E0,0E0,0E0,0E0,0E0,0E0,0E0,0E0,0E0,0E0,0E0,0E0,0E0,0E0,0E0,0E0,0E0,0E0,0E0,0E0,0E0,0E0,0E0,0E0,0E0,0E0,0E0,0E0,0E0,0E0,0E0,0E0,0E0,0E0,0E0,0E0,0E0,0E0,0E0,0E0,0E0,0E0,0E0,0E0,0E0],"parents":[2147483647,0,0,1,1,2,2,3,3,4,4,5,5,6,6,7,7,8,8,9,9,10,10,11,11,12,12,13,13,14,14,15,15,16,16,17,17,18,18,19,19,20,20,22,22,23,23,24,24,25,25,26,26,27,27,28,28,29,29,30,30,31,31,33,33,35,35,36,36,37,37,38,38,39,39,40,40,42,42,43,43,44,44,45,45,46,46,47,47,48,48,49,49,52,52,53,53,54,54,55,55,56,56,57,57,58,58,59,59,60,60],"right_children":[2,4,6,8,10,12,14,16,18,20,22,24,26,28,30,32,34,36,38,40,42,-1,44,46,48,50,52,54,56,58,60,62,-1,64,-1,66,68,70,72,74,76,-1,78,80,82,84,86,88,90,92,-1,-1,94,96,98,100,102,104,106,108,110,-1,-1,-1,-1,-1,-1,-1,-1,-1,-1,-1,-1,-1,-1,-1,-1,-1,-1,-1,-1,-1,-1,-1,-1,-1,-1,-1,-1,-1,-1,-1,-1,-1,-1,-1,-1,-1,-1,-1,-1,-1,-1,-1,-1,-1,-1,-1,-1,-1,-1],"split_conditions":[4.7245602E2,5.625E0,8.108108E-2,3.8567105E2,3.434386E2,4.3076062E2,6.1988306E0,3.2042724E-1,1.0474949E3,8.62069E-2,4.0923077E2,6.5789475E0,4.4983286E2,6.968641E-2,5.66603E2,5.478842E0,5.5096418E-2,4.798028E2,5.30504E-2,4.8582997E-2,2.9370316E2,-3.2051808E-1,5.5875E2,1.5316619E3,7.94702E-2,1.1936826E3,6.550218E-2,7.153525E2,6.8375543E2,4.9431876E2,3.4285715E-1,3.444317E-2,6.540275E-2,7.832898E-2,-1.7190796E-1,6.36196E2,4.5490338E2,3.5842296E-2,8.1743866E-2,9.7087376E-2,5.9905663E0,8.210806E-1,6.348123E0,7.631738E-1,4.4790903E2,4.798028E2,5.6764428E-2,5.051814E-1,9.121622E-1,3.8176033E-1,-6.5447845E-2,2.5800997E-1,2.7162978E-1,4.6415678E-1,2.4525127E2,8.2865775E-1,5.189201E2,8.299595E0,1.2979843E3,5.154545E2,1.518421E3,4.8117563E-2,-2.6222685E-1,4.0647355E-1,3.0178467E-3,2.977355E-1,-8.538473E-2,-7.951424E-4,1.698017E-1,-1.4244574E-1,2.891041E-1,-1.6753192E-1,-4.1689683E-2,1.1655942E-1,-2.4487762E-1,3.4874994E-1,3.147488E-2,3.2531723E-1,-3.3556476E-2,1.9308008E-2,-1.8008886E-1,-2.3259784E-1,-1.24857314E-1,6.4914435E-2,3.44978E-1,2.1375929E-1,-9.872985E-2,-4.976368E-2,1.8018194E-1,-2.3178285E-1,1.346425E-1,1.0698298E-1,2.9499158E-1,-3.1646776E-1,1.6070938E-1,-1.2362125E-1,1.3139708E-1,-1.11407444E-1,4.914237E-2,2.622628E-1,1.0289811E-1,-8.138687E-3,1.596595E-1,9.458585E-2,-2.3825873E-1,-4.586324E-2,-1.6060503E-1,7.717258E-2,-1.3637611E-1,1.8738365E-1,-2.2401439E-1],"split_indices":[4,7,0,4,8,1,7,3,8,2,4,7,9,10,4,7,10,8,2,10,5,0,8,8,14,5,14,5,5,5,2,0,0,2,0,5,4,10,14,0,7,0,7,6,4,8,0,6,6,6,0,0,3,6,9,6,4,7,8,1,5,0,0,0,0,0,0,0,0,0,0,0,0,0,0,0,0,0,0,0,0,0,0,0,0,0,0,0,0,0,0,0,0,0,0,0,0,0,0,0,0,0,0,0,0,0,0,0,0,0,0],"split_type":[0,0,0,0,0,0,0,0,0,0,0,0,0,0,0,0,0,0,0,0,0,0,0,0,0,0,0,0,0,0,0,0,0,0,0,0,0,0,0,0,0,0,0,0,0,0,0,0,0,0,0,0,0,0,0,0,0,0,0,0,0,0,0,0,0,0,0,0,0,0,0,0,0,0,0,0,0,0,0,0,0,0,0,0,0,0,0,0,0,0,0,0,0,0,0,0,0,0,0,0,0,0,0,0,0,0,0,0,0,0,0],"sum_hessian":[1.7810759E3,5.1349286E2,1.2675831E3,2.5841772E2,2.5507513E2,9.775194E1,1.1698312E3,3.7855587E1,2.2056213E2,2.6115479E1,2.2895966E2,4.956063E1,4.8191307E1,4.0425528E2,7.6557587E2,3.401464E1,3.840943E0,1.3831454E2,8.224759E1,1.4271046E1,1.1844432E1,1.6525528E1,2.1243413E2,1.6085806E1,3.3474823E1,4.115263E1,7.0386744E0,2.0035559E2,2.0389967E2,5.939563E2,1.7161961E2,3.2081345E1,1.9332982E0,2.3444986E0,1.4964443E0,2.5546352E1,1.12768196E2,8.852201E0,7.3395386E1,1.0220733E1,4.0503135E0,1.7327036E0,1.0111729E1,6.150027E1,1.5093387E2,1.313418E1,2.9516263E0,2.2746758E1,1.07280655E1,3.9975613E1,1.1770184E0,3.540877E0,3.4977973E0,1.02299614E2,9.8055984E1,7.02807E1,1.3361897E2,1.183957E2,4.7556058E2,1.21848915E2,4.9770702E1,1.0756408E0,3.1005703E1,1.2419306E0,1.102568E0,2.0838825E1,4.707527E0,8.584465E1,2.6923542E1,3.56488E0,5.2873216E0,4.3923027E1,2.947236E1,3.872679E0,6.3480535E0,1.3757E0,2.6746135E0,4.455434E0,5.6562943E0,4.6796936E1,1.4703334E1,5.5258984E1,9.567488E1,2.7161307E0,1.0418049E1,1.1591026E0,1.7925236E0,9.350057E0,1.3396702E1,7.584076E0,3.1439898E0,4.9998565E0,3.4975758E1,2.447331E0,1.0504662E0,2.046144E1,8.183818E1,4.8305855E1,4.975013E1,5.0498573E1,1.9782125E1,6.396871E1,6.965027E1,1.0756757E2,1.0828131E1,3.820351E2,9.3525475E1,9.952548E1,2.2323427E1,4.7245865E1,2.5248363E0],"tree_param":{"num_deleted":"0","num_feature":"15","num_nodes":"111","size_leaf_vector":"1"}},{"base_weights":[3.8299684E-3,-2.5753707E-2,5.8492255E-1,-4.7013007E-2,6.238892E-1,4.134388E-1,9.661025E-1,5.5116215E-3,-3.0618712E-1,7.020228E-2,7.460222E-1,6.391281E-1,6.5253573E-3,1.7864041E-2,3.0078053E-1,-8.473132E-3,8.994179E-1,-6.3244796E-1,-1.9546916E-1,4.4037068E-1,-5.6085247E-1,8.8395786E-1,1.5910867E-1,7.081854E-1,-2.1617699E-1,-8.913796E-1,4.6362448E-1,1.239711E-1,-1.0463668E-1,1.0191061E0,-6.43724E-2,-7.280832E-1,2.4123712E-1,-7.6085955E-1,-1.3056126E-1,8.191729E-1,-3.1871197E-1,-2.6311293E-1,1.4551154E-2,9.515347E-1,3.673731E-2,-1.7439085E-1,2.6541525E-1,-9.7181916E-2,7.4827725E-1,2.5430867E-1,-1.4578168E0,-1.836104E-1,5.9709036E-1,-6.3008405E-2,5.471256E-2,-7.099747E-2,1.0445064E-2,3.4855175E-1,-4.0326633E-2,-1.41261E-1,-2.6332533E-1,-1.04426004E-1,2.7759737E-1,-2.6318377E-1,-3.8546603E-2,8.719034E-2,-7.378705E-2,8.439533E-2,3.3110875E-1,9.792161E-3,-1.5573776E-1,1.6267738E-1,3.341776E-1,2.1438636E-1,-1.6981405E-1,-3.3714452E-1,6.51069E-2,2.673645E-1,1.3686821E-1,1.8986371E-1,-1.0009245E-1,-5.589505E-1,-7.850023E-2,2.634041E-1,-8.8738695E-2],"categories":[],"categories_nodes":[],"categories_segments":[],"categories_sizes":[],"default_left":[0,0,0,0,0,0,0,0,0,0,0,0,0,0,0,0,0,0,0,0,0,0,0,0,0,0,0,0,0,0,0,0,0,0,0,0,0,0,0,0,0,0,0,0,0,0,0,0,0,0,0,0,0,0,0,0,0,0,0,0,0,0,0,0,0,0,0,0,0,0,0,0,0,0,0,0,0,0,0,0,0],"id":12,"left_children":[1,3,5,7,9,11,13,15,17,19,21,23,25,-1,-1,27,29,31,33,35,37,39,41,43,-1,45,47,49,51,53,-1,55,57,59,61,63,65,-1,-1,67,69,71,-1,-1,73,75,77,-1,79,-1,-1,-1,-1,-1,-1,-1,-1,-1,-1,-1,-1,-1,-1,-1,-1,-1,-1,-1,-1,-1,-1,-1,-1,-1,-1,-1,-1,-1,-1,-1,-1],"loss_changes":[2.9680779E1,2.272111E1,5.0678463E0,2.167218E1,3.4730892E0,5.454216E0,7.7428055E-1,1.6566835E1,9.567045E0,2.705679E0,3.3087673E0,4.099229E0,9.53099E0,0E0,0E0,1.6636549E1,2.9404106E0,5.8176517E0,7.304349E0,2.3297029E0,8.7705183E-1,1.9276943E0,2.4114952E0,1.7684097E0,0E0,5.456113E0,2.5732765E0,1.075722E1,1.3940088E1,3.219719E0,0E0,1.9392624E0,3.3107307E0,1.401537E0,8.925998E0,4.6680808E-1,2.3627907E-1,0E0,0E0,1.5033741E0,1.8642943E0,2.929152E0,0E0,0E0,1.0879345E0,9.777174E-1,2.1269398E0,0E0,3.8183765E0,0E0,0E0,0E0,0E0,0E0,0E0,0E0,0E0,0E0,0E0,0E0,0E0,0E0,0E0,0E0,0E0,0E0,0E0,0E0,0E0,0E0,0E0,0E0,0E0,0E0,0E0,0E0,0E0,0E0,0E0,0E0,0E0],"parents":[2147483647,0,0,1,1,2,2,3,3,4,4,5,5,6,6,7,7,8,8,9,9,10,10,11,11,12,12,15,15,16,16,17,17,18,18,19,19,20,20,21,21,22,22,23,23,25,25,26,26,27,27,28,28,29,29,31,31,32,32,33,33,34,34,35,35,36,36,39,39,40,40,41,41,44,44,45,45,46,46,48,48],"right_children":[2,4,6,8,10,12,14,16,18,20,22,24,26,-1,-1,28,30,32,34,36,38,40,42,44,-1,46,48,50,52,54,-1,56,58,60,62,64,66,-1,-1,68,70,72,-1,-1,74,76,78,-1,80,-1,-1,-1,-1,-1,-1,-1,-1,-1,-1,-1,-1,-1,-1,-1,-1,-1,-1,-1,-1,-1,-1,-1,-1,-1,-1,-1,-1,-1,-1,-1,-1],"split_conditions":[1.8072289E-1,3.2626428E-2,2.240478E-1,2.9435813E-1,1.1221945E-1,7.1662765E0,4.1152265E-2,3.0257186E-2,9.909166E-2,9.5036084E2,9.5049506E-1,2.5855112E3,5.3539606E2,1.7864041E-2,3.0078053E-1,7.619001E2,5.0937854E2,7.5E0,4.0923077E2,2.217529E-1,1.0335917E-1,4.0358743E-1,7.0418005E0,1.09210044E-1,-2.1617699E-1,7.1036676E2,3.7128713E-2,4.64756E-2,7.481297E-2,5.2955054E2,-6.43724E-2,5.0556174E2,5.3460315E2,3.0721965E-1,5.002761E0,6.797583E-1,5.269821E2,-2.6311293E-1,1.4551154E-2,1.7883755E-1,5.791893E0,1.07149185E2,2.6541525E-1,-9.7181916E-2,6.5680475E0,2.504472E-1,1.9607843E-1,-1.836104E-1,1.514494E3,-6.3008405E-2,5.471256E-2,-7.099747E-2,1.0445064E-2,3.4855175E-1,-4.0326633E-2,-1.41261E-1,-2.6332533E-1,-1.04426004E-1,2.7759737E-1,-2.6318377E-1,-3.8546603E-2,8.719034E-2,-7.378705E-2,8.439533E-2,3.3110875E-1,9.792161E-3,-1.5573776E-1,1.6267738E-1,3.341776E-1,2.1438636E-1,-1.6981405E-1,-3.3714452E-1,6.51069E-2,2.673645E-1,1.3686821E-1,1.8986371E-1,-1.0009245E-1,-5.589505E-1,-7.850023E-2,2.634041E-1,-8.8738695E-2],"split_indices":[10,11,10,0,3,7,3,12,3,8,6,8,4,0,0,8,1,7,4,0,10,13,7,13,0,8,3,2,10,9,0,5,4,3,7,6,5,0,0,3,7,9,0,0,7,2,2,0,8,0,0,0,0,0,0,0,0,0,0,0,0,0,0,0,0,0,0,0,0,0,0,0,0,0,0,0,0,0,0,0,0],"split_type":[0,0,0,0,0,0,0,0,0,0,0,0,0,0,0,0,0,0,0,0,0,0,0,0,0,0,0,0,0,0,0,0,0,0,0,0,0,0,0,0,0,0,0,0,0,0,0,0,0,0,0,0,0,0,0,0,0,0,0,0,0,0,0,0,0,0,0,0,0,0,0,0,0,0,0,0,0,0,0,0,0],"sum_hessian":[1.7246685E3,1.6420277E3,8.264067E1,1.590894E3,5.1133724E1,5.8436234E1,2.4204432E1,1.3236249E3,2.6726913E2,9.525395E0,4.160833E1,3.7221264E1,2.121497E1,1.0386355E0,2.3165796E1,1.3042117E3,1.941327E1,6.652443E1,2.0074469E2,6.194154E0,3.3312416E0,3.3280643E1,8.327686E0,3.587825E1,1.3430151E0,6.836189E0,1.4378781E1,5.4849316E2,7.5571844E2,1.7606764E1,1.8065081E0,6.0111195E1,6.413234E0,1.9568455E1,1.8117624E2,4.0793095E0,2.1148443E0,1.903984E0,1.4272577E0,3.0708147E1,2.5724967E0,6.22586E0,2.101826E0,1.0768139E0,3.4801437E1,2.44398E0,4.3922086E0,1.1913643E0,1.3187417E1,8.124966E1,4.6724353E2,3.878456E2,3.6787286E2,1.5661649E1,1.9451146E0,2.3636518E1,3.6474678E1,3.709103E0,2.7041311E0,1.619894E1,3.3695157E0,3.8635918E1,1.4254033E2,2.0993962E0,1.9799132E0,1.0722245E0,1.0426198E0,9.955727E0,2.075242E1,1.1234943E0,1.4490023E0,1.2712098E0,4.9546504E0,2.1988192E1,1.2813244E1,1.4402276E0,1.0037524E0,2.8640127E0,1.5281959E0,1.0043993E1,3.1434236E0],"tree_param":{"num_deleted":"0","num_feature":"15","num_nodes":"81","size_leaf_vector":"1"}},{"base_weights":[3.4623558E-3,-3.434556E-2,3.171502E-1,-4.604674E-2,8.111266E-1,2.2409968E-1,8.3702934E-1,-3.6004546E-1,-1.4751823E-2,9.943145E-1,-9.319971E-2,7.385329E-1,1.11501426E-1,2.735543E-1,9.5754486E-1,6.56905E-2,-4.8966536E-1,1.797454E-1,-6.509475E-2,1.1575903E0,-3.9819747E-2,-5.941464E-1,1.9722697E-1,-7.363953E-2,8.031674E-1,1.1627369E-3,6.961172E-1,-1.3737097E-1,6.174423E-1,2.9591423E-1,5.605118E-2,-4.336674E-1,5.4461366E-1,-8.091284E-1,-3.2180253E-1,1.11317E-1,9.262706E-1,2.1682903E-1,-1.10585205E-1,1.2752502E0,-6.603393E-2,-2.0729199E-1,2.0448405E-1,-2.2865637E-1,-4.7207568E-2,1.008525E0,3.2928777E-1,1.12301975E-1,-6.502925E-1,-2.315878E-1,8.1199646E-1,2.3031116E-1,1.3767668E-2,-3.0901242E-2,-2.4846442E-1,4.4301856E-1,6.530434E-2,-2.5836882E-1,2.2680651E-2,3.4450274E-3,-2.3316048E-1,5.4199766E-2,-1.5922315E-1,3.678913E-1,1.2131785E-1,-1.5485254E-1,9.007309E-2,-1.4099886E-1,-2.0748533E-2,1.0245146E-1,3.9930016E-1,3.254225E-1,-3.0166294E-2,-2.4959184E-1,1.771945E-1,-8.02432E-2,1.2526244E-1,-4.897076E-1,2.0091385E-2,2.8708455E-1,-1.3912778E-1],"categories":[],"categories_nodes":[],"categories_segments":[],"categories_sizes":[],"default_left":[0,0,0,0,0,0,0,0,0,0,0,0,0,0,0,0,0,0,0,0,0,0,0,0,0,0,0,0,0,0,0,0,0,0,0,0,0,0,0,0,0,0,0,0,0,0,0,0,0,0,0,0,0,0,0,0,0,0,0,0,0,0,0,0,0,0,0,0,0,0,0,0,0,0,0,0,0,0,0,0,0],"id":13,"left_children":[1,3,5,7,9,11,13,15,17,19,21,23,25,27,29,31,33,35,37,39,41,43,-1,-1,45,47,49,-1,51,-1,-1,53,55,57,59,61,63,65,67,69,-1,-1,-1,-1,-1,71,73,75,77,-1,79,-1,-1,-1,-1,-1,-1,-1,-1,-1,-1,-1,-1,-1,-1,-1,-1,-1,-1,-1,-1,-1,-1,-1,-1,-1,-1,-1,-1,-1,-1],"loss_changes":[1.9951244E1,1.489055E1,8.565704E0,1.4556013E1,3.4968348E0,8.88676E0,1.5786457E0,7.441141E0,1.3216331E1,2.945778E0,2.035962E0,1.9542751E0,8.269745E0,1.8361304E0,3.03051E-1,7.9412293E0,5.2653446E0,1.4075293E1,1.3772459E1,2.6902885E0,2.0251627E0,1.11237645E-1,0E0,0E0,2.2135525E0,7.954679E0,4.0896206E0,0E0,3.621006E-1,0E0,0E0,2.0450327E0,4.8251996E0,1.6707592E0,1.05133E1,1.1467201E1,3.1318283E0,9.282597E0,1.3720121E1,2.660427E-1,0E0,0E0,0E0,0E0,0E0,1.6107826E0,3.3424187E0,1.09907675E1,1.1388334E1,0E0,4.022666E0,0E0,0E0,0E0,0E0,0E0,0E0,0E0,0E0,0E0,0E0,0E0,0E0,0E0,0E0,0E0,0E0,0E0,0E0,0E0,0E0,0E0,0E0,0E0,0E0,0E0,0E0,0E0,0E0,0E0,0E0],"parents":[2147483647,0,0,1,1,2,2,3,3,4,4,5,5,6,6,7,7,8,8,9,9,10,10,11,11,12,12,13,13,14,14,15,15,16,16,17,17,18,18,19,19,20,20,21,21,24,24,25,25,26,26,28,28,31,31,32,32,33,33,34,34,35,35,36,36,37,37,38,38,39,39,45,45,46,46,47,47,48,48,50,50],"right_children":[2,4,6,8,10,12,14,16,18,20,22,24,26,28,30,32,34,36,38,40,42,44,-1,-1,46,48,50,-1,52,-1,-1,54,56,58,60,62,64,66,68,70,-1,-1,-1,-1,-1,72,74,76,78,-1,80,-1,-1,-1,-1,-1,-1,-1,-1,-1,-1,-1,-1,-1,-1,-1,-1,-1,-1,-1,-1,-1,-1,-1,-1,-1,-1,-1,-1,-1,-1],"split_conditions":[1.4625229E-1,3.0257186E-2,2.1276596E-1,4.1899443E-2,7.082977E0,4.0298718E2,9.027081E-2,3.7720773E2,2.578427E-2,5.192E2,5.730713E2,4.0923077E2,3.0967742E-1,2.240478E-1,1.1552347E0,7.94702E-2,4.664516E2,3.4285715E-1,5.076336E0,4.8356686E2,6.550218E-2,6.690332E2,1.9722697E-1,-7.363953E-2,2.838557E-1,1.0431497E3,4.4696304E2,-1.3737097E-1,8.299595E0,2.9591423E-1,5.605118E-2,3.8860105E-2,3.282019E2,1.1349306E-1,7.556779E0,8.951146E2,5.0937854E2,2.9603857E2,4.487828E2,3.5108835E2,-6.603393E-2,-2.0729199E-1,2.0448405E-1,-2.2865637E-1,-4.7207568E-2,1.6008258E3,5.6221134E1,2.0703934E-1,2.4525127E2,-2.315878E-1,2.9354207E-2,2.3031116E-1,1.3767668E-2,-3.0901242E-2,-2.4846442E-1,4.4301856E-1,6.530434E-2,-2.5836882E-1,2.2680651E-2,3.4450274E-3,-2.3316048E-1,5.4199766E-2,-1.5922315E-1,3.678913E-1,1.2131785E-1,-1.5485254E-1,9.007309E-2,-1.4099886E-1,-2.0748533E-2,1.0245146E-1,3.9930016E-1,3.254225E-1,-3.0166294E-2,-2.4959184E-1,1.771945E-1,-8.02432E-2,1.2526244E-1,-4.897076E-1,2.0091385E-2,2.8708455E-1,-1.3912778E-1],"split_indices":[10,12,10,3,7,1,3,8,14,9,4,4,3,10,6,2,4,2,7,1,14,8,0,0,3,5,4,0,7,0,0,2,5,10,7,5,1,1,4,1,0,0,0,0,0,8,9,2,9,0,11,0,0,0,0,0,0,0,0,0,0,0,0,0,0,0,0,0,0,0,0,0,0,0,0,0,0,0,0,0,0],"split_type":[0,0,0,0,0,0,0,0,0,0,0,0,0,0,0,0,0,0,0,0,0,0,0,0,0,0,0,0,0,0,0,0,0,0,0,0,0,0,0,0,0,0,0,0,0,0,0,0,0,0,0,0,0,0,0,0,0,0,0,0,0,0,0,0,0,0,0,0,0,0,0,0,0,0,0,0,0,0,0,0,0],"sum_hessian":[1.6803278E3,1.5003815E3,1.7994626E2,1.4808325E3,1.9548914E1,1.5384193E2,2.6104324E1,1.3325986E2,1.3475726E3,1.6173223E1,3.3756914E0,2.6627687E1,1.2721425E2,5.1755776E0,2.0928747E1,3.1217928E1,1.0204193E2,2.7655325E2,1.0710194E3,1.3864781E1,2.3084416E0,2.1495793E0,1.2261121E0,1.4688042E0,2.5158882E1,1.0785921E2,1.9355045E1,1.549087E0,3.6264904E0,1.99042E1,1.0245475E0,1.5329178E1,1.588875E1,3.383318E1,6.8208755E1,2.5438481E2,2.216845E1,1.482826E2,9.227368E2,1.284237E1,1.0224121E0,1.2355113E0,1.0729305E0,1.0143521E0,1.1352271E0,1.676533E1,8.393553E0,9.2846985E1,1.5012219E1,1.0017753E0,1.835327E1,2.599802E0,1.0266883E0,9.025845E0,6.3033338E0,3.2125509E0,1.2676199E1,3.1976665E1,1.8565135E0,3.994766E1,2.8261097E1,2.3023572E2,2.4149101E1,1.3218936E1,8.949513E0,1.4620156E1,1.3366243E2,9.42892E1,8.2844763E2,1.1250384E0,1.1717331E1,1.5707823E1,1.0575076E0,1.1409444E0,7.2526083E0,4.142708E1,5.1419907E1,5.797949E0,9.214271E0,1.6705122E1,1.6481478E0],"tree_param":{"num_deleted":"0","num_feature":"15","num_nodes":"81","size_leaf_vector":"1"}},{"base_weights":[3.567672E-3,-8.761954E-2,1.1375422E-1,4.108295E-3,-2.6406673E-1,1.960085E-1,-9.784445E-2,-1.4401302E-1,1.5218449E-1,-9.912991E-2,-4.6827802E-1,2.9180905E-1,-5.571557E-3,7.108182E-2,-4.1909122E-1,-3.220211E-2,-3.88559E-1,2.5180736E-1,-1.7559856E-1,-3.0625266E-1,1.4787896E-1,-5.4243624E-1,1.0748503E0,3.487038E-1,-2.3742007E-1,-8.738257E-2,7.498521E-1,3.1040683E-1,-2.2192481E-1,-6.0242945E-1,3.1586823E-1,-3.7297451E-1,9.100483E-2,-1.4183743E-1,-7.363628E-1,4.324779E-1,7.831485E-2,3.3461407E-1,-3.8728365E-1,-5.7775295E-1,-1.319264E-1,5.6624985E-1,-3.4434542E-2,-6.444034E-1,-5.4948393E-2,4.027089E-3,3.8104716E-1,2.433471E-1,5.7312655E-1,-4.4869572E-1,3.828588E-1,8.885147E-2,-3.7168735E-1,9.067686E-1,2.6794929E-2,2.5969911E-2,5.743163E-1,-5.2927434E-1,1.1907044E-1,-6.5889156E-1,4.725683E-1,-1.6463009E-1,8.658624E-1,-7.642229E-2,-2.9434395E-1,1.3224542E-1,-4.8295528E-2,-1.7240933E-1,1.575536E-2,4.806866E-2,-2.3774508E-1,-7.495196E-2,1.4990412E-1,1.8248755E-1,-1.1189052E-2,2.4278887E-1,-9.260144E-5,-1.3515888E-1,2.4925882E-1,-2.2286977E-1,9.569102E-2,-1.54068E-1,3.9456964E-2,3.2615355E-1,3.358369E-2,-1.8602005E-1,5.1741213E-2,-1.6082749E-1,-3.659766E-1,-1.308419E-1,2.3040871E-1,1.0354866E-1,-1.7534351E-2,