{"learner":{"attributes":{"scikit_learn":"{\"_estimator_type\": \"classifier\"}"},"feature_names":["deaths_per_min","gold_per_min","kills_per_min","assists_per_min","exp_per_min","td_per_min","vision_per_min","cs_per_min","mitigated_per_min","heal_per_min","turret_per_min","dragon_per_min","baron_per_min","wards_placed_per_min","wards_killed_per_min"],"feature_types":["float","float","float","float","float","float","float","float","float","float","float","float","float","float","float"],"gradient_booster":{"model":{"gbtree_model_param":{"num_parallel_tree":"1","num_trees":"100"},"iteration_indptr":[0,1,2,3,4,5,6,7,8,9,10,11,12,13,14,15,16,17,18,19,20,21,22,23,24,25,26,27,28,29,30,31,32,33,34,35,36,37,38,39,40,41,42,43,44,45,46,47,48,49,50,51,52,53,54,55,56,57,58,59,60,61,62,63,64,65,66,67,68,69,70,71,72,73,74,75,76,77,78,79,80,81,82,83,84,85,86,87,88,89,90,91,92,93,94,95,96,97,98,99,100],"tree_info":[0,0,0,0,0,0,0,0,0,0,0,0,0,0,0,0,0,0,0,0,0,0,0,0,0,0,0,0,0,0,0,0,0,0,0,0,0,0,0,0,0,0,0,0,0,0,0,0,0,0,0,0,0,0,0,0,0,0,0,0,0,0,0,0,0,0,0,0,0,0,0,0,0,0,0,0,0,0,0,0,0,0,0,0,0,0,0,0,0,0,0,0,0,0,0,0,0,0,0,0],"trees":[{"base_weights":[-5.179088E-8,-1.2570956E0,1.2779003E0,-1.6006856E0,9.264519E-2,5.329278E-1,1.750839E0,-1.7964147E-1,-1.7314992E0,-8.2802296E-1,8.690067E-1,-4.8898765E-1,1.1094418E0,1.8897958E0,1.3054075E0,-1.1902864E0,9.8963475E-1,-1.8238595E0,-6.679889E-1,2.1793996E-1,-1.2880719E0,1.2817618E0,-1.4522578E-1,-1.1959057E0,4.0476242E-1,1.6621403E0,4.6744356E-1,1.5676821E0,1.9436744E0,-9.4906256E-2,1.5342398E0,-1.424865E0,5.2767235E-1,1.2945117E0,-6.6529554E-1,-1.8660103E0,-8.5565376E-1,-9.591305E-1,5.2776814E-1,1.3447098E0,-2.366156E-1,-1.5650024E0,-2.7439862E-1,1.6127545E0,7.2348285E-1,-7.4137634E-1,1.0469021E0,-1.4707719E0,3.0448508E-1,-1.7518412E-1,1.1712992E0,-2.3972723E-1,1.6793634E0,-4.4294658E-1,1.0084989E0,1.0425708E0,1.7427953E0,5.8485997E-1,1.2645149E0,-5.382151E-1,1.1831969E0,7.860132E-1,1.692686E0,-4.5923027E-1,2.574678E-1,-2.5681815E-1,3.4324712E-1,-3.2929122E-2,4.6274018E-1,2.3108417E-1,-3.450551E-1,-5.67388E-1,-3.305904E-1,-3.4692344E-1,1.4708109E-1,-5.237752E-1,-2.0644818E-1,3.1010303E-1,-1.1310798E-1,6.70204E-2,4.8721316E-1,-2.027093E-1,3.070812E-1,-5.2998567E-1,-1.19573295E-1,-2.4756964E-1,2.0041445E-1,1.0037902E-1,5.0341517E-1,-7.209275E-2,3.8226137E-1,-3.357286E-1,2.2145966E-1,3.9243072E-1,-1.0553465E-1,4.2227702E-4,-4.8999527E-1,3.7715688E-1,-1.1957563E-1,-2.4924614E-1,2.0044045E-1,4.3003008E-1,3.871395E-2,5.5739456E-1,4.1424364E-1,-2.3375289E-1,2.264053E-1,1.09216124E-1,3.8119122E-1,1.0387173E-1,4.3087003E-1,1.20333545E-1,5.3293127E-1,3.2482843E-4,5.146758E-1,-3.3655667E-1,7.41071E-2,4.1579297E-1,-6.641404E-2,-1.0672064E-1,3.7718508E-1,4.1356233E-1,5.4420197E-1],"categories":[],"categories_nodes":[],"categories_segments":[],"categories_sizes":[],"default_left":[0,0,0,0,0,0,0,0,0,0,0,0,0,0,0,0,0,0,0,0,0,0,0,0,0,0,0,0,0,0,0,0,0,0,0,0,0,0,0,0,0,0,0,0,0,0,0,0,0,0,0,0,0,0,0,0,0,0,0,0,0,0,0,0,0,0,0,0,0,0,0,0,0,0,0,0,0,0,0,0,0,0,0,0,0,0,0,0,0,0,0,0,0,0,0,0,0,0,0,0,0,0,0,0,0,0,0,0,0,0,0,0,0,0,0,0,0,0,0,0,0,0,0],"id":0,"left_children":[1,3,5,7,9,11,13,15,17,19,21,23,25,27,29,31,33,35,37,39,41,43,45,47,49,51,53,55,57,59,61,63,65,67,69,71,73,75,77,79,81,83,85,87,89,91,93,95,97,99,101,-1,103,105,107,109,111,-1,113,115,117,119,121,-1,-1,-1,-1,-1,-1,-1,-1,-1,-1,-1,-1,-1,-1,-1,-1,-1,-1,-1,-1,-1,-1,-1,-1,-1,-1,-1,-1,-1,-1,-1,-1,-1,-1,-1,-1,-1,-1,-1,-1,-1,-1,-1,-1,-1,-1,-1,-1,-1,-1,-1,-1,-1,-1,-1,-1,-1,-1,-1,-1],"loss_changes":[6.36151E3,9.259238E2,6.90947E2,2.9548926E2,2.9091653E2,4.506518E2,7.185474E1,1.6100592E2,1.4189746E2,8.9903076E1,9.259854E1,1.7502094E2,1.7264679E2,1.2797852E1,9.267169E1,3.017057E1,3.2774002E1,5.3089355E1,4.1586056E1,2.9896528E1,3.592343E1,2.7844666E1,4.679315E1,6.416463E1,5.477372E1,1.2458801E1,1.1250667E2,1.0688751E1,6.303711E-1,2.4150469E1,2.8100403E1,1.6908875E1,9.08344E0,1.8884926E1,8.194945E0,2.2704102E1,2.3943966E1,1.91054E1,1.1261124E1,4.8836136E0,2.3931902E1,2.3165619E1,1.5606092E1,7.596588E0,3.2285748E1,2.5276371E1,8.49757E0,3.1290253E1,1.7079092E1,3.9673492E1,1.4295143E1,0E0,1.13394165E1,3.5017075E1,2.3694946E1,9.508083E0,3.8237305E0,0E0,5.4121675E0,1.4713474E1,3.4398422E0,2.4795017E1,5.274231E0,0E0,0E0,0E0,0E0,0E0,0E0,0E0,0E0,0E0,0E0,0E0,0E0,0E0,0E0,0E0,0E0,0E0,0E0,0E0,0E0,0E0,0E0,0E0,0E0,0E0,0E0,0E0,0E0,0E0,0E0,0E0,0E0,0E0,0E0,0E0,0E0,0E0,0E0,0E0,0E0,0E0,0E0,0E0,0E0,0E0,0E0,0E0,0E0,0E0,0E0,0E0,0E0,0E0,0E0,0E0,0E0,0E0,0E0,0E0,0E0],"parents":[2147483647,0,0,1,1,2,2,3,3,4,4,5,5,6,6,7,7,8,8,9,9,10,10,11,11,12,12,13,13,14,14,15,15,16,16,17,17,18,18,19,19,20,20,21,21,22,22,23,23,24,24,25,25,26,26,27,27,28,28,29,29,30,30,31,31,32,32,33,33,34,34,35,35,36,36,37,37,38,38,39,39,40,40,41,41,42,42,43,43,44,44,45,45,46,46,47,47,48,48,49,49,50,50,52,52,53,53,54,54,55,55,56,56,58,58,59,59,60,60,61,61,62,62],"right_children":[2,4,6,8,10,12,14,16,18,20,22,24,26,28,30,32,34,36,38,40,42,44,46,48,50,52,54,56,58,60,62,64,66,68,70,72,74,76,78,80,82,84,86,88,90,92,94,96,98,100,102,-1,104,106,108,110,112,-1,114,116,118,120,122,-1,-1,-1,-1,-1,-1,-1,-1,-1,-1,-1,-1,-1,-1,-1,-1,-1,-1,-1,-1,-1,-1,-1,-1,-1,-1,-1,-1,-1,-1,-1,-1,-1,-1,-1,-1,-1,-1,-1,-1,-1,-1,-1,-1,-1,-1,-1,-1,-1,-1,-1,-1,-1,-1,-1,-1,-1,-1,-1,-1],"split_conditions":[4.6153847E-2,4.854519E2,9.55414E-2,1.2861736E-1,3.9011702E-2,3.594967E-2,1.910828E-1,4.2283297E-2,2.5434507E-2,1.3043479E0,2.2140221E-1,4.7608456E2,1.6769145E-1,3.3783782E-2,4.3732315E2,3.4985423E-1,1.389015E0,8.5898355E-2,6.9524914E-2,1.5568241E-1,3.5928145E-1,1.4691151E0,2.8476506E-2,4.0816328E-1,3.678474E-1,3.255756E2,4.6297607E2,1.2307692E-1,2.3081106E3,7.025761E-2,2.3790643E-1,3.7841627E-1,3.614949E2,3.486281E2,5.958292E-2,4.5731708E-1,3.8626608E-1,4.210144E2,1.0526316E0,4.9979788E2,4.2704627E-1,5.5881635E2,3.1152649E-2,3.892886E2,5.329837E2,4.6478873E-1,1.3292062E3,1.2539186E-1,8.172043E-1,2.710027E-2,1.9076923E0,-2.3972723E-1,1.2096774E-1,4.32E-1,6.2111802E-2,4.8973135E2,1.0335917E-1,5.8485997E-1,6.589786E-2,3E-1,1.2552301E0,3.3259425E-2,3.5149384E-2,-4.5923027E-1,2.574678E-1,-2.5681815E-1,3.4324712E-1,-3.2929122E-2,4.6274018E-1,2.3108417E-1,-3.450551E-1,-5.67388E-1,-3.305904E-1,-3.4692344E-1,1.4708109E-1,-5.237752E-1,-2.0644818E-1,3.1010303E-1,-1.1310798E-1,6.70204E-2,4.8721316E-1,-2.027093E-1,3.070812E-1,-5.2998567E-1,-1.19573295E-1,-2.4756964E-1,2.0041445E-1,1.0037902E-1,5.0341517E-1,-7.209275E-2,3.8226137E-1,-3.357286E-1,2.2145966E-1,3.9243072E-1,-1.0553465E-1,4.2227702E-4,-4.8999527E-1,3.7715688E-1,-1.1957563E-1,-2.4924614E-1,2.0044045E-1,4.3003008E-1,3.871395E-2,5.5739456E-1,4.1424364E-1,-2.3375289E-1,2.264053E-1,1.09216124E-1,3.8119122E-1,1.0387173E-1,4.3087003E-1,1.20333545E-1,5.3293127E-1,3.2482843E-4,5.146758E-1,-3.3655667E-1,7.41071E-2,4.1579297E-1,-6.641404E-2,-1.0672064E-1,3.7718508E-1,4.1356233E-1,5.4420197E-1],"split_indices":[10,4,10,0,11,11,0,11,12,7,0,4,0,11,4,3,7,11,11,0,3,7,12,3,3,1,4,10,8,11,3,2,1,1,0,3,3,4,7,4,3,4,10,1,4,3,8,0,7,12,7,0,0,3,10,4,3,0,11,3,7,11,11,0,0,0,0,0,0,0,0,0,0,0,0,0,0,0,0,0,0,0,0,0,0,0,0,0,0,0,0,0,0,0,0,0,0,0,0,0,0,0,0,0,0,0,0,0,0,0,0,0,0,0,0,0,0,0,0,0,0,0,0],"split_type":[0,0,0,0,0,0,0,0,0,0,0,0,0,0,0,0,0,0,0,0,0,0,0,0,0,0,0,0,0,0,0,0,0,0,0,0,0,0,0,0,0,0,0,0,0,0,0,0,0,0,0,0,0,0,0,0,0,0,0,0,0,0,0,0,0,0,0,0,0,0,0,0,0,0,0,0,0,0,0,0,0,0,0,0,0,0,0,0,0,0,0,0,0,0,0,0,0,0,0,0,0,0,0,0,0,0,0,0,0,0,0,0,0,0,0,0,0,0,0,0,0,0,0],"sum_hessian":[3.9579976E3,1.9952488E3,1.9627488E3,1.590249E3,4.0499976E2,7.629996E2,1.1997493E3,1.3424992E2,1.4559991E3,1.852499E2,2.1974986E2,2.7524985E2,4.877497E2,9.1199945E2,2.8774982E2,7.1999954E1,6.224996E1,1.3389991E3,1.1699993E2,5.6749966E1,1.2849992E2,1.5599991E2,6.374996E1,1.5349991E2,1.2174992E2,2.6124985E2,2.2649986E2,1.3499992E2,7.769995E2,4.0499977E1,2.4724985E2,6.349996E1,8.499995E0,5.274997E1,9.499994E0,1.2822493E3,5.6749966E1,9.424995E1,2.2749987E1,1.574999E1,4.0999977E1,1.0049994E2,2.7999983E1,9.674994E1,5.9249966E1,4.2749973E1,2.0999987E1,1.2974992E2,2.3749987E1,6.974996E1,5.199997E1,1.499999E0,2.5974985E2,8.449995E1,1.4199991E2,3.5499977E1,9.949994E1,7.684995E2,8.499995E0,3.049998E1,9.999994E0,4.4249973E1,2.0299988E2,6.099996E1,2.4999986E0,2.4999986E0,5.999996E0,7.999995E0,4.4749973E1,2.2499986E0,7.2499957E0,1.2397493E3,4.2499973E1,4.6499973E1,1.0249994E1,2.2749987E1,7.1499954E1,1.4499991E1,8.249995E0,3.4999979E0,1.2249992E1,3.074998E1,1.0249994E1,8.524995E1,1.524999E1,1.7749989E1,1.0249994E1,4.999997E0,9.174995E1,2.1749987E1,3.7499977E1,3.424998E1,8.499995E0,1.7749989E1,3.249998E0,1.2999992E1,1.1674993E2,9.749994E0,1.3999991E1,3.9249977E1,3.049998E1,4.1249977E1,1.0749993E1,1.5924991E2,1.0049994E2,6.624996E1,1.8249989E1,4.1749973E1,1.0024994E2,1.3499992E1,2.1999987E1,2.7499983E0,9.674994E1,2.4999986E0,5.999996E0,1.724999E1,1.3249992E1,8.749995E0,1.2499993E0,1.2999992E1,3.124998E1,5.9999966E1,1.4299991E2],"tree_param":{"num_deleted":"0","num_feature":"15","num_nodes":"123","size_leaf_vector":"1"}},{"base_weights":[1.0730267E-3,-8.445404E-1,1.0951781E0,-1.256797E0,-9.3911305E-2,1.2788675E0,2.1571532E-1,-2.8767002E-1,-1.3735831E0,-7.5221723E-1,4.9387416E-1,8.229669E-1,1.4065458E0,-3.0866838E-1,1.0505152E0,-1.1585777E0,5.1717407E-1,-1.391789E0,5.978877E-1,-1.0621781E0,8.518102E-2,1.1447325E0,7.0879884E-2,2.2674248E-2,1.0882112E0,7.824071E-1,1.4369094E0,-7.9791206E-1,5.7650465E-1,-2.543264E-1,1.1172636E0,-1.4178734E0,1.6557147E-1,-2.6532477E-1,1.1008935E0,-1.429401E0,-7.051467E-1,1.1366738E0,-7.716259E-1,-2.6417476E-1,-1.2369268E0,1.0041044E0,-2.6093763E-1,2.496673E-1,1.2988359E0,-2.4112533E-1,1.1043745E0,1.0162926E0,-4.196154E-1,7.27501E-1,1.4240941E0,1.1982366E0,-4.321601E-1,1.181862E0,1.4869986E0,-1.187331E0,-5.216553E-2,-4.8494345E-1,9.627922E-1,-8.946819E-1,3.1752095E-1,-3.0410126E-1,1.1581366E0,-1.5020616E-1,-4.5176223E-1,-1.2576525E-1,2.973696E-1,3.816695E-1,-1.6567817E-1,3.9732164E-1,-5.4564174E-2,-4.3456557E-1,-1.089953E-1,-3.6375752E-1,1.1122879E-2,-2.181582E-1,4.8179415E-1,-9.328112E-3,-3.2766256E-1,-1.8371621E-1,2.6148102E-1,-3.923104E-1,-9.963478E-2,1.2604418E-1,4.3013856E-1,-3.524568E-1,2.1649085E-2,-9.380651E-2,3.694174E-1,4.2135605E-1,2.1061195E-1,-1.8635993E-1,1.5953141E-1,3.673971E-1,-3.7251614E-2,-3.5403173E-2,4.103966E-1,-1.9795756E-1,3.1894702E-1,1.4572241E-2,3.6958346E-1,1.0620867E-1,4.3112168E-1,-2.3777355E-1,3.9746398E-1,2.1811381E-1,-3.3784497E-1,4.3317616E-1,2.609018E-1,4.4981742E-1,3.340149E-1,-4.1556388E-1,-1.9335529E-1,-2.1040635E-1,1.7241216E-1,-2.7690777E-1,2.448587E-1,3.440678E-1,4.1573472E-2,-3.9203143E-1,4.44669E-2,1.3363442E-1,-2.9961693E-1,1.8828492E-1,3.7697756E-1],"categories":[],"categories_nodes":[],"categories_segments":[],"categories_sizes":[],"default_left":[0,0,0,0,0,0,0,0,0,0,0,0,0,0,0,0,0,0,0,0,0,0,0,0,0,0,0,0,0,0,0,0,0,0,0,0,0,0,0,0,0,0,0,0,0,0,0,0,0,0,0,0,0,0,0,0,0,0,0,0,0,0,0,0,0,0,0,0,0,0,0,0,0,0,0,0,0,0,0,0,0,0,0,0,0,0,0,0,0,0,0,0,0,0,0,0,0,0,0,0,0,0,0,0,0,0,0,0,0,0,0,0,0,0,0,0,0,0,0,0,0,0,0,0,0],"id":1,"left_children":[1,3,5,7,9,11,13,15,17,19,21,23,25,27,29,31,33,35,37,39,41,43,45,47,49,51,53,55,57,59,61,63,65,67,69,71,73,75,77,79,81,83,85,87,89,91,93,95,97,99,101,103,105,107,109,111,113,115,117,119,-1,121,123,-1,-1,-1,-1,-1,-1,-1,-1,-1,-1,-1,-1,-1,-1,-1,-1,-1,-1,-1,-1,-1,-1,-1,-1,-1,-1,-1,-1,-1,-1,-1,-1,-1,-1,-1,-1,-1,-1,-1,-1,-1,-1,-1,-1,-1,-1,-1,-1,-1,-1,-1,-1,-1,-1,-1,-1,-1,-1,-1,-1,-1,-1],"loss_changes":[3.4443018E3,6.496881E2,2.6190698E2,1.5300488E2,2.8883972E2,7.697778E1,1.2360136E2,1.036581E2,4.4237793E1,9.1469925E1,1.0851526E2,6.2827713E1,1.8722168E1,7.569932E1,9.766762E0,2.458648E1,3.5510017E1,2.99458E1,9.558224E0,3.551471E1,3.080617E1,2.1098007E1,7.77015E1,3.3266754E1,2.5904877E1,2.6163849E1,1.0985352E1,3.2554337E1,2.6062517E1,6.085594E0,6.3802795E0,4.041603E0,6.4556646E0,1.5591791E1,1.2958218E1,2.265332E1,2.4228476E1,8.907149E0,8.960302E-1,1.9297363E1,1.3050537E1,6.0423183E0,2.1562864E1,1.3662592E1,7.3558807E0,5.475694E1,8.407417E0,9.4604435E0,1.9374062E1,3.736095E1,1.0758209E0,1.0654179E1,1.182883E1,1.2538528E1,2.1729736E0,7.027565E0,1.6508316E1,1.0626613E1,6.8366966E0,2.1924021E0,0E0,2.367352E0,4.4904633E0,0E0,0E0,0E0,0E0,0E0,0E0,0E0,0E0,0E0,0E0,0E0,0E0,0E0,0E0,0E0,0E0,0E0,0E0,0E0,0E0,0E0,0E0,0E0,0E0,0E0,0E0,0E0,0E0,0E0,0E0,0E0,0E0,0E0,0E0,0E0,0E0,0E0,0E0,0E0,0E0,0E0,0E0,0E0,0E0,0E0,0E0,0E0,0E0,0E0,0E0,0E0,0E0,0E0,0E0,0E0,0E0,0E0,0E0,0E0,0E0,0E0,0E0],"parents":[2147483647,0,0,1,1,2,2,3,3,4,4,5,5,6,6,7,7,8,8,9,9,10,10,11,11,12,12,13,13,14,14,15,15,16,16,17,17,18,18,19,19,20,20,21,21,22,22,23,23,24,24,25,25,26,26,27,27,28,28,29,29,30,30,31,31,32,32,33,33,34,34,35,35,36,36,37,37,38,38,39,39,40,40,41,41,42,42,43,43,44,44,45,45,46,46,47,47,48,48,49,49,50,50,51,51,52,52,53,53,54,54,55,55,56,56,57,57,58,58,59,59,61,61,62,62],"right_children":[2,4,6,8,10,12,14,16,18,20,22,24,26,28,30,32,34,36,38,40,42,44,46,48,50,52,54,56,58,60,62,64,66,68,70,72,74,76,78,80,82,84,86,88,90,92,94,96,98,100,102,104,106,108,110,112,114,116,118,120,-1,122,124,-1,-1,-1,-1,-1,-1,-1,-1,-1,-1,-1,-1,-1,-1,-1,-1,-1,-1,-1,-1,-1,-1,-1,-1,-1,-1,-1,-1,-1,-1,-1,-1,-1,-1,-1,-1,-1,-1,-1,-1,-1,-1,-1,-1,-1,-1,-1,-1,-1,-1,-1,-1,-1,-1,-1,-1,-1,-1,-1,-1,-1,-1],"split_conditions":[6.2111802E-2,4.5800607E2,2.3346303E-1,1.4117648E-1,3.9011702E-2,3.6144577E-2,2.7662518E-2,1.843318E-1,1.1711126E-1,2.7285129E-2,1.4888337E-1,4.5506158E2,4.1374234E2,1.02389075E-1,1.6233766E-1,7.3800735E-2,4.2283297E-2,4.3681747E-1,2.5925925E-1,1.5665796E-1,1.7472336E-1,4.1210394E2,3.183024E-2,1.2958963E-1,3.5545024E-1,7.84223E2,8.421053E-2,4.3636363E-2,2.2604951E-1,5.1421796E2,4.1374234E2,3.40329E-2,2.293578E-1,4.1666666E-1,1.2184249E0,3.5523977E-2,3.8289726E-2,3.450114E2,2.027027E-1,3.6557502E-1,4.600639E-1,3.0959751E-2,2.473207E-1,9.379885E-2,1.785196E0,3.752345E-1,3.1729245E-1,7.185629E-2,3.318584E-2,1.0428737E-1,6.335797E-2,4.048583E-2,7.5208914E-1,1.3846155E-1,1.9034846E3,3.2520324E-1,4.71718E2,4.6783626E-1,1.4527212E3,3.4305315E-2,3.1752095E-1,1.256106E-1,2.4350649E-2,-1.5020616E-1,-4.5176223E-1,-1.2576525E-1,2.973696E-1,3.816695E-1,-1.6567817E-1,3.9732164E-1,-5.4564174E-2,-4.3456557E-1,-1.089953E-1,-3.6375752E-1,1.1122879E-2,-2.181582E-1,4.8179415E-1,-9.328112E-3,-3.2766256E-1,-1.8371621E-1,2.6148102E-1,-3.923104E-1,-9.963478E-2,1.2604418E-1,4.3013856E-1,-3.524568E-1,2.1649085E-2,-9.380651E-2,3.694174E-1,4.2135605E-1,2.1061195E-1,-1.8635993E-1,1.5953141E-1,3.673971E-1,-3.7251614E-2,-3.5403173E-2,4.103966E-1,-1.9795756E-1,3.1894702E-1,1.4572241E-2,3.6958346E-1,1.0620867E-1,4.3112168E-1,-2.3777355E-1,3.9746398E-1,2.1811381E-1,-3.3784497E-1,4.3317616E-1,2.609018E-1,4.4981742E-1,3.340149E-1,-4.1556388E-1,-1.9335529E-1,-2.1040635E-1,1.7241216E-1,-2.7690777E-1,2.448587E-1,3.440678E-1,4.1573472E-2,-3.9203143E-1,4.44669E-2,1.3363442E-1,-2.9961693E-1,1.8828492E-1,3.7697756E-1],"split_indices":[10,4,0,0,11,11,12,3,11,12,0,4,4,10,3,11,11,3,0,0,0,1,12,0,3,8,10,11,3,1,4,0,2,7,7,12,11,1,2,2,3,10,3,11,7,3,0,10,12,10,10,11,7,0,8,3,4,2,8,11,0,13,11,0,0,0,0,0,0,0,0,0,0,0,0,0,0,0,0,0,0,0,0,0,0,0,0,0,0,0,0,0,0,0,0,0,0,0,0,0,0,0,0,0,0,0,0,0,0,0,0,0,0,0,0,0,0,0,0,0,0,0,0,0,0],"split_type":[0,0,0,0,0,0,0,0,0,0,0,0,0,0,0,0,0,0,0,0,0,0,0,0,0,0,0,0,0,0,0,0,0,0,0,0,0,0,0,0,0,0,0,0,0,0,0,0,0,0,0,0,0,0,0,0,0,0,0,0,0,0,0,0,0,0,0,0,0,0,0,0,0,0,0,0,0,0,0,0,0,0,0,0,0,0,0,0,0,0,0,0,0,0,0,0,0,0,0,0,0,0,0,0,0,0,0,0,0,0,0,0,0,0,0,0,0,0,0,0,0,0,0,0,0],"sum_hessian":[3.7208052E3,2.098862E3,1.6219431E3,1.3543556E3,7.445064E2,1.3413314E3,2.8061182E2,1.4602853E2,1.208327E3,3.510542E2,3.934522E2,2.9509216E2,1.0462393E3,1.7273665E2,1.0787515E2,6.992472E1,7.610382E1,1.1975619E3,1.076505E1,2.5602045E2,9.5033745E1,1.5431009E2,2.3914212E2,7.372755E1,2.213646E2,4.9778885E1,9.964603E2,1.1131201E2,6.142464E1,5.1129885E0,1.0276216E2,5.841507E1,1.150965E1,3.2748554E1,4.3355267E1,1.1343445E3,6.321748E1,7.8476787E0,2.9173717E0,4.644367E1,2.0957678E2,2.548134E1,6.955241E1,2.305013E1,1.3125996E2,1.8427686E2,5.4865273E1,2.2309875E1,5.1417675E1,1.0826402E2,1.1310058E2,3.7092896E1,1.2685991E1,1.6760954E2,8.2885077E2,7.273738E1,3.857463E1,1.6321295E1,4.5103348E1,3.6506443E0,1.462344E0,2.6924245E0,1.0006974E2,5.6996946E0,5.2715374E1,7.0257792E0,4.483871E0,4.6102896E0,2.8138264E1,3.689431E1,6.4609594E0,1.1139746E3,2.0369917E1,3.7172787E1,2.6044693E1,1.4679917E0,6.379687E0,1.2128141E0,1.7045577E0,3.5898533E1,1.0545134E1,1.9395992E2,1.5616861E1,1.1640071E1,1.38412695E1,1.7903679E1,5.1648727E1,1.5088536E1,7.961594E0,1.103628E2,2.0897158E1,1.23661964E2,6.0614883E1,4.9975525E1,4.8897486E0,5.4374056E0,1.6872469E1,4.4726017E1,6.6916585E0,4.6617798E1,6.164622E1,1.6941559E0,1.1140642E2,1.9039946E0,3.51889E1,4.7328467E0,7.9531446E0,8.914999E1,7.845956E1,7.9932404E2,2.9526768E1,5.216777E1,2.056961E1,1.8891644E1,1.9682985E1,1.2427622E1,3.8936722E0,3.6548256E1,8.555093E0,2.4353414E0,1.2153028E0,1.4675481E0,1.2248764E0,1.6818558E1,8.325118E1],"tree_param":{"num_deleted":"0","num_feature":"15","num_nodes":"125","size_leaf_vector":"1"}},{"base_weights":[1.9862452E-3,-7.8431374E-1,7.8959566E-1,-1.0226179E0,6.7668416E-2,1.079575E0,1.9650076E-1,-1.1727438E0,-3.7615326E-1,4.2162198E-1,-6.8416774E-1,7.5965315E-1,1.2368504E0,-7.075362E-1,4.985511E-1,-1.2228646E0,-3.4245297E-1,1.0092297E0,-5.9673893E-1,9.375187E-1,1.59062E-2,-1.0394117E0,3.5860968E-1,2.602442E-1,9.921473E-1,9.850199E-1,1.2838498E0,-8.937564E-1,3.6950848E-1,-3.334092E-2,8.87719E-1,-4.3258938E-1,-1.2487622E0,5.7677513E-1,-6.635325E-1,1.2127068E0,-1.7374682E-1,-7.3027617E-1,5.64324E-1,5.55485E-1,1.2396609E0,-4.0204507E-1,5.334812E-1,-1.1750698E0,2.7890584E-2,-4.9831006E-1,7.1593994E-1,6.6408753E-1,-9.345467E-1,1.0748148E0,-4.2601404E-1,1.055377E0,-1.9964965E-2,1.1553926E0,1.3149835E0,-9.8551565E-1,4.6347126E-1,-3.586121E-1,8.3415246E-1,-3.8938636E-1,7.3823094E-1,2.6606387E-1,1.0225106E0,-2.872836E-1,1.7113894E-1,-3.764361E-1,1.8434817E-1,4.4747216E-1,-8.5855186E-2,-3.56293E-1,-4.8678845E-2,1.15143776E-1,4.0607026E-1,-3.2645404E-1,1.3617374E-1,-2.9303184E-1,-6.380501E-2,3.659781E-1,-1.2723398E-1,3.557598E-1,4.9324173E-2,2.6006212E-2,3.8889948E-1,-2.8053007E-1,3.992946E-2,4.3328345E-2,3.29765E-1,-3.8097233E-1,-1.5236357E-1,-3.7479067E-1,1.4641981E-1,-2.5163797E-1,2.9874244E-1,2.950595E-1,-3.6921937E-2,2.7135128E-1,-7.253851E-2,1.4226283E-1,-3.330931E-1,3.61039E-1,2.2667533E-1,-5.097858E-1,8.79409E-2,1.9917738E-1,3.576458E-1,3.0607682E-1,-1.8810074E-1,4.3206485E-3,3.566819E-1,3.9670655E-1,1.9034392E-1,-3.5436732E-1,-1.3868245E-1,3.1678778E-1,-2.814725E-1,2.0520037E-1,-3.1359047E-1,3.3307147E-1,-3.1685984E-1,-2.5699264E-1,5.4316234E-2,2.6072776E-1,-2.2006126E-1,3.707624E-1,-9.183781E-3,3.4079984E-1,1.7986196E-1],"categories":[],"categories_nodes":[],"categories_segments":[],"categories_sizes":[],"default_left":[0,0,0,0,0,0,0,0,0,0,0,0,0,0,0,0,0,0,0,0,0,0,0,0,0,0,0,0,0,0,0,0,0,0,0,0,0,0,0,0,0,0,0,0,0,0,0,0,0,0,0,0,0,0,0,0,0,0,0,0,0,0,0,0,0,0,0,0,0,0,0,0,0,0,0,0,0,0,0,0,0,0,0,0,0,0,0,0,0,0,0,0,0,0,0,0,0,0,0,0,0,0,0,0,0,0,0,0,0,0,0,0,0,0,0,0,0,0,0,0,0,0,0,0,0,0,0],"id":2,"left_children":[1,3,5,7,9,11,13,15,17,19,21,23,25,27,29,31,33,35,37,39,41,43,45,47,49,51,53,55,57,59,61,63,65,67,69,71,73,75,77,79,81,83,85,87,89,91,93,95,97,99,101,103,105,107,109,111,113,115,117,119,121,123,125,-1,-1,-1,-1,-1,-1,-1,-1,-1,-1,-1,-1,-1,-1,-1,-1,-1,-1,-1,-1,-1,-1,-1,-1,-1,-1,-1,-1,-1,-1,-1,-1,-1,-1,-1,-1,-1,-1,-1,-1,-1,-1,-1,-1,-1,-1,-1,-1,-1,-1,-1,-1,-1,-1,-1,-1,-1,-1,-1,-1,-1,-1,-1,-1],"loss_changes":[2.0483596E3,3.3611676E2,2.839762E2,1.25089355E2,9.6809845E1,5.4889404E1,1.4885324E2,4.324402E1,7.554537E1,5.173119E1,4.352168E1,4.2503372E1,7.521118E0,2.772956E1,8.4529236E1,1.970288E1,1.842183E1,8.408199E0,3.3309692E1,1.1871994E1,3.0371403E1,1.2649391E1,9.647473E0,5.77227E1,2.9877243E1,8.5796585E0,9.692383E-1,1.4998291E1,7.3514433E0,4.7935528E1,1.9484406E1,1.787989E1,1.1516113E1,1.3339649E1,1.1830032E1,2.887848E0,3.864603E0,2.4126534E1,1.5065748E1,1.2098475E1,3.8047485E0,2.2288385E1,1.3644026E1,4.2484207E0,6.959276E0,5.6775856E0,5.020606E0,1.9609138E1,8.031832E0,8.840424E0,1.3810479E1,5.2661896E0,6.260207E0,4.944687E0,1.637146E0,1.06864395E1,7.6964955E0,7.0294404E0,7.970689E0,3.1962795E1,1.12517395E1,1.2514669E1,8.603073E0,0E0,0E0,0E0,0E0,0E0,0E0,0E0,0E0,0E0,0E0,0E0,0E0,0E0,0E0,0E0,0E0,0E0,0E0,0E0,0E0,0E0,0E0,0E0,0E0,0E0,0E0,0E0,0E0,0E0,0E0,0E0,0E0,0E0,0E0,0E0,0E0,0E0,0E0,0E0,0E0,0E0,0E0,0E0,0E0,0E0,0E0,0E0,0E0,0E0,0E0,0E0,0E0,0E0,0E0,0E0,0E0,0E0,0E0,0E0,0E0,0E0,0E0,0E0,0E0],"parents":[2147483647,0,0,1,1,2,2,3,3,4,4,5,5,6,6,7,7,8,8,9,9,10,10,11,11,12,12,13,13,14,14,15,15,16,16,17,17,18,18,19,19,20,20,21,21,22,22,23,23,24,24,25,25,26,26,27,27,28,28,29,29,30,30,31,31,32,32,33,33,34,34,35,35,36,36,37,37,38,38,39,39,40,40,41,41,42,42,43,43,44,44,45,45,46,46,47,47,48,48,49,49,50,50,51,51,52,52,53,53,54,54,55,55,56,56,57,57,58,58,59,59,60,60,61,61,62,62],"right_children":[2,4,6,8,10,12,14,16,18,20,22,24,26,28,30,32,34,36,38,40,42,44,46,48,50,52,54,56,58,60,62,64,66,68,70,72,74,76,78,80,82,84,86,88,90,92,94,96,98,100,102,104,106,108,110,112,114,116,118,120,122,124,126,-1,-1,-1,-1,-1,-1,-1,-1,-1,-1,-1,-1,-1,-1,-1,-1,-1,-1,-1,-1,-1,-1,-1,-1,-1,-1,-1,-1,-1,-1,-1,-1,-1,-1,-1,-1,-1,-1,-1,-1,-1,-1,-1,-1,-1,-1,-1,-1,-1,-1,-1,-1,-1,-1,-1,-1,-1,-1,-1,-1,-1,-1,-1,-1],"split_conditions":[4.5454547E-2,4.854519E2,1.9505852E-1,5.703422E-2,1.8181819E0,9.414226E-2,4.3732315E2,2.979146E-2,1.0759115E-1,1.7291066E-1,5.64E2,4.666788E2,3.3783782E-2,1.1780105E-1,8.67052E-2,9.656652E-2,1.7964073E-1,1.406564E0,1.1070111E-1,5.226804E2,2.739726E-2,3.3333335E-2,2.9368808E2,1.2405238E0,2.5961537E0,6.486486E-1,1.1992005E-1,9.55414E-2,4.0774423E2,6.319115E-2,2.3255815E-1,2.1111894E-1,5.674653E-1,8.2281953E-1,2.8169015E-1,3.6708453E2,1.3293944E-1,2.967359E-1,2.1052632E-1,1.1029412E-1,1.5335463E-1,3.1523642E-1,6.376196E-2,7.268322E-2,5.1295166E2,3.7476577E-2,2.7033792E0,1.0798483E3,9.1603056E-2,1.1334048E3,5.424E2,1.2228261E-1,1E-1,1.1642949E-1,2.3081106E3,3.1217483E-1,1.02789E3,7.5774974E-1,9.05387E2,2.3014959E-2,2.1805394E0,1.057047E0,1.8807621E0,-2.872836E-1,1.7113894E-1,-3.764361E-1,1.8434817E-1,4.4747216E-1,-8.5855186E-2,-3.56293E-1,-4.8678845E-2,1.15143776E-1,4.0607026E-1,-3.2645404E-1,1.3617374E-1,-2.9303184E-1,-6.380501E-2,3.659781E-1,-1.2723398E-1,3.557598E-1,4.9324173E-2,2.6006212E-2,3.8889948E-1,-2.8053007E-1,3.992946E-2,4.3328345E-2,3.29765E-1,-3.8097233E-1,-1.5236357E-1,-3.7479067E-1,1.4641981E-1,-2.5163797E-1,2.9874244E-1,2.950595E-1,-3.6921937E-2,2.7135128E-1,-7.253851E-2,1.4226283E-1,-3.330931E-1,3.61039E-1,2.2667533E-1,-5.097858E-1,8.79409E-2,1.9917738E-1,3.576458E-1,3.0607682E-1,-1.8810074E-1,4.3206485E-3,3.566819E-1,3.9670655E-1,1.9034392E-1,-3.5436732E-1,-1.3868245E-1,3.1678778E-1,-2.814725E-1,2.0520037E-1,-3.1359047E-1,3.3307147E-1,-3.1685984E-1,-2.5699264E-1,5.4316234E-2,2.6072776E-1,-2.2006126E-1,3.707624E-1,-9.183781E-3,3.4079984E-1,1.7986196E-1],"split_indices":[10,4,0,11,7,10,4,12,0,0,4,4,11,10,10,0,0,7,11,4,12,12,9,7,7,13,10,11,4,11,3,3,2,7,3,1,3,3,0,0,2,3,11,11,4,10,7,8,0,8,4,10,0,3,8,3,8,7,5,12,7,7,7,0,0,0,0,0,0,0,0,0,0,0,0,0,0,0,0,0,0,0,0,0,0,0,0,0,0,0,0,0,0,0,0,0,0,0,0,0,0,0,0,0,0,0,0,0,0,0,0,0,0,0,0,0,0,0,0,0,0,0,0,0,0,0,0],"split_type":[0,0,0,0,0,0,0,0,0,0,0,0,0,0,0,0,0,0,0,0,0,0,0,0,0,0,0,0,0,0,0,0,0,0,0,0,0,0,0,0,0,0,0,0,0,0,0,0,0,0,0,0,0,0,0,0,0,0,0,0,0,0,0,0,0,0,0,0,0,0,0,0,0,0,0,0,0,0,0,0,0,0,0,0,0,0,0,0,0,0,0,0,0,0,0,0,0,0,0,0,0,0,0,0,0,0,0,0,0,0,0,0,0,0,0,0,0,0,0,0,0,0,0,0,0,0,0],"sum_hessian":[3.3055544E3,1.6541543E3,1.6514E3,1.2924489E3,3.6170544E2,1.108571E3,5.4282904E2,1.0482126E3,2.4423627E2,2.4622533E2,1.154801E2,3.6728598E2,7.4128503E2,1.3560893E2,4.0722012E2,9.8809314E2,6.0119446E1,3.3055676E1,2.1118059E2,1.0781722E2,1.3840811E2,8.6138466E1,2.9341642E1,1.1734422E2,2.4994177E2,1.20041664E2,6.2124335E2,1.1576366E2,1.9845272E1,1.724457E2,2.3477443E2,3.1914505E1,9.5617865E2,1.5357018E1,4.476243E1,2.8182951E1,4.8727236E0,1.897302E2,2.1450403E1,4.88672E1,5.895002E1,7.669705E1,6.171106E1,7.633502E1,9.803438E0,8.518573E0,2.0823069E1,8.803297E1,2.9311256E1,2.3640344E2,1.3538317E1,1.12140755E2,7.900904E0,1.286295E2,4.9261386E2,1.08689285E2,7.074373E0,7.819664E0,1.2025608E1,1.18334854E2,5.4110836E1,4.2364502E1,1.9240993E2,2.097892E1,1.0935586E1,9.5342236E2,2.7562852E0,7.1010036E0,8.256015E0,2.1213274E1,2.3549156E1,4.634719E0,2.3548231E1,1.6846522E0,3.1880715E0,1.2792195E2,6.180824E1,1.2755703E1,8.6947E0,1.7931097E1,3.0936102E1,2.8802655E0,5.6069756E1,3.8049072E1,3.864798E1,3.7309086E1,2.4401976E1,6.604385E1,1.0291168E1,2.1424212E0,7.6610165E0,7.294816E0,1.2237568E0,1.5657179E1,5.1658907E0,6.9570755E1,1.846221E1,3.0630138E0,2.6248243E1,1.6652477E2,6.987869E1,4.394626E0,9.143691E0,3.0552748E1,8.1588005E1,2.6607397E0,5.2401648E0,3.7147317E0,1.2491477E2,4.8640167E2,6.212212E0,7.818725E1,3.0502033E1,5.145918E0,1.928455E0,3.106668E0,4.712996E0,1.0853183E1,1.172425E0,6.477502E1,5.355984E1,5.0068512E1,4.0423245E0,9.182368E0,3.3182133E1,1.5037616E2,4.2033764E1],"tree_param":{"num_deleted":"0","num_feature":"15","num_nodes":"127","size_leaf_vector":"1"}},{"base_weights":[2.090357E-3,-6.940045E-1,6.259869E-1,-8.730281E-1,1.3205725E-1,9.941114E-1,2.1392941E-1,2.6396695E-1,-9.6043473E-1,-2.0256208E-1,7.8186154E-1,6.046018E-1,1.092884E0,-4.8363647E-1,5.126502E-1,-8.4419787E-1,6.9439244E-1,-1.0283056E0,-1.5251921E-1,-7.25429E-1,8.067113E-3,9.908373E-1,8.534378E-2,1.657804E-1,9.9782526E-1,7.8436255E-1,1.1465714E0,-8.076652E-1,3.4397613E-2,2.4552046E-1,9.498925E-1,-1.0308999E0,2.5253028E-1,9.171493E-1,-6.372277E-1,-1.0640846E0,-3.4553684E-2,9.436452E-1,-5.0858283E-1,-1.527302E-1,-1.0184776E0,-2.8836852E-1,4.8945245E-1,1.2276381E0,7.678217E-1,-2.0513242E-1,3.1698942E-1,-5.1368016E-1,6.6123784E-1,-3.1697187E-1,1.0419965E0,-1.2920792E-1,9.31351E-1,1.1964804E0,9.513893E-1,-8.9381945E-1,6.613565E-1,3.013279E-1,-7.949543E-1,-2.8177497E-1,5.862687E-1,5.616643E-1,1.0862035E0,-1.0482279E-1,-3.626486E-1,-2.6059212E-2,3.062737E-1,-3.9641175E-1,4.1960273E-2,-3.2609382E-1,-4.561844E-2,1.243479E-1,-1.937345E-1,-1.1664794E-1,3.3630228E-1,-3.197877E-1,-3.7297018E-2,-1.8033877E-1,2.662106E-1,-3.404755E-1,1.9872081E-1,-1.7008682E-1,7.172227E-2,3.3342432E-2,2.855527E-1,3.8555586E-1,-5.028553E-2,-4.8444547E-2,2.9511523E-1,6.354529E-2,-2.47604E-1,-2.9168582E-1,2.236775E-1,3.705974E-1,6.6410266E-2,2.5007266E-1,-4.453931E-1,3.489694E-1,2.0755751E-1,-2.9580015E-1,1.6472083E-1,3.140777E-1,1.1368343E-1,3.5999542E-1,1.17821984E-1,1.603356E-1,3.368761E-1,-2.9047835E-1,9.570647E-2,-2.7107093E-2,3.2002184E-1,-6.939652E-2,2.0632993E-1,-1.0719624E-2,-3.625872E-1,-1.6841042E-1,1.860421E-1,1.1862218E-1,3.5831016E-1,2.0071946E-1,-2.9673836E-1,3.3469105E-1,-4.4704042E-2],"categories":[],"categories_nodes":[],"categories_segments":[],"categories_sizes":[],"default_left":[0,0,0,0,0,0,0,0,0,0,0,0,0,0,0,0,0,0,0,0,0,0,0,0,0,0,0,0,0,0,0,0,0,0,0,0,0,0,0,0,0,0,0,0,0,0,0,0,0,0,0,0,0,0,0,0,0,0,0,0,0,0,0,0,0,0,0,0,0,0,0,0,0,0,0,0,0,0,0,0,0,0,0,0,0,0,0,0,0,0,0,0,0,0,0,0,0,0,0,0,0,0,0,0,0,0,0,0,0,0,0,0,0,0,0,0,0,0,0,0,0,0,0],"id":3,"left_children":[1,3,5,7,9,11,13,15,17,19,21,23,25,27,29,31,33,35,37,39,41,43,45,47,49,51,53,55,57,59,61,63,-1,65,67,69,71,73,75,77,79,81,83,85,87,89,-1,91,93,95,97,99,101,103,105,107,109,111,113,115,117,119,121,-1,-1,-1,-1,-1,-1,-1,-1,-1,-1,-1,-1,-1,-1,-1,-1,-1,-1,-1,-1,-1,-1,-1,-1,-1,-1,-1,-1,-1,-1,-1,-1,-1,-1,-1,-1,-1,-1,-1,-1,-1,-1,-1,-1,-1,-1,-1,-1,-1,-1,-1,-1,-1,-1,-1,-1,-1,-1,-1,-1],"loss_changes":[1.2509939E3,2.0145935E2,2.302091E2,1.1147284E2,5.3077168E1,3.019519E1,1.4986871E2,3.9066906E1,5.6839905E1,1.7785715E1,1.1986687E1,2.8215576E1,9.677368E0,3.625216E1,5.8543564E1,8.114008E0,1.7983067E1,3.4051025E1,3.237873E1,7.6267548E0,1.6704624E1,2.4213295E0,5.9254694E0,2.6910973E1,5.3564987E0,1.3254948E1,4.138733E0,1.7398949E1,1.883566E1,5.6534138E1,9.470978E0,2.1452255E0,0E0,5.36631E0,4.96741E0,1.9156738E1,9.69616E0,5.2543316E0,1.3219143E1,8.402399E0,6.720951E0,1.0783503E1,7.697201E0,2.5619888E0,7.276079E0,4.4192533E0,0E0,2.0272015E1,1.1363544E1,6.0468564E0,2.7594528E0,8.9298525E0,4.9902725E0,7.3291016E-1,7.638466E0,1.1673248E1,2.5134547E0,1.3388844E1,6.466817E0,3.1573788E1,2.1683975E1,9.251873E0,5.2533264E0,0E0,0E0,0E0,0E0,0E0,0E0,0E0,0E0,0E0,0E0,0E0,0E0,0E0,0E0,0E0,0E0,0E0,0E0,0E0,0E0,0E0,0E0,0E0,0E0,0E0,0E0,0E0,0E0,0E0,0E0,0E0,0E0,0E0,0E0,0E0,0E0,0E0,0E0,0E0,0E0,0E0,0E0,0E0,0E0,0E0,0E0,0E0,0E0,0E0,0E0,0E0,0E0,0E0,0E0,0E0,0E0,0E0,0E0,0E0,0E0],"parents":[2147483647,0,0,1,1,2,2,3,3,4,4,5,5,6,6,7,7,8,8,9,9,10,10,11,11,12,12,13,13,14,14,15,15,16,16,17,17,18,18,19,19,20,20,21,21,22,22,23,23,24,24,25,25,26,26,27,27,28,28,29,29,30,30,31,31,33,33,34,34,35,35,36,36,37,37,38,38,39,39,40,40,41,41,42,42,43,43,44,44,45,45,47,47,48,48,49,49,50,50,51,51,52,52,53,53,54,54,55,55,56,56,57,57,58,58,59,59,60,60,61,61,62,62],"right_children":[2,4,6,8,10,12,14,16,18,20,22,24,26,28,30,32,34,36,38,40,42,44,46,48,50,52,54,56,58,60,62,64,-1,66,68,70,72,74,76,78,80,82,84,86,88,90,-1,92,94,96,98,100,102,104,106,108,110,112,114,116,118,120,122,-1,-1,-1,-1,-1,-1,-1,-1,-1,-1,-1,-1,-1,-1,-1,-1,-1,-1,-1,-1,-1,-1,-1,-1,-1,-1,-1,-1,-1,-1,-1,-1,-1,-1,-1,-1,-1,-1,-1,-1,-1,-1,-1,-1,-1,-1,-1,-1,-1,-1,-1,-1,-1,-1,-1,-1,-1,-1,-1,-1],"split_conditions":[4.0927693E-2,2.3809524E-2,1.6769145E-1,1.0313708E-1,6.472492E-2,3.594967E-2,4.478792E2,3.6708453E2,4.3458578E-1,2.5305778E-2,2.3699802E-1,1.01608805E-1,4.0949045E2,3.105233E-1,1.1070111E-1,9.31677E-2,1.8292683E0,9.6618354E-2,1.7560975E-1,9.571286E-1,3.4662046E-2,1.06412E0,1.0682493E-1,4.3338925E2,1.0335917E-1,1.923077E-1,1.3574661E-1,3.4762457E-2,2.910855E-1,2.9411766E-1,3.3783782E-2,3.3256352E-1,2.5253028E-1,3.8284024E2,4.6153847E-2,5.506061E2,2.2316684E-1,3.2214328E2,3.2786883E-2,4.176316E2,5.137964E-1,3.5928145E-1,3.0135611E-2,1.947374E3,4.7867816E2,1.865285E-1,3.1698942E-1,3.9215687E-1,1.1327879E-1,6.217636E2,1.3986014E-1,6.276151E-2,1.374702E3,7.2170585E-1,2.8169015E-1,9.508716E-2,7.638447E-2,3.6144577E-2,8.058608E-1,3.0975735E-2,8.316008E-2,4.3636364E-1,2.2237095E3,-1.0482279E-1,-3.626486E-1,-2.6059212E-2,3.062737E-1,-3.9641175E-1,4.1960273E-2,-3.2609382E-1,-4.561844E-2,1.243479E-1,-1.937345E-1,-1.1664794E-1,3.3630228E-1,-3.197877E-1,-3.7297018E-2,-1.8033877E-1,2.662106E-1,-3.404755E-1,1.9872081E-1,-1.7008682E-1,7.172227E-2,3.3342432E-2,2.855527E-1,3.8555586E-1,-5.028553E-2,-4.8444547E-2,2.9511523E-1,6.354529E-2,-2.47604E-1,-2.9168582E-1,2.236775E-1,3.705974E-1,6.6410266E-2,2.5007266E-1,-4.453931E-1,3.489694E-1,2.0755751E-1,-2.9580015E-1,1.6472083E-1,3.140777E-1,1.1368343E-1,3.5999542E-1,1.17821984E-1,1.603356E-1,3.368761E-1,-2.9047835E-1,9.570647E-2,-2.7107093E-2,3.2002184E-1,-6.939652E-2,2.0632993E-1,-1.0719624E-2,-3.625872E-1,-1.6841042E-1,1.860421E-1,1.1862218E-1,3.5831016E-1,2.0071946E-1,-2.9673836E-1,3.3469105E-1,-4.4704042E-2],"split_indices":[10,12,0,0,11,11,4,1,3,11,0,10,1,3,10,11,7,11,0,7,12,7,11,1,3,3,0,12,0,3,11,7,0,1,11,4,0,1,11,1,2,3,10,8,4,14,0,3,0,8,0,11,8,14,3,11,10,11,7,12,11,14,8,0,0,0,0,0,0,0,0,0,0,0,0,0,0,0,0,0,0,0,0,0,0,0,0,0,0,0,0,0,0,0,0,0,0,0,0,0,0,0,0,0,0,0,0,0,0,0,0,0,0,0,0,0,0,0,0,0,0,0,0],"split_type":[0,0,0,0,0,0,0,0,0,0,0,0,0,0,0,0,0,0,0,0,0,0,0,0,0,0,0,0,0,0,0,0,0,0,0,0,0,0,0,0,0,0,0,0,0,0,0,0,0,0,0,0,0,0,0,0,0,0,0,0,0,0,0,0,0,0,0,0,0,0,0,0,0,0,0,0,0,0,0,0,0,0,0,0,0,0,0,0,0,0,0,0,0,0,0,0,0,0,0,0,0,0,0,0,0,0,0,0,0,0,0,0,0,0,0,0,0,0,0,0,0,0,0],"sum_hessian":[2.8785415E3,1.3604952E3,1.5180463E3,1.1181201E3,2.4237521E2,8.0101855E2,7.170277E2,7.967531E1,1.0384447E3,1.6044281E2,8.1932396E1,1.634752E2,6.3754333E2,2.148038E2,5.022239E2,2.2020489E1,5.7654816E1,9.5771674E2,8.072806E1,4.5370575E1,1.15072235E2,6.2698463E1,1.9233936E1,7.793004E1,8.5545166E1,9.681188E1,5.4073145E2,1.318026E2,8.300122E1,3.127272E2,1.894967E2,2.0174885E1,1.8456051E0,4.9658985E1,7.995829E0,9.2436505E2,3.3351635E1,1.938865E1,6.1339405E1,1.5872483E1,2.9498093E1,7.1465164E1,4.360707E1,2.8224545E1,3.447392E1,1.5413217E1,3.8207197E0,3.2847225E1,4.5082817E1,2.5797777E0,8.2965385E1,1.3434435E1,8.337744E1,4.2653458E2,1.141969E2,1.24870804E2,6.931786E0,6.3273163E1,1.9728054E1,1.2282819E2,1.8989903E2,5.057476E1,1.3892194E2,4.7904806E0,1.5384404E1,4.666706E0,4.499228E1,3.8797486E0,4.1160803E0,9.015417E2,2.2823383E1,1.9412128E1,1.39395075E1,2.1375544E0,1.7251097E1,2.4307224E1,3.703218E1,1.1385922E1,4.4865613E0,2.78908E1,1.6072918E0,4.67157E1,2.4749464E1,2.4666323E1,1.8940748E1,2.7182285E1,1.0422593E0,6.5466204E0,2.7927298E1,9.610718E0,5.802499E0,2.4245365E1,8.60186E0,1.8773119E1,2.6309698E1,1.4435347E0,1.136243E0,5.9902153E1,2.3063232E1,5.735602E0,7.698833E0,6.821108E1,1.5166365E1,4.241921E2,2.3424566E0,3.4486633E1,7.9710266E1,1.1783971E2,7.0310993E0,2.700772E0,4.231014E0,2.6772516E1,3.650065E1,7.341086E0,1.2386969E1,9.405026E1,2.8777931E1,1.4579054E2,4.410848E1,4.783079E1,2.74397E0,1.3578323E2,3.1386998E0],"tree_param":{"num_deleted":"0","num_feature":"15","num_nodes":"123","size_leaf_vector":"1"}},{"base_weights":[3.1348108E-3,-4.7780102E-1,6.5473706E-1,-8.985805E-1,-9.344767E-2,3.707152E-1,1.0073777E0,-1.6986707E-1,-9.9004513E-1,4.4826096E-1,-4.005847E-1,1.277206E-2,7.546878E-1,6.956394E-1,1.0837028E0,-6.266997E-1,6.167068E-1,-1.0581484E0,-6.175483E-1,-2.6256347E-2,7.4294347E-1,-7.299203E-1,2.3840056E-1,3.572226E-1,-6.706696E-1,9.145481E-1,1.8485252E-2,-8.8574074E-2,7.869158E-1,1.1108685E0,5.5058956E-1,-8.952761E-1,2.165302E-1,-2.707626E-1,1.0040058E0,-1.0739067E0,-1.9066308E-1,-7.51276E-1,2.1871635E-1,-2.5382257E-1,5.5563754E-1,9.4800544E-1,2.2642466E-1,3.288008E-1,-8.1079817E-1,5.191395E-1,-3.816293E-1,-3.724578E-1,5.498946E-1,7.7157056E-1,-8.0183643E-1,5.55873E-1,1.0249381E0,-7.8576577E-1,5.91406E-1,-7.7305E-1,8.793481E-1,-5.299486E-1,8.423127E-1,1.1262807E0,5.3694904E-1,-4.508504E-1,9.0470624E-1,-1.3762423E-1,-3.3952934E-1,-1.4961448E-1,2.587224E-1,-2.3940858E-1,1.5050814E-1,3.7275246E-1,-2.603539E-2,-3.2694447E-1,-1.1006773E-1,-1.8382703E-1,3.6232144E-1,-7.984702E-2,-2.739156E-1,-9.5489964E-2,2.976193E-1,9.91176E-2,-1.5369895E-1,-2.973979E-3,3.3153063E-1,2.9849815E-1,-9.2749774E-2,-4.2736433E-2,2.2628468E-1,2.611359E-1,-1.7055506E-2,-1.6551211E-1,-3.0358005E-1,9.0531096E-2,3.2104945E-1,-2.4381815E-1,5.5215593E-2,2.1356525E-1,-1.8510506E-1,2.5751188E-1,7.858276E-2,-2.5153086E-1,3.4253737E-1,-2.7241713E-1,1.569733E-1,6.994004E-2,2.7208555E-1,3.256167E-1,2.2018313E-1,-3.8977203E-1,6.575364E-2,-1.337737E-1,2.3114797E-1,3.3162307E-2,-4.1870046E-1,3.1748E-1,3.4514785E-2,2.340715E-1,-3.761549E-1,1.9819926E-1,3.4741175E-1,3.4369314E-1,2.6450524E-1,-1.954612E-1,2.6620242E-1,-4.9377927E-1,2.699965E-1,3.0341893E-1,-5.5746984E-2],"categories":[],"categories_nodes":[],"categories_segments":[],"categories_sizes":[],"default_left":[0,0,0,0,0,0,0,0,0,0,0,0,0,0,0,0,0,0,0,0,0,0,0,0,0,0,0,0,0,0,0,0,0,0,0,0,0,0,0,0,0,0,0,0,0,0,0,0,0,0,0,0,0,0,0,0,0,0,0,0,0,0,0,0,0,0,0,0,0,0,0,0,0,0,0,0,0,0,0,0,0,0,0,0,0,0,0,0,0,0,0,0,0,0,0,0,0,0,0,0,0,0,0,0,0,0,0,0,0,0,0,0,0,0,0,0,0,0,0,0,0,0,0,0,0,0,0],"id":4,"left_children":[1,3,5,7,9,11,13,15,17,19,21,23,25,27,29,31,33,35,37,39,41,43,45,47,49,51,53,55,57,59,61,63,65,67,69,71,73,75,77,79,81,83,85,87,89,91,93,95,97,99,101,103,105,107,109,111,113,115,117,119,121,123,125,-1,-1,-1,-1,-1,-1,-1,-1,-1,-1,-1,-1,-1,-1,-1,-1,-1,-1,-1,-1,-1,-1,-1,-1,-1,-1,-1,-1,-1,-1,-1,-1,-1,-1,-1,-1,-1,-1,-1,-1,-1,-1,-1,-1,-1,-1,-1,-1,-1,-1,-1,-1,-1,-1,-1,-1,-1,-1,-1,-1,-1,-1,-1,-1],"loss_changes":[7.829525E2,2.3239401E2,1.0588986E2,4.556128E1,1.2535708E2,8.097533E1,1.0493835E1,2.8313622E1,1.4805481E1,3.8151577E1,1.01325516E2,7.2269066E1,3.343811E1,6.9248505E0,4.8620605E0,1.1440662E1,1.0259706E1,6.8187256E0,1.0966473E1,1.4103029E1,1.7607338E1,2.7447418E1,2.8785564E1,2.8897936E1,2.0080894E1,8.676727E0,2.4302454E1,7.8902783E0,6.7117424E0,2.567627E0,7.6097054E0,3.3891602E0,6.3439956E0,4.316913E0,5.426033E0,5.2733154E0,6.868371E0,6.3102493E0,6.167885E0,1.1719874E1,9.319668E0,7.40403E0,9.674055E0,4.9040375E0,1.4824875E1,1.326812E1,1.2772501E1,1.1903065E1,1.4152939E1,6.37321E0,1.3817436E1,6.263405E0,2.323761E0,1.1612066E1,6.0621033E0,3.9542837E0,5.587163E-1,4.848839E0,3.9838638E0,6.3974E-1,5.279871E0,1.1123215E1,1.9722195E0,0E0,0E0,0E0,0E0,0E0,0E0,0E0,0E0,0E0,0E0,0E0,0E0,0E0,0E0,0E0,0E0,0E0,0E0,0E0,0E0,0E0,0E0,0E0,0E0,0E0,0E0,0E0,0E0,0E0,0E0,0E0,0E0,0E0,0E0,0E0,0E0,0E0,0E0,0E0,0E0,0E0,0E0,0E0,0E0,0E0,0E0,0E0,0E0,0E0,0E0,0E0,0E0,0E0,0E0,0E0,0E0,0E0,0E0,0E0,0E0,0E0,0E0,0E0,0E0],"parents":[2147483647,0,0,1,1,2,2,3,3,4,4,5,5,6,6,7,7,8,8,9,9,10,10,11,11,12,12,13,13,14,14,15,15,16,16,17,17,18,18,19,19,20,20,21,21,22,22,23,23,24,24,25,25,26,26,27,27,28,28,29,29,30,30,31,31,32,32,33,33,34,34,35,35,36,36,37,37,38,38,39,39,40,40,41,41,42,42,43,43,44,44,45,45,46,46,47,47,48,48,49,49,50,50,51,51,52,52,53,53,54,54,55,55,56,56,57,57,58,58,59,59,60,60,61,61,62,62],"right_children":[2,4,6,8,10,12,14,16,18,20,22,24,26,28,30,32,34,36,38,40,42,44,46,48,50,52,54,56,58,60,62,64,66,68,70,72,74,76,78,80,82,84,86,88,90,92,94,96,98,100,102,104,106,108,110,112,114,116,118,120,122,124,126,-1,-1,-1,-1,-1,-1,-1,-1,-1,-1,-1,-1,-1,-1,-1,-1,-1,-1,-1,-1,-1,-1,-1,-1,-1,-1,-1,-1,-1,-1,-1,-1,-1,-1,-1,-1,-1,-1,-1,-1,-1,-1,-1,-1,-1,-1,-1,-1,-1,-1,-1,-1,-1,-1,-1,-1,-1,-1,-1,-1,-1,-1,-1,-1],"split_conditions":[6.2434964E-2,4.3732315E2,1.2396694E-1,1.3318536E-1,1.1038575E0,4.9476105E2,3.3783782E-2,2.4985129E-1,5.652379E-2,3.6474165E-2,5.1895593E2,1.2405238E0,2.1805394E0,4.180485E2,1.758218E3,3.953494E2,3.5367334E2,5.0329536E-1,4.0268455E-2,4.0816328E-1,1.1025957E3,1.0625738E-1,2.1393309E0,4.0955884E2,1.0135135E-1,3.2967035E-2,5.5469385E2,1.8334606E-1,1.1642949E-1,2.8235295E-1,3.105233E-1,8.7804876E-2,4.2765502E-2,4.140787E-2,1.2007062E0,3.348214E-2,3.7664782E-2,5.898876E-1,9.155646E-2,1.7472336E-1,2.1314387E-1,3.5320088E-1,7.926024E-2,1.406564E0,1.5263476E0,8.219178E-2,5.672321E2,4.1666666E-1,8.172043E-1,1.2820514E-1,3.573556E-2,3.0674847E-2,2.2316684E-1,3.6275697E-1,2.5305778E-2,9.110629E-1,3.6494302E2,9.669621E-2,4.32E-1,1.4095176E3,2.0134228E-1,5.2984753E2,2.5477707E-1,-1.3762423E-1,-3.3952934E-1,-1.4961448E-1,2.587224E-1,-2.3940858E-1,1.5050814E-1,3.7275246E-1,-2.603539E-2,-3.2694447E-1,-1.1006773E-1,-1.8382703E-1,3.6232144E-1,-7.984702E-2,-2.739156E-1,-9.5489964E-2,2.976193E-1,9.91176E-2,-1.5369895E-1,-2.973979E-3,3.3153063E-1,2.9849815E-1,-9.2749774E-2,-4.2736433E-2,2.2628468E-1,2.611359E-1,-1.7055506E-2,-1.6551211E-1,-3.0358005E-1,9.0531096E-2,3.2104945E-1,-2.4381815E-1,5.5215593E-2,2.1356525E-1,-1.8510506E-1,2.5751188E-1,7.858276E-2,-2.5153086E-1,3.4253737E-1,-2.7241713E-1,1.569733E-1,6.994004E-2,2.7208555E-1,3.256167E-1,2.2018313E-1,-3.8977203E-1,6.575364E-2,-1.337737E-1,2.3114797E-1,3.3162307E-2,-4.1870046E-1,3.1748E-1,3.4514785E-2,2.340715E-1,-3.761549E-1,1.9819926E-1,3.4741175E-1,3.4369314E-1,2.6450524E-1,-1.954612E-1,2.6620242E-1,-4.9377927E-1,2.699965E-1,3.0341893E-1,-5.5746984E-2],"split_indices":[10,4,10,0,7,4,11,3,11,11,4,7,7,4,8,1,1,3,10,3,8,0,7,4,0,11,4,10,3,0,3,0,11,11,7,12,10,7,11,0,2,0,11,7,7,11,4,7,7,2,12,12,0,2,11,7,9,13,3,8,3,4,0,0,0,0,0,0,0,0,0,0,0,0,0,0,0,0,0,0,0,0,0,0,0,0,0,0,0,0,0,0,0,0,0,0,0,0,0,0,0,0,0,0,0,0,0,0,0,0,0,0,0,0,0,0,0,0,0,0,0,0,0,0,0,0,0],"split_type":[0,0,0,0,0,0,0,0,0,0,0,0,0,0,0,0,0,0,0,0,0,0,0,0,0,0,0,0,0,0,0,0,0,0,0,0,0,0,0,0,0,0,0,0,0,0,0,0,0,0,0,0,0,0,0,0,0,0,0,0,0,0,0,0,0,0,0,0,0,0,0,0,0,0,0,0,0,0,0,0,0,0,0,0,0,0,0,0,0,0,0,0,0,0,0,0,0,0,0,0,0,0,0,0,0,0,0,0,0,0,0,0,0,0,0,0,0,0,0,0,0,0,0,0,0,0,0],"sum_hessian":[2.4964233E3,1.4364629E3,1.0599606E3,6.8509827E2,7.513646E2,5.882372E2,4.717234E2,7.6719444E1,6.0837885E2,2.716993E2,4.796653E2,3.0497223E2,2.8326492E2,9.476885E1,3.7695456E2,4.8660984E1,2.805846E1,5.127859E2,9.559292E1,1.0443769E2,1.6726161E2,3.1643243E2,1.6323288E2,2.0309225E2,1.0187997E2,2.3253058E2,5.0734356E1,9.883452E0,8.48854E1,3.5764636E2,1.9308172E1,3.6859253E1,1.1801731E1,8.616115E0,1.9442347E1,5.034034E2,9.382477E0,8.250165E1,1.3091272E1,7.548207E1,2.8955622E1,1.191305E2,4.813111E1,2.2239801E1,2.9419263E2,1.1247076E2,5.0762123E1,4.2229416E1,1.6086284E2,8.086188E0,9.379378E1,5.614428E1,1.7638629E2,2.0951576E1,2.9782778E1,5.9073443E0,3.9761078E0,3.0809267E0,8.1804474E1,3.4735596E2,1.0290402E1,4.972579E0,1.4335593E1,1.3984812E1,2.2874441E1,5.7082562E0,6.0934744E0,5.1010895E0,3.5150247E0,1.5839856E1,3.6024907E0,4.9179626E2,1.1607163E1,7.6386437E0,1.7438332E0,2.1293583E1,6.1208065E1,8.073448E0,5.017825E0,2.3069035E1,5.2413036E1,1.4752835E1,1.4202786E1,1.150393E2,4.0911956E0,2.8761805E1,1.9369307E1,8.726403E0,1.3513398E1,1.3020842E2,1.639842E2,8.176402E1,3.0706736E1,2.8560123E1,2.2201998E1,7.419861E0,3.4809555E1,7.670696E1,8.415588E1,1.2753375E0,6.8108516E0,8.712446E1,6.669319E0,3.0119808E1,2.6024473E1,1.4378638E2,3.2599922E1,1.3672695E1,7.2788806E0,4.165461E0,2.5617317E1,2.7818825E0,3.125462E0,2.9102163E0,1.0658914E0,1.0687586E0,2.0121682E0,5.3891388E1,2.7913086E1,3.1846167E2,2.8894316E1,2.1473637E0,8.143039E0,2.5224917E0,2.4500873E0,1.3124174E1,1.2114186E0],"tree_param":{"num_deleted":"0","num_feature":"15","num_nodes":"127","size_leaf_vector":"1"}},{"base_weights":[4.02179E-3,-5.078468E-1,4.4694826E-1,-8.980322E-1,-1.9891053E-1,8.9288306E-1,1.9358145E-1,-3.384747E-1,-9.979293E-1,5.991216E-1,-3.4329295E-1,4.9757197E-1,9.7105575E-1,-6.202403E-3,7.281436E-1,-6.753083E-1,3.2001153E-1,-1.0638713E0,-8.026378E-1,7.474422E-1,-4.4153917E-1,-8.6950165E-1,-1.3213937E-1,-4.9701962E-1,7.60121E-1,1.1015486E0,8.196866E-1,-1.7874311E-1,7.102636E-1,5.244128E-1,9.540013E-1,-8.8122773E-1,1.9482405E-1,6.987055E-1,-7.268719E-1,-1.0737537E0,-2.0860314E-1,-1.4207205E-1,-9.1117036E-1,9.779018E-1,4.1186285E-1,1.4329836E-1,-6.6909546E-1,4.546458E-1,-9.263925E-1,-2.8806126E-1,4.458999E-1,-4.3221298E-1,3.1333345E-1,8.802339E-1,-8.366468E-2,1.106096E0,9.052723E-2,2.8530353E-1,9.0228754E-1,-5.3468716E-1,1.7431755E-1,1.0112653E0,4.453456E-1,1.6970581E-1,7.190693E-1,9.764513E-1,-7.980356E-2,-2.7711383E-1,8.339291E-2,2.1662027E-1,-1.9643481E-1,-1.4826068E-1,2.9916123E-1,-2.911175E-1,7.982884E-2,-3.2411954E-1,-9.649307E-2,1.5266362E-1,-2.5894597E-1,4.587934E-1,-1.3136251E-1,-2.8313747E-1,1.1224771E-1,3.6042336E-1,1.1978965E-1,1.4962794E-2,3.5581666E-1,-2.685809E-1,1.6760778E-2,2.9198927E-1,-2.2577713E-1,-2.8606972E-1,2.3510203E-1,-1.523193E-1,7.960646E-3,2.1572442E-1,-6.366144E-2,1.923893E-1,-3.2588258E-1,2.7860513E-1,-2.1361433E-1,-4.2911637E-1,1.4916408E-1,1.19814396E-1,3.329293E-1,-1.9823356E-1,2.6936796E-1,1.561788E-1,3.0033258E-1,-2.0057906E-1,9.6232355E-2,6.5712566E-3,2.4493016E-1,9.870054E-2,3.4830353E-1,5.8424067E-2,2.7002674E-1,2.6878962E-1,-2.0691643E-2,2.5912473E-1,-1.2645112E-4,3.1184855E-1,1.4115143E-1],"categories":[],"categories_nodes":[],"categories_segments":[],"categories_sizes":[],"default_left":[0,0,0,0,0,0,0,0,0,0,0,0,0,0,0,0,0,0,0,0,0,0,0,0,0,0,0,0,0,0,0,0,0,0,0,0,0,0,0,0,0,0,0,0,0,0,0,0,0,0,0,0,0,0,0,0,0,0,0,0,0,0,0,0,0,0,0,0,0,0,0,0,0,0,0,0,0,0,0,0,0,0,0,0,0,0,0,0,0,0,0,0,0,0,0,0,0,0,0,0,0,0,0,0,0,0,0,0,0,0,0,0,0,0,0,0,0,0,0],"id":5,"left_children":[1,3,5,7,9,11,13,15,17,19,21,23,25,27,29,31,33,35,37,39,41,43,45,47,49,51,53,55,57,59,61,63,65,67,69,71,73,75,77,79,81,-1,83,85,87,89,91,-1,93,95,97,99,-1,101,103,105,107,109,111,113,115,117,-1,-1,-1,-1,-1,-1,-1,-1,-1,-1,-1,-1,-1,-1,-1,-1,-1,-1,-1,-1,-1,-1,-1,-1,-1,-1,-1,-1,-1,-1,-1,-1,-1,-1,-1,-1,-1,-1,-1,-1,-1,-1,-1,-1,-1,-1,-1,-1,-1,-1,-1,-1,-1,-1,-1,-1,-1],"loss_changes":[4.9468854E2,1.21833984E2,1.3198997E2,2.464859E1,6.544421E1,1.2605133E1,7.980332E1,1.557053E1,4.023834E0,1.3775377E1,5.3228397E1,1.9173088E1,6.0610046E0,6.7488716E1,8.853928E0,8.435419E0,1.0064612E1,2.143341E0,7.017174E0,5.5223503E0,2.7240295E0,1.0764336E1,3.1113846E1,1.2409208E1,5.8850555E0,3.442688E-1,7.11985E0,5.538202E1,7.99889E0,7.410965E0,2.8668976E0,2.1024036E0,4.7931914E0,6.977849E0,1.9251568E0,1.0350952E0,2.5246077E0,8.210127E0,3.9352036E0,5.3001404E0,9.166719E0,0E0,1.6291323E0,4.693936E0,6.8798523E0,1.8766644E1,1.3353401E1,0E0,4.9352674E0,4.5403023E0,7.015201E0,3.6376953E-2,0E0,1.4408678E1,4.9214478E0,2.5339481E1,2.1671938E1,4.6052284E0,6.450742E0,6.9897285E0,7.3010483E0,2.4990845E0,0E0,0E0,0E0,0E0,0E0,0E0,0E0,0E0,0E0,0E0,0E0,0E0,0E0,0E0,0E0,0E0,0E0,0E0,0E0,0E0,0E0,0E0,0E0,0E0,0E0,0E0,0E0,0E0,0E0,0E0,0E0,0E0,0E0,0E0,0E0,0E0,0E0,0E0,0E0,0E0,0E0,0E0,0E0,0E0,0E0,0E0,0E0,0E0,0E0,0E0,0E0,0E0,0E0,0E0,0E0,0E0,0E0],"parents":[2147483647,0,0,1,1,2,2,3,3,4,4,5,5,6,6,7,7,8,8,9,9,10,10,11,11,12,12,13,13,14,14,15,15,16,16,17,17,18,18,19,19,20,20,21,21,22,22,23,23,24,24,25,25,26,26,27,27,28,28,29,29,30,30,31,31,32,32,33,33,34,34,35,35,36,36,37,37,38,38,39,39,40,40,42,42,43,43,44,44,45,45,46,46,48,48,49,49,50,50,51,51,53,53,54,54,55,55,56,56,57,57,58,58,59,59,60,60,61,61],"right_children":[2,4,6,8,10,12,14,16,18,20,22,24,26,28,30,32,34,36,38,40,42,44,46,48,50,52,54,56,58,60,62,64,66,68,70,72,74,76,78,80,82,-1,84,86,88,90,92,-1,94,96,98,100,-1,102,104,106,108,110,112,114,116,118,-1,-1,-1,-1,-1,-1,-1,-1,-1,-1,-1,-1,-1,-1,-1,-1,-1,-1,-1,-1,-1,-1,-1,-1,-1,-1,-1,-1,-1,-1,-1,-1,-1,-1,-1,-1,-1,-1,-1,-1,-1,-1,-1,-1,-1,-1,-1,-1,-1,-1,-1,-1,-1,-1,-1,-1,-1],"split_conditions":[4.0268455E-2,4.2858633E2,1.3709064E-1,1.5665796E-1,7.407407E-1,4.0686667E2,3.1746034E-2,2.4985129E-1,3.8432336E2,3.2142857E-1,2.5305778E-2,2.0134228E-1,8.7804876E-2,8.316008E-2,1.0771993E-1,7.3800735E-2,9.1119745E2,5.263158E-1,5.424021E-1,6.6789246E2,4.4697633E-1,9.8684214E-2,3.2467533E-2,4.842615E-2,3.1746033E-1,1.475657E3,1.908397E-1,3E-1,8.476041E2,4.8474216E2,3.448276E-1,3.7664782E-2,7.940447E-1,3.3123215E2,9.6618354E-2,1.8834081E0,6.741573E-1,3.4412292E2,3.5377357E-2,1.0388834E3,4.2704627E-1,1.4329836E-1,4.7786926E2,1.8087612E0,5.8581704E-1,4.9554672E2,2.3575638E-1,-4.3221298E-1,4.9634552E2,5.672269E-1,1.209068E-1,4.137931E-2,9.052723E-2,4.8973135E2,3.2786883E-2,5.354732E2,1.3015184E-1,1.888277E-1,5.208771E2,6.3357973E-1,1.9964349E0,2.247734E0,-7.980356E-2,-2.7711383E-1,8.339291E-2,2.1662027E-1,-1.9643481E-1,-1.4826068E-1,2.9916123E-1,-2.911175E-1,7.982884E-2,-3.2411954E-1,-9.649307E-2,1.5266362E-1,-2.5894597E-1,4.587934E-1,-1.3136251E-1,-2.8313747E-1,1.1224771E-1,3.6042336E-1,1.1978965E-1,1.4962794E-2,3.5581666E-1,-2.685809E-1,1.6760778E-2,2.9198927E-1,-2.2577713E-1,-2.8606972E-1,2.3510203E-1,-1.523193E-1,7.960646E-3,2.1572442E-1,-6.366144E-2,1.923893E-1,-3.2588258E-1,2.7860513E-1,-2.1361433E-1,-4.2911637E-1,1.4916408E-1,1.19814396E-1,3.329293E-1,-1.9823356E-1,2.6936796E-1,1.561788E-1,3.0033258E-1,-2.0057906E-1,9.6232355E-2,6.5712566E-3,2.4493016E-1,9.870054E-2,3.4830353E-1,5.8424067E-2,2.7002674E-1,2.6878962E-1,-2.0691643E-2,2.5912473E-1,-1.2645112E-4,3.1184855E-1,1.4115143E-1],"split_indices":[10,4,0,0,7,1,12,3,1,0,11,3,0,11,10,11,8,3,7,5,6,0,12,11,14,5,3,3,8,4,0,10,7,1,11,6,6,5,12,8,3,0,4,7,2,4,0,0,5,13,13,10,0,4,11,4,10,3,4,6,7,7,0,0,0,0,0,0,0,0,0,0,0,0,0,0,0,0,0,0,0,0,0,0,0,0,0,0,0,0,0,0,0,0,0,0,0,0,0,0,0,0,0,0,0,0,0,0,0,0,0,0,0,0,0,0,0,0,0],"split_type":[0,0,0,0,0,0,0,0,0,0,0,0,0,0,0,0,0,0,0,0,0,0,0,0,0,0,0,0,0,0,0,0,0,0,0,0,0,0,0,0,0,0,0,0,0,0,0,0,0,0,0,0,0,0,0,0,0,0,0,0,0,0,0,0,0,0,0,0,0,0,0,0,0,0,0,0,0,0,0,0,0,0,0,0,0,0,0,0,0,0,0,0,0,0,0,0,0,0,0,0,0,0,0,0,0,0,0,0,0,0,0,0,0,0,0,0,0,0,0],"sum_hessian":[2.1799336E3,1.01119653E3,1.168737E3,4.4599698E2,5.651995E2,4.225354E2,7.4620166E2,6.822636E1,3.777706E2,8.610875E1,4.790908E2,7.0977036E1,3.5155838E2,5.439119E2,2.0228978E2,4.5120464E1,2.310589E1,2.7908676E2,9.868387E1,7.561365E1,1.0495102E1,1.3630122E2,3.4278955E2,1.463677E1,5.6340267E1,1.8542729E2,1.6613109E2,4.3895294E2,1.04958954E2,1.081011E2,9.418868E1,3.6475643E1,8.644823E0,1.721222E1,5.8936706E0,2.7564627E2,3.4404685E0,1.4251774E1,8.443209E1,4.36932E1,3.1920444E1,1.8644948E0,8.630608E0,5.326816E0,1.3097441E2,2.7036282E2,7.242674E1,6.40269E0,8.23408E0,4.9281803E1,7.058464E0,1.8399814E2,1.4291453E0,2.2837685E1,1.432934E2,2.1832774E2,2.2062521E2,4.7814507E1,5.7144447E1,3.8966805E1,6.913429E1,9.268282E1,1.5058559E0,3.5382034E1,1.0936071E0,5.427053E0,3.21777E0,3.31373E0,1.3898489E1,4.751202E0,1.1424686E0,2.7279965E2,2.8466284E0,1.7475033E0,1.6929654E0,1.5159769E0,1.2735797E1,8.260142E1,1.8306756E0,3.0741589E1,1.29516115E1,2.2475887E1,9.444558E0,6.3992558E0,2.2313516E0,3.8615859E0,1.4652302E0,1.2936124E2,1.6131855E0,1.588386E2,1.1152422E2,5.111576E1,2.1310982E1,7.10986E0,1.1242204E0,4.823099E1,1.0508107E0,1.6863438E0,5.37212E0,1.5175023E0,1.8248064E2,8.944757E0,1.3892928E1,3.0758432E1,1.12534966E2,1.8896632E2,2.9361412E1,1.7913876E2,4.1486443E1,9.18114E0,3.8633366E1,3.77626E1,1.9381847E1,8.957295E0,3.000951E1,5.739287E1,1.1741424E1,8.1475914E1,1.1206913E1],"tree_param":{"num_deleted":"0","num_feature":"15","num_nodes":"119","size_leaf_vector":"1"}},{"base_weights":[4.6868804E-3,-3.033981E-1,5.5587167E-1,-7.3493534E-1,-5.1510025E-2,9.4486964E-1,3.5027754E-1,-2.056322E-1,-8.7696344E-1,2.1239012E-1,-4.0060213E-1,4.777918E-1,9.856235E-1,1.3166252E-1,7.2967494E-1,-5.477051E-1,3.007785E-1,-9.697293E-1,-5.96014E-1,-9.178912E-2,4.3078345E-1,-6.598552E-1,1.9679828E-1,9.4504553E-1,-4.798869E-3,-8.0490716E-2,9.969406E-1,-1.6545841E-1,4.4564357E-1,3.8420516E-1,9.133938E-1,-8.4344083E-1,8.619775E-2,-1.37866E-1,8.183163E-1,-1.0014715E0,-4.0913406E-1,3.8144547E-1,-7.6673764E-1,-1.9595017E-1,9.329026E-1,6.028559E-1,6.824098E-2,-7.83478E-1,-6.276087E-2,-2.3187655E-1,4.893575E-1,3.0139026E-1,6.8568945E-2,-8.0783165E-1,5.5589813E-1,1.7154996E-1,-1.9092283E-1,1.0226084E0,5.8481354E-1,-4.2729685E-1,2.713559E-1,-1.9524013E-1,5.494096E-1,6.0733265E-1,-3.7875074E-1,1.9865939E-1,9.4702953E-1,-1.1825282E-1,-2.937697E-1,-1.8766783E-1,1.8286332E-1,-1.5005907E-1,1.9799827E-1,3.043438E-1,-1.7918801E-1,-3.0847478E-1,-1.3240848E-1,5.407796E-1,-2.563014E-1,2.318349E-1,-2.7045155E-1,-2.9653868E-1,-1.0384743E-1,9.5137335E-2,-1.11557014E-1,1.00252084E-1,3.7325957E-1,1.12000845E-1,2.6136598E-1,-4.518943E-2,2.0588152E-1,-1.829187E-3,-2.5350964E-1,-8.069678E-2,2.7111304E-1,-1.5166533E-1,1.8156709E-1,2.4712358E-1,4.2420737E-3,1.274805E-1,-4.1713244E-1,-3.757164E-2,2.6790664E-1,3.0919522E-1,-2.6430415E-2,-1.2547949E-1,2.8451002E-1,-1.8889917E-1,4.020583E-2,1.218795E-1,-2.630685E-1,9.8315455E-2,-2.272573E-1,2.0725106E-1,-3.010069E-2,2.506094E-1,-3.8298383E-2,1.0902115E-1,-3.1600282E-1,-3.081463E-1,2.1763092E-1,3.0211025E-1,1.9334146E-1],"categories":[],"categories_nodes":[],"categories_segments":[],"categories_sizes":[],"default_left":[0,0,0,0,0,0,0,0,0,0,0,0,0,0,0,0,0,0,0,0,0,0,0,0,0,0,0,0,0,0,0,0,0,0,0,0,0,0,0,0,0,0,0,0,0,0,0,0,0,0,0,0,0,0,0,0,0,0,0,0,0,0,0,0,0,0,0,0,0,0,0,0,0,0,0,0,0,0,0,0,0,0,0,0,0,0,0,0,0,0,0,0,0,0,0,0,0,0,0,0,0,0,0,0,0,0,0,0,0,0,0,0,0,0,0,0,0,0,0],"id":6,"left_children":[1,3,5,7,9,11,13,15,17,19,21,23,25,27,29,31,33,35,37,39,41,43,45,47,49,51,53,55,57,59,61,63,65,67,69,71,73,75,77,79,81,83,85,87,89,91,93,-1,-1,95,97,-1,-1,99,101,103,105,107,109,111,113,115,117,-1,-1,-1,-1,-1,-1,-1,-1,-1,-1,-1,-1,-1,-1,-1,-1,-1,-1,-1,-1,-1,-1,-1,-1,-1,-1,-1,-1,-1,-1,-1,-1,-1,-1,-1,-1,-1,-1,-1,-1,-1,-1,-1,-1,-1,-1,-1,-1,-1,-1,-1,-1,-1,-1,-1,-1],"loss_changes":[3.2703644E2,1.3424652E2,5.489273E1,3.4043045E1,7.204733E1,4.062683E0,3.7504566E1,1.7075146E1,8.768738E0,2.963442E1,5.22669E1,4.752076E0,2.7118835E0,2.701886E1,1.015361E1,1.10615635E1,9.193699E0,4.359375E0,1.5580761E1,2.0142666E1,1.6146923E1,1.7296196E1,1.2986734E1,2.2729397E-1,5.560414E0,1.5302886E0,1.6858368E0,1.7172546E1,9.464214E0,1.0305443E1,2.391922E0,2.058094E0,7.665302E0,6.836559E0,5.741702E0,3.340149E0,1.7346848E1,7.8712215E0,6.961853E0,1.5513171E1,2.8326845E0,1.0505817E1,1.1553766E1,9.306282E0,8.493413E0,1.0000269E1,9.734293E0,0E0,0E0,4.235832E0,1.7828438E0,0E0,0E0,1.8943634E0,5.864539E0,1.0719706E1,9.108887E0,6.23056E0,1.1221046E1,7.8459682E0,7.3959355E0,4.67701E0,1.2070084E0,0E0,0E0,0E0,0E0,0E0,0E0,0E0,0E0,0E0,0E0,0E0,0E0,0E0,0E0,0E0,0E0,0E0,0E0,0E0,0E0,0E0,0E0,0E0,0E0,0E0,0E0,0E0,0E0,0E0,0E0,0E0,0E0,0E0,0E0,0E0,0E0,0E0,0E0,0E0,0E0,0E0,0E0,0E0,0E0,0E0,0E0,0E0,0E0,0E0,0E0,0E0,0E0,0E0,0E0,0E0,0E0],"parents":[2147483647,0,0,1,1,2,2,3,3,4,4,5,5,6,6,7,7,8,8,9,9,10,10,11,11,12,12,13,13,14,14,15,15,16,16,17,17,18,18,19,19,20,20,21,21,22,22,23,23,24,24,25,25,26,26,27,27,28,28,29,29,30,30,31,31,32,32,33,33,34,34,35,35,36,36,37,37,38,38,39,39,40,40,41,41,42,42,43,43,44,44,45,45,46,46,49,49,50,50,53,53,54,54,55,55,56,56,57,57,58,58,59,59,60,60,61,61,62,62],"right_children":[2,4,6,8,10,12,14,16,18,20,22,24,26,28,30,32,34,36,38,40,42,44,46,48,50,52,54,56,58,60,62,64,66,68,70,72,74,76,78,80,82,84,86,88,90,92,94,-1,-1,96,98,-1,-1,100,102,104,106,108,110,112,114,116,118,-1,-1,-1,-1,-1,-1,-1,-1,-1,-1,-1,-1,-1,-1,-1,-1,-1,-1,-1,-1,-1,-1,-1,-1,-1,-1,-1,-1,-1,-1,-1,-1,-1,-1,-1,-1,-1,-1,-1,-1,-1,-1,-1,-1,-1,-1,-1,-1,-1,-1,-1,-1,-1,-1,-1,-1],"split_conditions":[7.185629E-2,4.3037485E2,1.2958963E-1,1.6769145E-1,1.398773E0,1.5493867E-1,6.557377E-2,4.7885075E-2,2.8169015E-1,3.6474165E-2,5.365305E2,7.590133E-2,3.3824332E2,3.3379695E-1,4.7867816E2,2.5878003E-1,3.8284024E2,3.4502587E-1,4.5801526E-1,5.3866284E2,1.0946774E3,3.943662E-1,2.7631578E-1,1.5008527E0,1.1627907E-1,1.6249153E-1,1.7120814E3,1.1523688E-1,4.2952884E2,2.635432E-1,2.95858E-2,4.8964217E-1,3.5231708E2,2.9250458E-1,9.43125E2,2.5817556E-2,5.230128E2,3.5320088E-1,4.1374234E2,7.3619634E-1,2.948403E-2,3.621002E-2,4.7826087E-1,1.0313708E-1,3.267974E-2,5.02424E-1,2.1393309E0,3.0139026E-1,6.8568945E-2,6.6707844E-1,2.8616852E-1,1.7154996E-1,-1.9092283E-1,7.2170585E-1,9.414226E-2,2.6642984E-2,1.5025E3,9.007258E2,2.6490065E-1,1.2590502E3,8.5539716E-1,1.983471E-1,1.4527212E3,-1.1825282E-1,-2.937697E-1,-1.8766783E-1,1.8286332E-1,-1.5005907E-1,1.9799827E-1,3.043438E-1,-1.7918801E-1,-3.0847478E-1,-1.3240848E-1,5.407796E-1,-2.563014E-1,2.318349E-1,-2.7045155E-1,-2.9653868E-1,-1.0384743E-1,9.5137335E-2,-1.11557014E-1,1.00252084E-1,3.7325957E-1,1.12000845E-1,2.6136598E-1,-4.518943E-2,2.0588152E-1,-1.829187E-3,-2.5350964E-1,-8.069678E-2,2.7111304E-1,-1.5166533E-1,1.8156709E-1,2.4712358E-1,4.2420737E-3,1.274805E-1,-4.1713244E-1,-3.757164E-2,2.6790664E-1,3.0919522E-1,-2.6430415E-2,-1.2547949E-1,2.8451002E-1,-1.8889917E-1,4.020583E-2,1.218795E-1,-2.630685E-1,9.8315455E-2,-2.272573E-1,2.0725106E-1,-3.010069E-2,2.506094E-1,-3.8298383E-2,1.0902115E-1,-3.1600282E-1,-3.081463E-1,2.1763092E-1,3.0211025E-1,1.9334146E-1],"split_indices":[10,4,0,0,7,3,11,11,3,11,4,0,1,3,4,3,1,2,7,4,8,3,3,6,10,14,8,10,4,0,13,7,1,3,8,12,5,0,4,7,10,10,3,0,12,2,7,0,0,6,2,0,0,14,10,12,8,8,0,8,6,3,8,0,0,0,0,0,0,0,0,0,0,0,0,0,0,0,0,0,0,0,0,0,0,0,0,0,0,0,0,0,0,0,0,0,0,0,0,0,0,0,0,0,0,0,0,0,0,0,0,0,0,0,0,0,0,0,0],"split_type":[0,0,0,0,0,0,0,0,0,0,0,0,0,0,0,0,0,0,0,0,0,0,0,0,0,0,0,0,0,0,0,0,0,0,0,0,0,0,0,0,0,0,0,0,0,0,0,0,0,0,0,0,0,0,0,0,0,0,0,0,0,0,0,0,0,0,0,0,0,0,0,0,0,0,0,0,0,0,0,0,0,0,0,0,0,0,0,0,0,0,0,0,0,0,0,0,0,0,0,0,0,0,0,0,0,0,0,0,0,0,0,0,0,0,0,0,0,0,0],"sum_hessian":[1.9238832E3,1.2343771E3,6.895061E2,4.5424396E2,7.801332E2,2.371695E2,4.523366E2,9.6618576E1,3.576254E2,4.4449994E2,3.356332E2,2.0054113E1,2.1711539E2,2.8783078E2,1.6450581E2,5.761736E1,3.9001217E1,2.6701038E2,9.061501E1,1.8600752E2,2.5849243E2,2.3398605E2,1.0164715E2,9.702086E0,1.0352026E1,2.2163346E0,2.1489905E2,1.4812901E2,1.3970177E2,5.8184826E1,1.06321E2,3.9062786E1,1.8554573E1,2.1506647E1,1.749457E1,2.519575E2,1.5052877E1,1.3290041E1,7.732497E1,1.6957846E2,1.6429066E1,1.7484393E2,8.36485E1,1.9359239E2,4.039366E1,4.1315983E1,6.033117E1,8.58584E0,1.116246E0,4.075012E0,6.2770143E0,1.0065755E0,1.2097592E0,2.0090512E2,1.3993928E1,9.26274E1,5.5501606E1,1.9344437E1,1.2035733E2,4.5176785E1,1.3008039E1,5.0890346E0,1.01231964E2,9.972304E0,2.909048E1,7.779315E0,1.0775259E1,1.5046626E1,6.4600205E0,1.5614245E1,1.880325E0,2.3966386E2,1.2293646E1,2.0114162E0,1.3041462E1,1.0488419E1,2.801623E0,4.974812E1,2.7576853E1,4.309079E1,1.2648766E2,6.329247E0,1.0099819E1,9.553136E1,7.931258E1,6.233068E1,2.1317818E1,1.4284842E1,1.7930754E2,3.3884884E1,6.508775E0,3.1434963E1,9.881018E0,3.498235E1,2.534882E1,1.394651E0,2.680361E0,2.2862675E0,3.9907465E0,1.9953244E2,1.3726783E0,3.6826491E0,1.0311279E1,6.799274E1,2.4634665E1,5.024452E1,5.2570887E0,1.0238852E1,9.105585E0,9.879074E1,2.156659E1,3.437529E1,1.0801497E1,6.413502E0,6.594537E0,1.2441063E0,3.8449283E0,8.253488E1,1.8697079E1],"tree_param":{"num_deleted":"0","num_feature":"15","num_nodes":"119","size_leaf_vector":"1"}},{"base_weights":[4.4879885E-3,-2.2388798E-1,5.2742004E-1,-6.0810345E-1,1.4697703E-2,9.806466E-1,3.5918352E-1,-8.11381E-1,-1.8570845E-1,2.989525E-1,-3.0942157E-1,1.8349503E-1,9.909893E-1,2.0000616E-1,7.8886133E-1,-8.4526134E-1,2.7217352E-1,8.110705E-1,-3.2977086E-1,1.0547233E-1,6.144735E-1,-5.6551826E-1,1.1594318E-3,-9.167017E-2,1.735913E-1,3.6964536E-1,1.0052148E0,-3.2801655E-1,3.440783E-1,5.718374E-2,8.6491925E-1,-4.057634E-1,-8.993333E-1,9.357454E-1,-6.173828E-1,-2.1214178E-1,9.35782E-1,-4.74305E-1,5.040338E-1,-8.467695E-2,6.4693713E-1,4.5204505E-1,9.3255854E-1,-3.3704404E-2,-7.1003497E-1,6.1015534E-1,-1.977619E-1,-3.9871275E-2,2.1361224E-1,5.4614556E-1,3.0457726E-1,-6.3386494E-1,5.3939164E-1,4.9173117E-1,-5.6492902E-2,-7.2412103E-1,8.877879E-1,9.208977E-1,-7.210988E-2,-1.8325795E-1,2.616164E-1,-2.992315E-1,-2.158948E-1,4.9805664E-4,3.7795702E-1,-3.029384E-1,-1.07500395E-2,-1.6418334E-2,3.0484644E-1,-2.113726E-1,-4.278299E-2,2.4869713E-1,-9.7383335E-2,3.5228297E-2,-2.1095884E-1,-2.3325597E-1,2.2635962E-1,1.6720712E-1,-1.2445534E-1,2.9519647E-1,8.931745E-2,-1.6754341E-1,1.4542812E-1,-1.5891829E-1,-2.657241E-1,-4.4086404E-2,2.5479633E-1,-1.3659547E-1,4.4965576E-2,2.5652975E-1,-9.85975E-2,8.1868194E-2,-2.9480204E-1,2.5119987E-1,-1.2765853E-1,5.3343832E-2,2.4368246E-1,-2.3373988E-1,1.034147E-1,-3.319628E-1,1.0258319E-1,3.0285403E-1,6.817156E-2,2.8770941E-1,-1.2839468E-1,-5.738953E-1,2.1557207E-1],"categories":[],"categories_nodes":[],"categories_segments":[],"categories_sizes":[],"default_left":[0,0,0,0,0,0,0,0,0,0,0,0,0,0,0,0,0,0,0,0,0,0,0,0,0,0,0,0,0,0,0,0,0,0,0,0,0,0,0,0,0,0,0,0,0,0,0,0,0,0,0,0,0,0,0,0,0,0,0,0,0,0,0,0,0,0,0,0,0,0,0,0,0,0,0,0,0,0,0,0,0,0,0,0,0,0,0,0,0,0,0,0,0,0,0,0,0,0,0,0,0,0,0,0,0,0,0],"id":7,"left_children":[1,3,5,7,9,11,13,15,17,19,21,23,25,27,29,31,33,35,37,39,41,43,45,-1,-1,47,49,51,53,55,57,59,61,63,65,-1,67,69,71,73,75,77,79,81,83,85,87,-1,-1,89,-1,91,93,95,97,99,101,103,105,-1,-1,-1,-1,-1,-1,-1,-1,-1,-1,-1,-1,-1,-1,-1,-1,-1,-1,-1,-1,-1,-1,-1,-1,-1,-1,-1,-1,-1,-1,-1,-1,-1,-1,-1,-1,-1,-1,-1,-1,-1,-1,-1,-1,-1,-1,-1,-1],"loss_changes":[2.0471626E2,1.0938142E2,3.9378128E1,3.909703E1,6.799764E1,9.763336E-1,2.5940441E1,1.1547791E1,2.1779137E1,2.393739E1,2.7430618E1,7.616912E-1,8.5220337E-1,2.1396128E1,5.671795E0,6.745117E0,6.5417833E0,4.298149E0,1.6098417E1,2.527255E1,7.2893753E0,1.4502792E1,1.9121904E1,0E0,0E0,9E-1,6.6848755E-2,1.6388252E1,1.3056818E1,7.620033E0,4.947548E0,9.600233E0,3.9639435E0,1.8702292E0,1.0864309E0,0E0,1.5028019E0,8.505354E0,5.634753E0,2.2853079E1,1.03609295E1,9.427933E0,1.3234749E0,1.15449095E1,4.237953E0,7.162056E0,1.0722177E1,0E0,0E0,1.6457547E0,0E0,1.4557045E1,5.044587E0,1.6062263E1,1.7730152E1,2.861541E0,2.257371E-1,4.930954E0,1.0360066E1,0E0,0E0,0E0,0E0,0E0,0E0,0E0,0E0,0E0,0E0,0E0,0E0,0E0,0E0,0E0,0E0,0E0,0E0,0E0,0E0,0E0,0E0,0E0,0E0,0E0,0E0,0E0,0E0,0E0,0E0,0E0,0E0,0E0,0E0,0E0,0E0,0E0,0E0,0E0,0E0,0E0,0E0,0E0,0E0,0E0,0E0,0E0,0E0],"parents":[2147483647,0,0,1,1,2,2,3,3,4,4,5,5,6,6,7,7,8,8,9,9,10,10,11,11,12,12,13,13,14,14,15,15,16,16,17,17,18,18,19,19,20,20,21,21,22,22,25,25,26,26,27,27,28,28,29,29,30,30,31,31,32,32,33,33,34,34,36,36,37,37,38,38,39,39,40,40,41,41,42,42,43,43,44,44,45,45,46,46,49,49,51,51,52,52,53,53,54,54,55,55,56,56,57,57,58,58],"right_children":[2,4,6,8,10,12,14,16,18,20,22,24,26,28,30,32,34,36,38,40,42,44,46,-1,-1,48,50,52,54,56,58,60,62,64,66,-1,68,70,72,74,76,78,80,82,84,86,88,-1,-1,90,-1,92,94,96,98,100,102,104,106,-1,-1,-1,-1,-1,-1,-1,-1,-1,-1,-1,-1,-1,-1,-1,-1,-1,-1,-1,-1,-1,-1,-1,-1,-1,-1,-1,-1,-1,-1,-1,-1,-1,-1,-1,-1,-1,-1,-1,-1,-1,-1,-1,-1,-1,-1,-1,-1],"split_conditions":[8.1245765E-2,2.2604951E-1,1.1327879E-1,4.5592707E-2,2.2316684E-1,8.287293E-2,1.4955135E-1,3.8143676E-2,8.7804876E-2,6.472492E-2,4.666788E2,2.8846154E-1,6.150692E-2,2.6749888E-2,4.180485E2,1.2658228E-1,2.3001096E-1,5.319149E-2,5.2374725E2,4.3681747E-1,3.0627871E-2,6.127886E-1,9.6385545E-1,-9.167017E-2,1.735913E-1,1.1523688E-1,8.547009E-2,4.1095892E-1,1.7282609E0,1.8334606E-1,2.7598567E0,3.7841627E-1,2.6132405E-2,1.5493867E-1,3.965631E-2,-2.1214178E-1,3.6252975E2,3.3670034E-2,1.1175553E3,1.2237062E3,3.3824332E2,1.9505851E0,7.796409E2,4.1461008E2,2.910855E-1,3.105233E-1,2.4793388E-2,-3.9871275E-2,2.1361224E-1,3.5629455E-2,3.0457726E-1,1.0062894E0,3.362201E-1,4.8268356E2,5.151111E2,3.5778177E-1,4.409973E2,2.3081106E3,5.1791315E2,-1.8325795E-1,2.616164E-1,-2.992315E-1,-2.158948E-1,4.9805664E-4,3.7795702E-1,-3.029384E-1,-1.07500395E-2,-1.6418334E-2,3.0484644E-1,-2.113726E-1,-4.278299E-2,2.4869713E-1,-9.7383335E-2,3.5228297E-2,-2.1095884E-1,-2.3325597E-1,2.2635962E-1,1.6720712E-1,-1.2445534E-1,2.9519647E-1,8.931745E-2,-1.6754341E-1,1.4542812E-1,-1.5891829E-1,-2.657241E-1,-4.4086404E-2,2.5479633E-1,-1.3659547E-1,4.4965576E-2,2.5652975E-1,-9.85975E-2,8.1868194E-2,-2.9480204E-1,2.5119987E-1,-1.2765853E-1,5.3343832E-2,2.4368246E-1,-2.3373988E-1,1.034147E-1,-3.319628E-1,1.0258319E-1,3.0285403E-1,6.817156E-2,2.8770941E-1,-1.2839468E-1,-5.738953E-1,2.1557207E-1],"split_indices":[10,3,0,11,0,10,10,12,0,11,4,3,2,11,4,0,0,11,4,3,12,7,7,0,0,10,3,3,7,10,7,2,10,3,10,0,1,10,8,8,1,7,9,4,0,3,12,0,0,12,0,7,13,4,4,3,9,8,4,0,0,0,0,0,0,0,0,0,0,0,0,0,0,0,0,0,0,0,0,0,0,0,0,0,0,0,0,0,0,0,0,0,0,0,0,0,0,0,0,0,0,0,0,0,0,0,0],"split_type":[0,0,0,0,0,0,0,0,0,0,0,0,0,0,0,0,0,0,0,0,0,0,0,0,0,0,0,0,0,0,0,0,0,0,0,0,0,0,0,0,0,0,0,0,0,0,0,0,0,0,0,0,0,0,0,0,0,0,0,0,0,0,0,0,0,0,0,0,0,0,0,0,0,0,0,0,0,0,0,0,0,0,0,0,0,0,0,0,0,0,0,0,0,0,0,0,0,0,0,0,0,0,0,0,0,0,0],"sum_hessian":[1.712192E3,1.192133E3,5.2005896E2,4.5609482E2,7.360382E2,1.394781E2,3.8058087E2,3.0729044E2,1.4880438E2,3.921754E2,3.4386282E2,2.0265484E0,1.3745157E2,2.7877286E2,1.01808014E2,2.981867E2,9.10372E0,1.820596E1,1.3059842E2,2.4392986E2,1.4824556E2,1.880122E2,1.558506E2,1.0069511E0,1.0195973E0,3.6804419E0,1.3377112E2,5.9484844E1,2.1928801E2,9.751388E0,9.2056625E1,3.3598866E1,2.6458783E2,5.184429E0,3.919291E0,1.0274777E0,1.7178482E1,1.1167203E2,1.8926401E1,1.8115593E2,6.2773937E1,9.973668E1,4.8508877E1,4.0437523E1,1.4757469E2,3.7863747E1,1.17986855E2,1.7393528E0,1.941089E0,4.0493975E0,1.2972173E2,4.4177197E1,1.530765E1,1.6006102E2,5.9226994E1,5.0908747E0,4.660513E0,8.688339E1,5.1732364E0,2.9401693E1,4.197173E0,1.6820125E2,9.638659E1,1.5944281E0,3.5900009E0,1.900503E0,2.0187879E0,1.3132415E0,1.586524E1,6.524989E1,4.6422134E1,1.3594747E1,5.331654E0,1.3715115E2,4.400476E1,3.9712949E0,5.8802643E1,8.925134E1,1.0485335E1,4.4364765E1,4.1441107E0,2.0058138E1,2.0379385E1,7.481638E1,7.275831E1,9.1821165E0,2.8681631E1,6.7597305E1,5.0389553E1,3.0091755E0,1.0402222E0,1.2333303E1,3.1843891E1,1.17972145E1,3.510435E0,8.165169E1,7.8409325E1,2.0807476E1,3.8419518E1,3.718865E0,1.3720096E0,3.489227E0,1.171286E0,8.477575E1,2.1076405E0,1.1278838E0,4.0453525E0],"tree_param":{"num_deleted":"0","num_feature":"15","num_nodes":"107","size_leaf_vector":"1"}},{"base_weights":[4.7310484E-3,-5.610509E-1,1.568006E-1,3.7663347E-1,-6.4331216E-1,4.3510765E-2,7.448429E-1,-9.964374E-2,9.002855E-1,-6.752804E-1,7.9876375E-1,-4.499319E-2,6.5901023E-1,8.54427E-1,2.3270732E-1,-4.567085E-1,2.9918167E-1,1.032594E0,-1.343299E-2,-7.012195E-1,8.159339E-1,1.3998053E0,-1.3749813E-1,6.747075E-2,-4.7463024E-1,7.8572124E-1,2.41874E-1,4.7719523E-1,9.6239996E-1,-2.564092E-1,9.6200436E-1,4.6788096E-1,-7.343989E-1,3.2814154E-1,6.45029E-2,-1.9094136E-1,-7.8030854E-1,2.814828E-1,5.757338E-2,5.81919E-1,-2.377549E-2,-2.0543304E-1,1.6065076E-1,-1.3688059E-2,6.167365E-1,-6.960574E-1,3.452185E-1,-2.3837626E-1,8.392333E-1,8.758256E-1,-8.232683E-4,6.604407E-1,-8.7517254E-2,9.874917E-1,-2.2866975E-1,-1.0294341E0,5.721256E-1,1.5126343E-2,3.0794612E-1,-8.136546E-2,3.2561472E-1,-2.631749E-1,6.689468E-2,-1.7639284E-1,1.949786E-1,-2.9253423E-1,-1.8196544E-1,9.9653065E-2,-5.1634673E-2,4.125592E-2,2.4075082E-1,-2.713333E-1,-1.1490184E-1,-9.904937E-2,1.7616798E-1,-2.2968467E-1,2.284954E-1,1.9215585E-1,2.892458E-1,-4.0742747E-2,3.1108922E-1,-8.6101964E-2,1.9010931E-1,6.772408E-2,2.8637952E-1,-2.4842411E-1,1.1858043E-1,3.033821E-1,1.835112E-1,-1.9222097E-1,7.09647E-2,-4.834101E-1,1.8450037E-1,2.3729824E-1,-1.7327078E-1],"categories":[],"categories_nodes":[],"categories_segments":[],"categories_sizes":[],"default_left":[0,0,0,0,0,0,0,0,0,0,0,0,0,0,0,0,0,0,0,0,0,0,0,0,0,0,0,0,0,0,0,0,0,0,0,0,0,0,0,0,0,0,0,0,0,0,0,0,0,0,0,0,0,0,0,0,0,0,0,0,0,0,0,0,0,0,0,0,0,0,0,0,0,0,0,0,0,0,0,0,0,0,0,0,0,0,0,0,0,0,0,0,0,0,0],"id":8,"left_children":[1,3,5,7,9,11,13,15,17,19,21,23,25,27,29,31,-1,33,-1,35,37,39,41,43,45,47,49,51,53,55,57,59,61,-1,-1,63,65,-1,-1,-1,-1,-1,-1,67,69,71,73,75,77,79,81,83,85,87,89,91,93,-1,-1,-1,-1,-1,-1,-1,-1,-1,-1,-1,-1,-1,-1,-1,-1,-1,-1,-1,-1,-1,-1,-1,-1,-1,-1,-1,-1,-1,-1,-1,-1,-1,-1,-1,-1,-1,-1],"loss_changes":[1.3243864E2,2.539502E1,8.078941E1,6.8062634E0,1.4376808E1,5.5499554E1,1.0796074E1,6.331902E0,1.6626158E0,1.1951614E1,4.113442E0,4.309375E1,6.5795784E0,6.098625E0,1.3054562E1,3.4258666E0,0E0,3.3438587E-1,0E0,1.1542404E1,2.3921728E-1,3.613966E0,1.7054448E0,3.1533371E1,3.3826923E1,5.559185E0,4.81425E0,3.9706411E0,3.9374542E0,1.4859616E1,8.078747E-1,1.8386371E0,1.5114436E0,0E0,0E0,1.3802862E1,7.8875885E0,0E0,0E0,0E0,0E0,0E0,0E0,3.3872334E1,7.9962807E0,9.178101E0,6.73367E0,3.5541759E0,1.6949005E0,1.5528855E0,4.4716034E0,3.4499025E0,3.955114E0,4.7009277E-1,7.984274E-1,1.2363383E1,3.3247688E0,0E0,0E0,0E0,0E0,0E0,0E0,0E0,0E0,0E0,0E0,0E0,0E0,0E0,0E0,0E0,0E0,0E0,0E0,0E0,0E0,0E0,0E0,0E0,0E0,0E0,0E0,0E0,0E0,0E0,0E0,0E0,0E0,0E0,0E0,0E0,0E0,0E0,0E0],"parents":[2147483647,0,0,1,1,2,2,3,3,4,4,5,5,6,6,7,7,8,8,9,9,10,10,11,11,12,12,13,13,14,14,15,15,17,17,19,19,20,20,21,21,22,22,23,23,24,24,25,25,26,26,27,27,28,28,29,29,30,30,31,31,32,32,35,35,36,36,43,43,44,44,45,45,46,46,47,47,48,48,49,49,50,50,51,51,52,52,53,53,54,54,55,55,56,56],"right_children":[2,4,6,8,10,12,14,16,18,20,22,24,26,28,30,32,-1,34,-1,36,38,40,42,44,46,48,50,52,54,56,58,60,62,-1,-1,64,66,-1,-1,-1,-1,-1,-1,68,70,72,74,76,78,80,82,84,86,88,90,92,94,-1,-1,-1,-1,-1,-1,-1,-1,-1,-1,-1,-1,-1,-1,-1,-1,-1,-1,-1,-1,-1,-1,-1,-1,-1,-1,-1,-1,-1,-1,-1,-1,-1,-1,-1,-1,-1,-1],"split_conditions":[4.1902057E2,8.7804876E-2,1.24740124E-1,4.4510387E-2,4.318766E-1,9.55414E-2,1.4095176E3,4.0686667E2,4.2368278E-1,1.8334606E-1,5.43196E2,1.8807621E0,2.2316684E-1,3.3259425E-2,5.448071E2,1.8691589E-1,2.9918167E-1,4.1533194E2,-1.343299E-2,4.1666666E-1,4.409973E2,1.308615E-1,2.4590164E-1,5.3866284E2,5.7430225E2,3.5500684E2,8.746356E-2,2.0983274E0,3.116883E-1,4.32E-1,4.5993417E2,7.3937155E-2,3.170875E-1,3.2814154E-1,6.45029E-2,2.7631578E-1,3.8406152E2,2.814828E-1,5.757338E-2,5.81919E-1,-2.377549E-2,-2.0543304E-1,1.6065076E-1,8.588957E-1,3.1152649E-2,2.9411766E-1,3.0410543E-2,4.7826087E-1,2.8169015E-1,4.3126022E2,4.3458578E-1,4.7786926E2,4.994572E2,2.554945E0,3.3739457E-1,3.294893E-2,1.8292683E0,1.5126343E-2,3.0794612E-1,-8.136546E-2,3.2561472E-1,-2.631749E-1,6.689468E-2,-1.7639284E-1,1.949786E-1,-2.9253423E-1,-1.8196544E-1,9.9653065E-2,-5.1634673E-2,4.125592E-2,2.4075082E-1,-2.713333E-1,-1.1490184E-1,-9.904937E-2,1.7616798E-1,-2.2968467E-1,2.284954E-1,1.9215585E-1,2.892458E-1,-4.0742747E-2,3.1108922E-1,-8.6101964E-2,1.9010931E-1,6.772408E-2,2.8637952E-1,-2.4842411E-1,1.1858043E-1,3.033821E-1,1.835112E-1,-1.9222097E-1,7.09647E-2,-4.834101E-1,1.8450037E-1,2.3729824E-1,-1.7327078E-1],"split_indices":[4,0,10,11,2,11,8,1,13,10,8,7,0,11,4,7,0,4,0,7,9,14,3,4,4,1,13,7,0,3,1,3,3,0,0,3,4,0,0,0,0,0,0,7,10,3,10,3,3,4,3,4,1,7,0,12,7,0,0,0,0,0,0,0,0,0,0,0,0,0,0,0,0,0,0,0,0,0,0,0,0,0,0,0,0,0,0,0,0,0,0,0,0,0,0],"split_type":[0,0,0,0,0,0,0,0,0,0,0,0,0,0,0,0,0,0,0,0,0,0,0,0,0,0,0,0,0,0,0,0,0,0,0,0,0,0,0,0,0,0,0,0,0,0,0,0,0,0,0,0,0,0,0,0,0,0,0,0,0,0,0,0,0,0,0,0,0,0,0,0,0,0,0,0,0,0,0,0,0,0,0,0,0,0,0,0,0,0,0,0,0,0,0],"sum_hessian":[1.5372777E3,3.250869E2,1.2121907E3,2.5930477E1,2.9915646E2,1.0172797E3,1.9491098E2,1.4003546E1,1.192693E1,2.9318872E2,5.967738E0,8.902026E2,1.2707719E2,1.6000548E2,3.4905495E1,1.1004906E1,2.9986405E0,1.0380976E1,1.5459546E0,2.886967E2,4.49201E0,3.3329935E0,2.634745E0,7.0618976E2,1.840128E2,9.6791725E1,3.0285461E1,3.681216E1,1.2319332E2,2.1281248E1,1.3624246E1,2.38361E0,8.621296E0,9.343588E0,1.0373878E0,3.9199295E1,2.494974E2,3.3346474E0,1.157363E0,2.2134993E0,1.1194941E0,1.4434471E0,1.1912977E0,6.161267E2,9.0063034E1,1.4500139E2,3.9011406E1,4.63494E0,9.2156784E1,7.6622133E0,2.262325E1,2.7665403E1,9.146757E0,1.20819E2,2.374324E0,1.0883988E1,1.0397261E1,1.0177914E0,1.2606455E1,1.3402365E0,1.0433735E0,7.574765E0,1.0465304E0,2.6831148E1,1.2368148E1,1.15450096E2,1.3404732E2,1.9321661E2,4.2291013E2,2.5645706E1,6.441733E1,8.591905E1,5.908234E1,1.0195125E1,2.881628E1,3.1883621E0,1.4465779E0,3.7936817E1,5.4219967E1,1.0743817E0,6.5878315E0,1.596869E1,6.654559E0,1.187882E1,1.5786584E1,3.3274453E0,5.8193116E0,1.12037575E2,8.78142E0,1.0590193E0,1.3153046E0,8.053962E0,2.8300266E0,8.996572E0,1.400689E0],"tree_param":{"num_deleted":"0","num_feature":"15","num_nodes":"95","size_leaf_vector":"1"}},{"base_weights":[7.687698E-3,-3.37643E-1,2.0470695E-1,-6.833196E-1,-1.4595751E-1,8.887536E-2,6.901088E-1,-8.1930056E-2,-8.6213726E-1,-4.5643708E-1,2.2928618E-4,8.352899E-1,2.1829814E-2,8.8116974E-1,2.3731929E-1,-5.7392144E-1,3.033157E-1,-9.0263695E-1,4.813407E-1,4.505903E-1,-5.9685713E-1,-3.7370745E-2,1.2221377E0,3.4401742E-1,9.526726E-1,-6.005769E-2,5.4348326E-1,9.140623E-1,-1.2990384E-1,-7.5042605E-1,5.5678326E-1,2.8462198E-1,-7.3763776E-1,4.6866462E-1,-2.5333518E-1,-9.17318E-1,1.5473688E-1,-9.3859985E-2,3.4439814E-1,9.81035E-1,6.934237E-2,3.5124555E-1,-6.419104E-1,4.828745E-1,-1.2834078E-1,7.1603567E-3,1.4508711E0,-7.770924E-2,2.6768866E-1,2.2775592E-1,9.9748284E-1,1.0490693E-1,-3.1656915E-1,-1.1065573E0,5.996425E-1,6.264534E-1,1.0051637E0,4.2207882E-1,-2.3821096E-1,-1.1065735E0,4.019324E-1,7.937244E-1,-3.245528E-2,-1.486947E-1,2.945219E-1,2.9543696E-2,-2.4984147E-1,-1.5711196E-1,2.0463987E-1,-6.2378E-3,-2.8065643E-1,4.181033E-2,3.4281427E-1,-9.338512E-2,2.676085E-1,-2.0335965E-1,1.9623809E-1,2.5524008E-1,1.7791767E-2,-9.009163E-2,5.0616067E-2,1.2095112E-1,4.7750533E-1,-1.2554379E-1,2.4180125E-1,-1.0131623E-1,2.2035754E-1,3.05085E-1,2.5302945E-2,1.1361224E-1,-4.522481E-2,-1.3504112E-1,8.072172E-2,-1.14349715E-1,-3.9405409E-1,1.2787864E-1,2.6216733E-1,7.213441E-2,3.0388856E-1,8.818816E-2,3.089636E-1,-4.651131E-2,2.2812013E-1,2.0769715E-1,-4.4789234E-1,3.1587017E-1,-1.7536935E-1,2.649806E-1,-1.7456833E-2,-2.6894546E-1,1.627623E-1],"categories":[],"categories_nodes":[],"categories_segments":[],"categories_sizes":[],"default_left":[0,0,0,0,0,0,0,0,0,0,0,0,0,0,0,0,0,0,0,0,0,0,0,0,0,0,0,0,0,0,0,0,0,0,0,0,0,0,0,0,0,0,0,0,0,0,0,0,0,0,0,0,0,0,0,0,0,0,0,0,0,0,0,0,0,0,0,0,0,0,0,0,0,0,0,0,0,0,0,0,0,0,0,0,0,0,0,0,0,0,0,0,0,0,0,0,0,0,0,0,0,0,0,0,0,0,0,0,0,0,0],"id":9,"left_children":[1,3,5,7,9,11,13,15,17,19,21,23,25,27,29,31,33,35,37,39,41,43,45,47,49,51,53,55,57,59,61,63,65,67,-1,69,-1,-1,-1,71,73,-1,75,77,79,-1,81,83,-1,85,87,89,91,93,95,97,99,101,-1,103,105,107,109,-1,-1,-1,-1,-1,-1,-1,-1,-1,-1,-1,-1,-1,-1,-1,-1,-1,-1,-1,-1,-1,-1,-1,-1,-1,-1,-1,-1,-1,-1,-1,-1,-1,-1,-1,-1,-1,-1,-1,-1,-1,-1,-1,-1,-1,-1,-1,-1],"loss_changes":[9.664606E1,3.4093143E1,5.0791206E1,1.969558E1,1.5124606E1,3.6581223E1,1.4852371E1,8.368117E0,8.137543E0,1.3855217E1,1.0500393E1,3.1467552E0,2.8742575E1,4.1783295E0,1.7152145E1,2.9271116E0,5.1214113E0,3.3422318E0,2.8979838E0,2.9391906E0,8.1422615E0,1.055581E1,1.8354073E0,3.1180177E0,1.3341827E0,2.4652647E1,9.122818E0,2.471161E0,2.0660365E0,5.93864E0,5.700556E0,2.5630994E0,1.3960314E0,5.1041427E0,0E0,2.2119064E0,0E0,0E0,0E0,6.7658806E-1,3.3238292E0,0E0,4.69051E0,5.1252594E0,9.732126E0,0E0,2.0104313E-1,2.8586066E0,0E0,1.4212934E0,7.136612E-1,2.4895592E1,1.79534E1,3.1814575E-3,3.8561783E0,4.3998384E0,1.2479858E0,7.48833E-1,0E0,8.326808E0,3.1161108E0,2.2658024E0,6.7550063E0,0E0,0E0,0E0,0E0,0E0,0E0,0E0,0E0,0E0,0E0,0E0,0E0,0E0,0E0,0E0,0E0,0E0,0E0,0E0,0E0,0E0,0E0,0E0,0E0,0E0,0E0,0E0,0E0,0E0,0E0,0E0,0E0,0E0,0E0,0E0,0E0,0E0,0E0,0E0,0E0,0E0,0E0,0E0,0E0,0E0,0E0,0E0,0E0],"parents":[2147483647,0,0,1,1,2,2,3,3,4,4,5,5,6,6,7,7,8,8,9,9,10,10,11,11,12,12,13,13,14,14,15,15,16,16,17,17,18,18,19,19,20,20,21,21,22,22,23,23,24,24,25,25,26,26,27,27,28,28,29,29,30,30,31,31,32,32,33,33,35,35,39,39,40,40,42,42,43,43,44,44,46,46,47,47,49,49,50,50,51,51,52,52,53,53,54,54,55,55,56,56,57,57,59,59,60,60,61,61,62,62],"right_children":[2,4,6,8,10,12,14,16,18,20,22,24,26,28,30,32,34,36,38,40,42,44,46,48,50,52,54,56,58,60,62,64,66,68,-1,70,-1,-1,-1,72,74,-1,76,78,80,-1,82,84,-1,86,88,90,92,94,96,98,100,102,-1,104,106,108,110,-1,-1,-1,-1,-1,-1,-1,-1,-1,-1,-1,-1,-1,-1,-1,-1,-1,-1,-1,-1,-1,-1,-1,-1,-1,-1,-1,-1,-1,-1,-1,-1,-1,-1,-1,-1,-1,-1,-1,-1,-1,-1,-1,-1,-1,-1,-1,-1],"split_conditions":[3.146303E-2,2.5305778E-2,3.527337E-2,1.6583748E-1,2.2604951E-1,7.071302E-2,4.731861E-2,1.8564357E-1,1.2470474E3,1.0759115E-1,5.9373283E-1,4.1042288E2,4.9469966E-1,3.4710744E-1,5.4869685E-2,3.40329E-2,1.8929254E0,5.674653E-1,6.77116E-1,1.3605443E-1,2.7662518E-2,6.0390764E-1,2.6158038E-1,7.797271E-2,4.0927693E-2,1.0003707E3,3.2697547E-2,3.7453182E-2,7.8860897E-1,2.5862068E-1,2.3115025E-1,6.535948E-2,1.0491803E2,3.5367334E2,-2.5333518E-1,1.5075377E-1,1.5473688E-1,-9.3859985E-2,3.4439814E-1,1.9379845E-1,4.860559E2,3.5124555E-1,5.445117E-1,7.4498236E2,2.3014959E-2,7.1603567E-3,5.6179777E-2,3.7151703E-1,2.6768866E-1,4.579539E2,1.3492626E3,1.2007062E0,5.3866284E2,3.2826608E2,4.5532608E2,3.8104456E2,3.5629455E-2,7.402838E-2,-2.3821096E-1,6.0301507E-1,4.9586075E2,2.554945E0,3.230148E-1,-1.486947E-1,2.945219E-1,2.9543696E-2,-2.4984147E-1,-1.5711196E-1,2.0463987E-1,-6.2378E-3,-2.8065643E-1,4.181033E-2,3.4281427E-1,-9.338512E-2,2.676085E-1,-2.0335965E-1,1.9623809E-1,2.5524008E-1,1.7791767E-2,-9.009163E-2,5.0616067E-2,1.2095112E-1,4.7750533E-1,-1.2554379E-1,2.4180125E-1,-1.0131623E-1,2.2035754E-1,3.05085E-1,2.5302945E-2,1.1361224E-1,-4.522481E-2,-1.3504112E-1,8.072172E-2,-1.14349715E-1,-3.9405409E-1,1.2787864E-1,2.6216733E-1,7.213441E-2,3.0388856E-1,8.818816E-2,3.089636E-1,-4.651131E-2,2.2812013E-1,2.0769715E-1,-4.4789234E-1,3.1587017E-1,-1.7536935E-1,2.649806E-1,-1.7456833E-2,-2.6894546E-1,1.627623E-1],"split_indices":[10,11,12,0,3,0,12,3,5,0,2,1,3,0,12,0,7,2,6,13,11,7,3,10,10,8,10,11,6,14,0,3,5,1,0,7,0,0,0,2,1,0,14,8,12,0,14,3,0,9,5,7,4,1,1,9,13,14,0,6,9,7,3,0,0,0,0,0,0,0,0,0,0,0,0,0,0,0,0,0,0,0,0,0,0,0,0,0,0,0,0,0,0,0,0,0,0,0,0,0,0,0,0,0,0,0,0,0,0,0,0],"split_type":[0,0,0,0,0,0,0,0,0,0,0,0,0,0,0,0,0,0,0,0,0,0,0,0,0,0,0,0,0,0,0,0,0,0,0,0,0,0,0,0,0,0,0,0,0,0,0,0,0,0,0,0,0,0,0,0,0,0,0,0,0,0,0,0,0,0,0,0,0,0,0,0,0,0,0,0,0,0,0,0,0,0,0,0,0,0,0,0,0,0,0,0,0,0,0,0,0,0,0,0,0,0,0,0,0,0,0,0,0,0,0],"sum_hessian":[1.418481E3,5.1503174E2,9.034493E2,1.82805E2,3.3222675E2,7.3034894E2,1.731003E2,4.223173E1,1.4057326E2,1.0567214E2,2.265546E2,5.925109E1,6.7109784E2,1.21067894E2,5.2032394E1,1.8331326E1,2.3900406E1,1.3677815E2,3.7950957E0,1.3870214E1,9.180193E1,2.2073175E2,5.8228455E0,1.2184985E1,4.706611E1,5.8080914E2,9.028871E1,1.173463E2,3.7216015E0,1.238632E1,3.9646076E1,2.8175147E0,1.551381E1,2.1408009E1,2.4923973E0,1.3572664E2,1.0515199E0,1.9740413E0,1.8210542E0,5.1423073E0,8.727907E0,1.6605952E0,9.0141335E1,3.2211353E1,1.885204E2,1.1103554E0,4.7124896E0,7.372468E0,4.812517E0,3.0940955E0,4.397201E1,3.5384167E2,2.2696747E2,2.356203E0,8.793251E1,3.0123192E1,8.722311E1,2.2314422E0,1.4901593E0,9.492351E0,2.8939703E0,2.8028418E1,1.1617659E1,1.465835E0,1.3516796E0,1.5817865E0,1.3932024E1,3.532553E0,1.7875456E1,2.7436323E0,1.32983E2,1.1286743E0,4.0136333E0,6.3921313E0,2.3357756E0,8.817221E1,1.9691277E0,1.6698143E1,1.551321E1,1.1939393E2,6.912648E1,1.0160291E0,3.6964607E0,5.7006755E0,1.6717926E0,1.620002E0,1.4740933E0,4.2942833E1,1.0291784E0,1.7062544E2,1.8321625E2,1.8500464E2,4.1962833E1,1.1538107E0,1.2023923E0,5.5438488E1,3.249402E1,1.5882984E1,1.4240208E1,3.3623157E0,8.386079E1,1.0248961E0,1.206546E0,1.5384307E0,7.9539194E0,1.7029302E0,1.1910399E0,2.5329266E1,2.6991518E0,4.418699E0,7.19896E0],"tree_param":{"num_deleted":"0","num_feature":"15","num_nodes":"111","size_leaf_vector":"1"}},{"base_weights":[9.107442E-3,1.5541928E-1,-3.6764133E-1,2.9713223E-2,5.089477E-1,-7.8543127E-1,-2.2105579E-1,-5.787464E-1,1.0185014E-1,3.1896394E-1,8.2137877E-1,-8.926563E-1,-2.0455152E-1,-5.5807155E-1,-8.597556E-2,3.0997938E-1,-7.0292395E-1,5.793126E-2,8.11686E-1,1.6142535E-1,7.6030004E-1,6.2228367E-3,8.743919E-1,-9.157626E-1,3.611233E-2,-3.8990143E-1,2.4739747E-1,-7.8560287E-1,9.914008E-2,-4.063572E-3,-6.899726E-1,-3.5493395E-1,8.3005446E-1,-7.9118526E-1,1.9451395E-1,-1.2793571E-1,2.0716904E-1,8.541715E-1,-4.5428295E-2,1.8527772E-2,7.171873E-1,-2.8196448E-2,8.5673684E-1,2.5360698E-1,-7.2001445E-1,9.463516E-1,4.4576237E-1,-1.0134677E0,-6.708789E-1,2.3747848E-1,-5.36963E-1,-9.093928E-1,4.6373478E-1,7.1451885E-1,-4.2318437E-1,-7.283863E-2,5.583586E-1,-8.640977E-1,1.0584943E-1,1.7620687E-1,-2.3867352E-1,3.0850884E-1,-8.967946E-3,-2.591637E-1,-1.2631504E-2,2.568104E-1,-1.5013458E-1,2.2777854E-2,-1.347726E-1,1.11156404E-1,-3.2686938E-2,9.156564E-2,2.7894837E-1,-6.795645E-2,1.1152435E-1,-2.5831709E-2,2.469371E-1,2.0965376E-1,-2.2514664E-1,2.755349E-1,8.431348E-2,1.9410428E-2,-3.8955465E-1,3.356633E-2,2.8739366E-1,-2.0178609E-1,2.3991409E-1,-3.091605E-1,-1.4137615E-1,5.5018157E-2,-2.3484255E-1,-2.3900305E-1,1.186049E-2,-6.717078E-2,-2.9696757E-1,-1.16224326E-1,2.556106E-1,3.1912863E-1,-2.3840943E-2,-2.4516283E-1,1.7974731E-1,1.5782389E-1,-4.1276593E-2,2.6113304E-1,3.155826E-3,-2.8313494E-1,6.175074E-2,2.1785387E-1,-1.8000412E-1],"categories":[],"categories_nodes":[],"categories_segments":[],"categories_sizes":[],"default_left":[0,0,0,0,0,0,0,0,0,0,0,0,0,0,0,0,0,0,0,0,0,0,0,0,0,0,0,0,0,0,0,0,0,0,0,0,0,0,0,0,0,0,0,0,0,0,0,0,0,0,0,0,0,0,0,0,0,0,0,0,0,0,0,0,0,0,0,0,0,0,0,0,0,0,0,0,0,0,0,0,0,0,0,0,0,0,0,0,0,0,0,0,0,0,0,0,0,0,0,0,0,0,0,0,0,0,0,0,0],"id":10,"left_children":[1,3,5,7,9,11,13,15,17,19,21,23,25,27,29,31,33,35,37,39,41,43,45,47,-1,49,-1,51,53,55,57,59,61,63,65,67,69,71,-1,73,75,77,79,-1,81,83,85,87,89,-1,91,93,95,97,99,101,103,105,107,-1,-1,-1,-1,-1,-1,-1,-1,-1,-1,-1,-1,-1,-1,-1,-1,-1,-1,-1,-1,-1,-1,-1,-1,-1,-1,-1,-1,-1,-1,-1,-1,-1,-1,-1,-1,-1,-1,-1,-1,-1,-1,-1,-1,-1,-1,-1,-1,-1,-1],"loss_changes":[7.3197365E1,4.2488365E1,2.257468E1,3.1073307E1,1.462529E1,5.802059E0,1.2533285E1,8.49959E0,1.9673069E1,1.0835026E1,4.065605E0,2.0018997E0,3.4252434E0,1.1875355E1,9.81646E0,3.7159643E0,5.3934784E0,1.658013E1,1.6343327E0,9.31139E0,3.1561909E0,4.7281137E0,2.306221E0,1.2133636E0,0E0,2.9385586E0,0E0,9.502541E0,7.10931E0,6.8397603E0,3.3750334E0,2.5611172E0,1.0285592E0,3.253872E0,3.5204437E0,1.7483269E1,1.7153091E1,1.185463E0,0E0,8.257356E0,2.1122322E0,3.3900375E0,1.0468826E0,0E0,1.9741454E0,6.189728E-1,6.31923E0,1.966858E-2,2.584278E0,0E0,2.046867E0,2.744957E0,2.298452E0,2.883697E0,5.3568926E0,6.1805105E0,3.2851038E0,1.8611403E0,2.688428E0,0E0,0E0,0E0,0E0,0E0,0E0,0E0,0E0,0E0,0E0,0E0,0E0,0E0,0E0,0E0,0E0,0E0,0E0,0E0,0E0,0E0,0E0,0E0,0E0,0E0,0E0,0E0,0E0,0E0,0E0,0E0,0E0,0E0,0E0,0E0,0E0,0E0,0E0,0E0,0E0,0E0,0E0,0E0,0E0,0E0,0E0,0E0,0E0,0E0,0E0],"parents":[2147483647,0,0,1,1,2,2,3,3,4,4,5,5,6,6,7,7,8,8,9,9,10,10,11,11,12,12,13,13,14,14,15,15,16,16,17,17,18,18,19,19,20,20,21,21,22,22,23,23,25,25,27,27,28,28,29,29,30,30,31,31,32,32,33,33,34,34,35,35,36,36,37,37,39,39,40,40,41,41,42,42,44,44,45,45,46,46,47,47,48,48,50,50,51,51,52,52,53,53,54,54,55,55,56,56,57,57,58,58],"right_children":[2,4,6,8,10,12,14,16,18,20,22,24,26,28,30,32,34,36,38,40,42,44,46,48,-1,50,-1,52,54,56,58,60,62,64,66,68,70,72,-1,74,76,78,80,-1,82,84,86,88,90,-1,92,94,96,98,100,102,104,106,108,-1,-1,-1,-1,-1,-1,-1,-1,-1,-1,-1,-1,-1,-1,-1,-1,-1,-1,-1,-1,-1,-1,-1,-1,-1,-1,-1,-1,-1,-1,-1,-1,-1,-1,-1,-1,-1,-1,-1,-1,-1,-1,-1,-1,-1,-1,-1,-1,-1,-1],"split_conditions":[2.5604552E-1,7.537688E-2,4.1374234E2,1.2875536E-1,8.534851E-2,3.6565098E-1,2.4350649E-2,6.604293E-2,1.6997167E-1,1.1070111E-1,4.1374234E2,1.0682493E-1,1.1881188E0,4.0816328E-1,2.0810943E0,3.9458917E2,3.1746034E-2,2.293578E-1,3.1108232E0,3.2258064E-2,3.614949E2,7.758621E-1,2.0937188E-1,3.924876E2,3.611233E-2,2.7096775E-1,2.4739747E-1,5.1965356E-1,9.876543E-1,1.0428737E-1,1.3492626E3,4.9140047E-2,2.6072785E-1,4.5577863E-1,6.961185E2,1.2405238E0,1.0737192E3,4.1622717E2,-4.5428295E-2,3.265306E-1,1.027984E-1,3.4299396E2,1.9237013E0,2.5360698E-1,9.007258E2,8.547009E-2,1.888277E-1,7.6524713E2,4.8029557E-1,2.3747848E-1,4.5454547E-2,3.436426E-2,4.8621118E2,2.1101993E-1,4.8690402E2,5.424021E-1,1.6348773E-1,3.5128806E-2,1.388889E-1,1.7620687E-1,-2.3867352E-1,3.0850884E-1,-8.967946E-3,-2.591637E-1,-1.2631504E-2,2.568104E-1,-1.5013458E-1,2.2777854E-2,-1.347726E-1,1.11156404E-1,-3.2686938E-2,9.156564E-2,2.7894837E-1,-6.795645E-2,1.1152435E-1,-2.5831709E-2,2.469371E-1,2.0965376E-1,-2.2514664E-1,2.755349E-1,8.431348E-2,1.9410428E-2,-3.8955465E-1,3.356633E-2,2.8739366E-1,-2.0178609E-1,2.3991409E-1,-3.091605E-1,-1.4137615E-1,5.5018157E-2,-2.3484255E-1,-2.3900305E-1,1.186049E-2,-6.717078E-2,-2.9696757E-1,-1.16224326E-1,2.556106E-1,3.1912863E-1,-2.3840943E-2,-2.4516283E-1,1.7974731E-1,1.5782389E-1,-4.1276593E-2,2.6113304E-1,3.155826E-3,-2.8313494E-1,6.175074E-2,2.1785387E-1,-1.8000412E-1],"split_indices":[0,11,4,3,10,3,11,0,10,11,4,11,6,3,7,1,12,2,7,12,1,6,0,4,0,7,0,2,7,10,5,13,14,2,8,7,8,4,0,3,2,9,7,0,8,3,3,5,7,0,10,13,4,13,1,7,14,12,14,0,0,0,0,0,0,0,0,0,0,0,0,0,0,0,0,0,0,0,0,0,0,0,0,0,0,0,0,0,0,0,0,0,0,0,0,0,0,0,0,0,0,0,0,0,0,0,0,0,0],"split_type":[0,0,0,0,0,0,0,0,0,0,0,0,0,0,0,0,0,0,0,0,0,0,0,0,0,0,0,0,0,0,0,0,0,0,0,0,0,0,0,0,0,0,0,0,0,0,0,0,0,0,0,0,0,0,0,0,0,0,0,0,0,0,0,0,0,0,0,0,0,0,0,0,0,0,0,0,0,0,0,0,0,0,0,0,0,0,0,0,0,0,0,0,0,0,0,0,0,0,0,0,0,0,0,0,0,0,0,0,0],"sum_hessian":[1.3258595E3,9.554099E2,3.7044965E2,7.0559985E2,2.4981003E2,9.508513E1,2.753645E2,7.404267E1,6.315572E2,1.5660329E2,9.320673E1,7.981524E1,1.526989E1,7.789372E1,1.974708E2,8.893875E0,6.5148796E1,5.95777E2,3.5780228E1,1.1641408E2,4.0189213E1,5.759725E0,8.744701E1,7.8129196E1,1.6860374E0,1.3465973E1,1.8039167E0,5.7716503E1,2.0177217E1,1.7477513E2,2.269567E1,4.0427604E0,4.851115E0,5.942305E1,5.725748E0,2.6539087E2,3.303861E2,3.4376884E1,1.4033432E0,9.342577E1,2.298831E1,4.456788E0,3.573242E1,2.5960672E0,3.1636581E0,7.384227E1,1.3604734E1,5.360359E1,2.4525612E1,1.0054463E0,1.2460526E1,5.2760826E1,4.9556775E0,9.094516E0,1.1082702E1,1.5650732E2,1.8267801E1,1.8550947E1,4.1447225E0,1.1820573E0,2.860703E0,3.782913E0,1.0682021E0,5.4026814E1,5.3962355E0,2.814711E0,2.9110372E0,1.628376E2,1.0255325E2,2.1771411E2,1.12672005E2,4.7737126E0,2.9603172E1,5.537064E1,3.8055134E1,2.7002294E0,2.028808E1,2.2372682E0,2.21952E0,3.1735113E1,3.9973097E0,1.7194467E0,1.4442115E0,1.160745E0,7.2681526E1,3.0541606E0,1.0550574E1,5.109466E1,2.508924E0,2.7672021E0,2.1758411E1,8.327184E0,4.133343E0,5.9421186E0,4.6818707E1,1.5532523E0,3.4024253E0,6.080279E0,3.0142365E0,8.144388E0,2.9383128E0,1.4574332E1,1.41933E2,1.1262872E1,7.0049295E0,1.7374828E1,1.1761184E0,2.1906993E0,1.9540232E0],"tree_param":{"num_deleted":"0","num_feature":"15","num_nodes":"109","size_leaf_vector":"1"}},{"base_weights":[7.4575557E-3,-1.457036E-1,2.7235729E-1,-4.77174E-2,-5.503416E-1,3.77676E-1,-1.891606E-1,1.0927688E-1,-3.035391E-1,-6.934437E-1,-1.5077361E-1,2.507378E-1,7.0547783E-1,-4.253535E-1,5.149401E-1,-3.4607914E-1,2.0047002E-1,-4.6496773E-1,2.283089E-1,-7.807517E-1,-2.172545E-2,1.9743873E-1,-6.188914E-1,5.7347167E-1,1.2083336E-1,8.328299E-1,3.0245236E-1,5.3621966E-1,-6.214202E-1,-3.356681E-1,6.933515E-1,-5.2894604E-1,5.285989E-1,3.797382E-1,-1.3316493E-1,3.2306293E-1,-5.283516E-1,4.9957982E-1,-2.2487253E-1,-9.686553E-1,-5.720692E-1,8.532295E-1,-5.243275E-1,5.419948E-1,-2.801775E-1,-7.7827495E-1,2.1106072E-1,-7.4825627E-1,6.525813E-1,4.058871E-2,6.9610673E-1,-4.806443E-2,8.7366694E-1,-3.151036E-1,5.3038055E-1,-1.12225175E-1,7.2029394E-1,-7.3485947E-1,6.513497E-1,9.3757796E-1,1.6956569E-1,1.0591667E-1,-1.9946691E-1,3.4617782E-1,-8.710767E-2,1.7019175E-1,-7.895896E-5,5.474848E-2,-9.8938026E-2,-2.6515716E-1,2.3492481E-1,-2.6188436E-1,-1.1323586E-1,1.3090263E-2,2.4038795E-1,-1.7132348E-1,1.7165971E-1,-2.9527372E-1,-3.329223E-2,-2.293982E-2,-2.301318E-1,-1.622022E-1,4.0277004E-1,1.547247E-1,-2.4054277E-1,-1.3497496E-1,2.531964E-1,1.6454238E-1,-2.1111889E-1,-2.494682E-2,-3.1752807E-1,-4.7697672E-1,1.380639E-1,2.4561317E-1,7.6213037E-3,-1.6954506E-2,1.6408357E-1,-9.471769E-2,2.733119E-1,-2.1205787E-1,2.0419286E-1,-2.1269545E-2,2.6854363E-1,-2.992095E-1,1.301664E-1,2.250888E-1,-3.6156546E-2,-3.0522278E-2,2.7427873E-1,-2.5836232E-1,8.131047E-2,2.6049614E-1,-7.8046997E-3,6.702492E-2,3.1310308E-1,-1.4624374E-1,2.559469E-1],"categories":[],"categories_nodes":[],"categories_segments":[],"categories_sizes":[],"default_left":[0,0,0,0,0,0,0,0,0,0,0,0,0,0,0,0,0,0,0,0,0,0,0,0,0,0,0,0,0,0,0,0,0,0,0,0,0,0,0,0,0,0,0,0,0,0,0,0,0,0,0,0,0,0,0,0,0,0,0,0,0,0,0,0,0,0,0,0,0,0,0,0,0,0,0,0,0,0,0,0,0,0,0,0,0,0,0,0,0,0,0,0,0,0,0,0,0,0,0,0,0,0,0,0,0,0,0,0,0,0,0,0,0,0,0,0,0],"id":11,"left_children":[1,3,5,7,9,11,13,15,17,19,21,23,25,27,29,31,33,35,37,39,41,43,45,47,49,51,53,55,57,-1,59,61,63,65,67,69,71,73,75,77,79,81,83,85,87,89,-1,91,93,95,97,99,101,103,105,-1,107,109,111,113,115,-1,-1,-1,-1,-1,-1,-1,-1,-1,-1,-1,-1,-1,-1,-1,-1,-1,-1,-1,-1,-1,-1,-1,-1,-1,-1,-1,-1,-1,-1,-1,-1,-1,-1,-1,-1,-1,-1,-1,-1,-1,-1,-1,-1,-1,-1,-1,-1,-1,-1,-1,-1,-1,-1,-1,-1],"loss_changes":[5.0508038E1,3.125047E1,2.2239319E1,2.558267E1,8.683243E0,1.5288277E1,1.442205E1,1.6470165E1,2.0899847E1,6.603241E0,6.9367003E0,1.1228018E1,5.044796E0,1.2493398E1,7.1610003E0,1.0878922E1,1.9769478E1,9.467529E0,7.1276565E0,3.3619957E0,6.6097293E0,4.221768E0,4.3571444E0,8.5467E0,8.8995495E0,2.8423996E0,3.8760269E0,2.1898723E0,8.280802E0,0E0,2.4462843E0,6.866296E0,6.4593267E0,1.530442E1,7.2583737E0,8.729858E0,8.648251E0,4.918418E0,6.413599E0,5.741806E-1,4.7513084E0,4.4728355E0,3.160982E0,4.785407E0,4.2550116E0,3.145646E0,0E0,5.632379E0,7.611347E0,8.428313E0,5.4228687E0,2.591911E0,1.5739021E0,4.3831763E0,2.8987231E0,0E0,1.6675701E0,6.5989914E0,7.504208E-1,8.025389E-1,3.8730597E0,0E0,0E0,0E0,0E0,0E0,0E0,0E0,0E0,0E0,0E0,0E0,0E0,0E0,0E0,0E0,0E0,0E0,0E0,0E0,0E0,0E0,0E0,0E0,0E0,0E0,0E0,0E0,0E0,0E0,0E0,0E0,0E0,0E0,0E0,0E0,0E0,0E0,0E0,0E0,0E0,0E0,0E0,0E0,0E0,0E0,0E0,0E0,0E0,0E0,0E0,0E0,0E0,0E0,0E0,0E0,0E0],"parents":[2147483647,0,0,1,1,2,2,3,3,4,4,5,5,6,6,7,7,8,8,9,9,10,10,11,11,12,12,13,13,14,14,15,15,16,16,17,17,18,18,19,19,20,20,21,21,22,22,23,23,24,24,25,25,26,26,27,27,28,28,30,30,31,31,32,32,33,33,34,34,35,35,36,36,37,37,38,38,39,39,40,40,41,41,42,42,43,43,44,44,45,45,47,47,48,48,49,49,50,50,51,51,52,52,53,53,54,54,56,56,57,57,58,58,59,59,60,60],"right_children":[2,4,6,8,10,12,14,16,18,20,22,24,26,28,30,32,34,36,38,40,42,44,46,48,50,52,54,56,58,-1,60,62,64,66,68,70,72,74,76,78,80,82,84,86,88,90,-1,92,94,96,98,100,102,104,106,-1,108,110,112,114,116,-1,-1,-1,-1,-1,-1,-1,-1,-1,-1,-1,-1,-1,-1,-1,-1,-1,-1,-1,-1,-1,-1,-1,-1,-1,-1,-1,-1,-1,-1,-1,-1,-1,-1,-1,-1,-1,-1,-1,-1,-1,-1,-1,-1,-1,-1,-1,-1,-1,-1,-1,-1,-1,-1,-1,-1],"split_conditions":[4.9476105E2,2.910855E-1,2.2727273E0,1.1509901E0,5.3739365E-2,9.488666E-2,4.810262E-1,3.890898E2,3.773585E-1,4.600639E-1,7.3465344E2,6.832084E2,1.4095176E3,1.1327879E-1,1.3513513E-1,3.885567E2,6.260212E2,3.436426E-2,1.2473923E3,4.2333118E2,3.2142857E-1,3.9842743E2,4.8799374E2,4.0292975E2,9.379885E-2,1.0869565E-1,3.1217483E-1,1.5493867E-1,5.0329536E-1,-3.356681E-1,2.8199565E0,1.8691589E-1,3.9935526E2,1.0458375E3,3.565618E2,1.6411379E-1,2.4350649E-2,3.9473683E-2,2.8901733E-2,1.02622576E-1,7.826087E-1,2.970297E-1,9.677419E-2,3.9742087E2,7.940447E-1,8.9171976E-1,2.1106072E-1,1.3215859E-1,1.1043779E3,5.685846E2,5.3859964E-2,1.3343216E-1,1.9097807E2,1.6123364E3,1.8518518E0,-1.12225175E-1,2.346041E0,6.086209E2,3.265306E-1,2.4350649E-2,8.7399855E-2,1.0591667E-1,-1.9946691E-1,3.4617782E-1,-8.710767E-2,1.7019175E-1,-7.895896E-5,5.474848E-2,-9.8938026E-2,-2.6515716E-1,2.3492481E-1,-2.6188436E-1,-1.1323586E-1,1.3090263E-2,2.4038795E-1,-1.7132348E-1,1.7165971E-1,-2.9527372E-1,-3.329223E-2,-2.293982E-2,-2.301318E-1,-1.622022E-1,4.0277004E-1,1.547247E-1,-2.4054277E-1,-1.3497496E-1,2.531964E-1,1.6454238E-1,-2.1111889E-1,-2.494682E-2,-3.1752807E-1,-4.7697672E-1,1.380639E-1,2.4561317E-1,7.6213037E-3,-1.6954506E-2,1.6408357E-1,-9.471769E-2,2.733119E-1,-2.1205787E-1,2.0419286E-1,-2.1269545E-2,2.6854363E-1,-2.992095E-1,1.301664E-1,2.250888E-1,-3.6156546E-2,-3.0522278E-2,2.7427873E-1,-2.5836232E-1,8.131047E-2,2.6049614E-1,-7.8046997E-3,6.702492E-2,3.1310308E-1,-1.4624374E-1,2.559469E-1],"split_indices":[4,0,7,7,10,10,2,4,3,3,5,8,8,0,3,1,5,13,8,4,0,1,4,1,11,3,3,3,3,0,7,7,5,8,9,2,11,11,12,11,7,0,2,4,7,7,0,13,5,4,13,10,9,8,7,0,7,4,2,11,10,0,0,0,0,0,0,0,0,0,0,0,0,0,0,0,0,0,0,0,0,0,0,0,0,0,0,0,0,0,0,0,0,0,0,0,0,0,0,0,0,0,0,0,0,0,0,0,0,0,0,0,0,0,0,0,0],"split_type":[0,0,0,0,0,0,0,0,0,0,0,0,0,0,0,0,0,0,0,0,0,0,0,0,0,0,0,0,0,0,0,0,0,0,0,0,0,0,0,0,0,0,0,0,0,0,0,0,0,0,0,0,0,0,0,0,0,0,0,0,0,0,0,0,0,0,0,0,0,0,0,0,0,0,0,0,0,0,0,0,0,0,0,0,0,0,0,0,0,0,0,0,0,0,0,0,0,0,0,0,0,0,0,0,0,0,0,0,0,0,0,0,0,0,0,0,0],"sum_hessian":[1.24291E3,7.8784155E2,4.5506848E2,6.3515247E2,1.5268912E2,3.706643E2,8.440418E1,3.939584E2,2.4119405E2,1.11883446E2,4.0805664E1,2.6846762E2,1.0219668E2,6.3499096E1,2.090509E1,6.526662E1,3.2869177E2,1.8512877E2,5.606527E1,9.887026E1,1.3013188E1,2.3731253E1,1.7074411E1,7.60686E1,1.9239902E2,7.684727E1,2.5349413E1,1.046086E1,5.3038235E1,1.539099E0,1.9365992E1,5.430787E1,1.0958752E1,2.1371864E2,1.1497314E2,1.3476986E1,1.716518E2,3.5007607E1,2.1057667E1,5.010898E1,4.876128E1,4.4933367E0,8.519852E0,1.3707653E1,1.0023601E1,1.5605109E1,1.4693019E0,3.8181527E0,7.225045E1,1.6978616E2,2.2612848E1,3.3968542E0,7.345042E1,6.7306657E0,1.8618748E1,1.5858928E0,8.874967E0,4.908594E1,3.952294E0,1.2668859E1,6.6971326E0,7.039375E0,4.7268494E1,5.982052E0,4.9767E0,1.4275989E2,7.0958755E1,4.415702E1,7.081612E1,3.4649377E0,1.0012049E1,5.0817852E1,1.2083394E2,1.4396462E1,2.0611143E1,1.4878683E1,6.178983E0,4.906946E1,1.0395186E0,1.4163308E1,3.4597973E1,1.1402793E0,3.3530574E0,1.6134661E0,6.9063854E0,3.0849977E0,1.0622655E1,3.2906733E0,6.732927E0,4.855174E0,1.0749935E1,2.0645795E0,1.7535733E0,5.6878777E1,1.5371677E1,1.4321104E2,2.6575119E1,3.8796773E0,1.8733171E1,1.799752E0,1.5971022E0,1.5818974E0,7.1868515E1,3.3487015E0,3.3819644E0,1.38026495E1,4.8160977E0,1.7851233E0,7.0898438E0,4.373617E1,5.3497696E0,2.7799306E0,1.1723635E0,2.040409E0,1.0628449E1,3.5611534E0,3.135979E0],"tree_param":{"num_deleted":"0","num_feature":"15","num_nodes":"117","size_leaf_vector":"1"}},{"base_weights":[5.7102875E-3,-2.9759777E-1,1.075084E-1,5.043005E-1,-3.7744766E-1,-1.0318145E-1,2.358791E-1,3.269912E-2,8.599237E-1,-5.0513047E-1,3.6487084E-2,3.5707903E-1,-2.0315024E-1,3.4314618E-1,-4.6639837E-2,-4.612036E-1,4.8522112E-1,9.086969E-1,8.199951E-2,-6.343213E-1,7.050509E-3,3.6833557E-1,-1.5442625E-1,-2.6377726E-1,5.870777E-1,-2.8455737E-1,2.7506256E-1,1.831031E-1,5.7208174E-1,-1.2640572E-1,1.0043746E0,1.378667E-1,-8.380771E-1,8.608188E-1,-4.7894698E-2,9.418092E-1,8.27528E-2,-6.7542815E-1,3.5361493E-1,6.593513E-1,-4.5660833E-1,4.8174182E-1,-2.3274459E-1,7.1766317E-1,-3.3899212E-1,-5.375224E-1,4.426741E-1,1.3153571E-1,8.459198E-1,-3.8037354E-1,1.2659168E-1,5.885072E-1,-4.9172947E-1,3.6002594E-1,-3.48316E-2,7.3848414E-1,3.5142222E-1,-3.1246272E-1,2.2350456E-1,5.3144973E-2,3.2823923E-1,-2.7732128E-1,-7.485723E-2,4.980724E-2,3.0810973E-1,-1.5146923E-1,1.8955956E-1,9.80619E-2,2.9652417E-1,-2.1322922E-1,4.209391E-2,2.0701636E-1,-8.932322E-2,3.9015964E-1,7.677483E-2,-2.4092568E-1,1.2439583E-1,-1.7309403E-1,1.8916292E-1,-3.422947E-2,3.8830638E-1,-2.4029736E-1,-6.659429E-3,-2.8861162E-1,1.927335E-1,-9.53348E-2,2.900093E-1,-1.0281047E-1,1.8950243E-1,-2.9939117E-2,2.8483182E-1,6.2043052E-2,-1.3716353E-1,1.8417616E-1,-5.1644064E-2,-2.0201339E-1,2.3478775E-1,-2.4783169E-1,1.0781484E-1,1.1771088E-1,-3.5924548E-1,-3.403904E-2,2.2863652E-1,2.4854995E-1,9.0168975E-2,2.1919057E-2,2.4398181E-1,2.0144252E-1,-1.18822336E-1,-1.3306066E-1,1.6814199E-1],"categories":[],"categories_nodes":[],"categories_segments":[],"categories_sizes":[],"default_left":[0,0,0,0,0,0,0,0,0,0,0,0,0,0,0,0,0,0,0,0,0,0,0,0,0,0,0,0,0,0,0,0,0,0,0,0,0,0,0,0,0,0,0,0,0,0,0,0,0,0,0,0,0,0,0,0,0,0,0,0,0,0,0,0,0,0,0,0,0,0,0,0,0,0,0,0,0,0,0,0,0,0,0,0,0,0,0,0,0,0,0,0,0,0,0,0,0,0,0,0,0,0,0,0,0,0,0,0,0,0,0],"id":12,"left_children":[1,3,5,7,9,11,13,15,17,19,21,23,25,27,29,31,33,35,-1,37,39,41,43,45,47,49,51,53,55,57,59,-1,61,63,65,67,-1,69,71,73,75,77,-1,79,81,83,85,87,89,91,93,95,97,99,101,103,105,107,109,-1,-1,-1,-1,-1,-1,-1,-1,-1,-1,-1,-1,-1,-1,-1,-1,-1,-1,-1,-1,-1,-1,-1,-1,-1,-1,-1,-1,-1,-1,-1,-1,-1,-1,-1,-1,-1,-1,-1,-1,-1,-1,-1,-1,-1,-1,-1,-1,-1,-1,-1,-1],"loss_changes":[3.6250145E1,1.9081476E1,2.3797684E1,4.5245123E0,1.4229549E1,1.5416747E1,1.6577635E1,3.0643475E0,1.9325066E-1,1.3606392E1,4.1318364E0,8.704142E0,1.0768996E1,1.4412746E1,1.2809022E1,2.6717684E0,1.4668825E0,2.9830933E-2,0E0,6.9058533E0,1.312333E1,3.4599638E0,6.9286566E0,3.5011473E0,5.0765305E0,9.312143E0,1.0012923E1,9.060898E0,5.7091675E0,9.281374E0,6.067753E-1,0E0,2.4896622E-2,3.179524E-1,1.5275033E0,4.144478E-2,0E0,4.6527176E0,1.7864281E0,4.329422E0,7.992034E0,3.8701882E0,0E0,3.781525E0,5.0987973E0,6.93612E0,2.4036336E0,4.278357E0,2.8233585E0,8.710461E0,6.6853604E0,7.6729803E0,3.792727E0,6.999077E0,6.7328353E0,3.3682213E0,9.170121E0,7.899719E0,1.1419873E1,0E0,0E0,0E0,0E0,0E0,0E0,0E0,0E0,0E0,0E0,0E0,0E0,0E0,0E0,0E0,0E0,0E0,0E0,0E0,0E0,0E0,0E0,0E0,0E0,0E0,0E0,0E0,0E0,0E0,0E0,0E0,0E0,0E0,0E0,0E0,0E0,0E0,0E0,0E0,0E0,0E0,0E0,0E0,0E0,0E0,0E0,0E0,0E0,0E0,0E0,0E0,0E0],"parents":[2147483647,0,0,1,1,2,2,3,3,4,4,5,5,6,6,7,7,8,8,9,9,10,10,11,11,12,12,13,13,14,14,15,15,16,16,17,17,19,19,20,20,21,21,22,22,23,23,24,24,25,25,26,26,27,27,28,28,29,29,30,30,32,32,33,33,34,34,35,35,37,37,38,38,39,39,40,40,41,41,43,43,44,44,45,45,46,46,47,47,48,48,49,49,50,50,51,51,52,52,53,53,54,54,55,55,56,56,57,57,58,58],"right_children":[2,4,6,8,10,12,14,16,18,20,22,24,26,28,30,32,34,36,-1,38,40,42,44,46,48,50,52,54,56,58,60,-1,62,64,66,68,-1,70,72,74,76,78,-1,80,82,84,86,88,90,92,94,96,98,100,102,104,106,108,110,-1,-1,-1,-1,-1,-1,-1,-1,-1,-1,-1,-1,-1,-1,-1,-1,-1,-1,-1,-1,-1,-1,-1,-1,-1,-1,-1,-1,-1,-1,-1,-1,-1,-1,-1,-1,-1,-1,-1,-1,-1,-1,-1,-1,-1,-1,-1,-1,-1,-1,-1,-1],"split_conditions":[2.0618556E-1,8.1743866E-2,4.6125735E2,3.8659792E-2,2.3809524E-2,3.7885562E2,1.8087612E0,3.9458917E2,8.430761E2,3.809524E-1,1.0767326E0,3.2697025E2,3.3472803E-1,6.417112E-2,5.8581704E-1,2.7762268E2,5.111732E2,2.346041E0,8.199951E-2,1.0830325E-1,8.156015E2,3.020768E-1,2.7752081E-2,5.905512E-2,2.837838E-1,2.4242425E-1,8.946503E2,9.945954E2,7.870319E2,2.8476506E-2,6.369427E-2,1.378667E-1,8.4210527E-1,2.6529617E2,4.8392426E2,2.4654878E2,8.27528E-2,1.2543555E-1,7.84223E2,6.659268E-2,8.9955024E-2,4.5648578E2,-2.3274459E-1,3.1746033E-1,3.929273E-2,6.568144E-2,3.8406152E2,4.33213E-2,1.6161038E2,4.5801526E-1,5.2582855E2,4.230018E2,3.5928145E-1,1.5466832E3,6.071757E-1,1.5101289E0,5.354732E2,5.487709E2,2.507837E-1,5.3144973E-2,3.2823923E-1,-2.7732128E-1,-7.485723E-2,4.980724E-2,3.0810973E-1,-1.5146923E-1,1.8955956E-1,9.80619E-2,2.9652417E-1,-2.1322922E-1,4.209391E-2,2.0701636E-1,-8.932322E-2,3.9015964E-1,7.677483E-2,-2.4092568E-1,1.2439583E-1,-1.7309403E-1,1.8916292E-1,-3.422947E-2,3.8830638E-1,-2.4029736E-1,-6.659429E-3,-2.8861162E-1,1.927335E-1,-9.53348E-2,2.900093E-1,-1.0281047E-1,1.8950243E-1,-2.9939117E-2,2.8483182E-1,6.2043052E-2,-1.3716353E-1,1.8417616E-1,-5.1644064E-2,-2.0201339E-1,2.3478775E-1,-2.4783169E-1,1.0781484E-1,1.1771088E-1,-3.5924548E-1,-3.403904E-2,2.2863652E-1,2.4854995E-1,9.0168975E-2,2.1919057E-2,2.4398181E-1,2.0144252E-1,-1.18822336E-1,-1.3306066E-1,1.6814199E-1],"split_indices":[3,0,4,11,12,5,7,1,8,2,7,1,2,10,2,1,8,7,0,11,5,0,12,11,3,14,5,8,5,12,0,0,6,9,9,9,0,10,8,14,10,8,0,2,10,10,4,11,9,7,5,1,3,5,3,7,4,5,2,0,0,0,0,0,0,0,0,0,0,0,0,0,0,0,0,0,0,0,0,0,0,0,0,0,0,0,0,0,0,0,0,0,0,0,0,0,0,0,0,0,0,0,0,0,0,0,0,0,0,0,0],"split_type":[0,0,0,0,0,0,0,0,0,0,0,0,0,0,0,0,0,0,0,0,0,0,0,0,0,0,0,0,0,0,0,0,0,0,0,0,0,0,0,0,0,0,0,0,0,0,0,0,0,0,0,0,0,0,0,0,0,0,0,0,0,0,0,0,0,0,0,0,0,0,0,0,0,0,0,0,0,0,0,0,0,0,0,0,0,0,0,0,0,0,0,0,0,0,0,0,0,0,0,0,0,0,0,0,0,0,0,0,0,0,0],"sum_hessian":[1.1720125E3,2.9402872E2,8.7798364E2,2.6145464E1,2.6788327E2,3.3248502E2,5.4549866E2,1.1709344E1,1.443612E1,2.0456314E2,6.3320118E1,5.8870567E1,2.7361447E2,3.9522473E2,1.5027393E2,5.589514E0,6.11983E0,1.2820986E1,1.6151342E0,1.6316779E2,4.139536E1,2.27852E1,4.053492E1,1.5873884E1,4.2996685E1,2.3415819E2,3.945627E1,2.3367102E2,1.615537E2,1.4049118E2,9.782733E0,1.5596534E0,4.0298605E0,3.2297034E0,2.8901265E0,1.1719599E1,1.101387E0,1.5695346E2,6.2143245E0,1.7023584E1,2.4371777E1,2.125718E1,1.528022E0,6.5757155E0,3.39592E1,1.1613035E1,4.260849E0,1.6125402E1,2.6871283E1,1.8996312E2,4.4195076E1,2.8172564E1,1.1283704E1,1.2861078E2,1.0506025E2,9.076205E1,7.079165E1,9.1790596E1,4.870059E1,1.2486265E0,8.534107E0,3.016736E0,1.0131242E0,1.0093495E0,2.220354E0,1.8820593E0,1.0080673E0,1.3901882E0,1.0329411E1,1.5056026E2,6.393205E0,4.0585814E0,2.1557436E0,5.7158003E0,1.1307784E1,1.7493378E1,6.878399E0,2.264897E0,1.8992281E1,3.0208693E0,3.5548463E0,1.3192047E1,2.0767155E1,8.676269E0,2.9367666E0,1.8988427E0,2.3620064E0,8.438609E0,7.6867924E0,2.6547172E0,2.4216564E1,2.1786112E1,1.68177E2,1.639502E1,2.7800055E1,3.4268868E0,2.4745678E1,8.122142E0,3.1615617E0,1.267272E2,1.8835692E0,9.640593E1,8.654318E0,7.4546875E1,1.6215176E1,4.4892807E1,2.5898836E1,6.63848E0,8.5152115E1,1.623891E1,3.2461678E1],"tree_param":{"num_deleted":"0","num_feature":"15","num_nodes":"111","size_leaf_vector":"1"}},{"base_weights":[6.581721E-3,-3.4805924E-2,6.2043124E-1,-2.8887874E-1,4.779355E-2,6.69012E-1,-5.9347045E-1,-2.5111152E-2,-4.6459487E-1,6.6644406E-1,1.5427077E-2,2.7139822E-1,8.508803E-1,-3.3889753E-1,5.3586934E-2,-2.2403234E-1,3.9569047E-1,-5.721976E-1,7.765884E-2,7.8622766E-2,8.158997E-1,-3.9129168E-1,5.9442423E-2,8.0545646E-1,3.4193378E-2,4.4677237E-1,9.699359E-1,2.6973447E-2,-6.12839E-1,7.566503E-2,7.000558E-1,-6.563431E-1,2.2919254E-1,4.1341543E-1,-4.700206E-1,-2.4075495E-1,4.0193623E-1,8.6036026E-1,-6.554941E-2,-4.106677E-2,-6.528022E-1,4.5552012E-1,1.6354911E-2,3.364751E-2,2.7422053E-1,-7.894215E-1,2.8653145E-1,-2.9021892E-1,7.2313046E-1,2.9895926E-1,3.9347753E-2,-7.807332E-2,1.4736436E-1,-2.0464387E-2,-2.7293146E-1,8.963457E-2,-3.186617E-1,2.982305E-1,3.469767E-2,-2.0487922E-1,2.3661895E-1,-1.5433058E-1,1.6119151E-1,2.142025E-1,-1.9076581E-1,3.4665447E-1,-2.511455E-1,2.4671884E-1,-2.8835868E-2,1.7490909E-1,2.8156176E-1,-2.2146524E-1,5.760232E-2,-2.1049911E-1,1.4185962E-1,1.5663213E-1,-2.2249553E-1,-8.309362E-3,1.2236557E-1,5.266905E-2,-3.607543E-1,1.8442053E-1,-5.6317016E-2,1.15527086E-1,-2.3350258E-1,-1.3146403E-1,2.7630773E-1],"categories":[],"categories_nodes":[],"categories_segments":[],"categories_sizes":[],"default_left":[0,0,0,0,0,0,0,0,0,0,0,0,0,0,0,0,0,0,0,0,0,0,0,0,0,0,0,0,0,0,0,0,0,0,0,0,0,0,0,0,0,0,0,0,0,0,0,0,0,0,0,0,0,0,0,0,0,0,0,0,0,0,0,0,0,0,0,0,0,0,0,0,0,0,0,0,0,0,0,0,0,0,0,0,0,0,0],"id":13,"left_children":[1,3,5,7,9,11,13,15,17,19,21,23,25,-1,-1,27,29,31,33,35,37,39,41,43,45,47,49,51,53,55,57,59,61,63,65,-1,67,69,-1,71,73,75,77,-1,-1,79,81,83,85,-1,-1,-1,-1,-1,-1,-1,-1,-1,-1,-1,-1,-1,-1,-1,-1,-1,-1,-1,-1,-1,-1,-1,-1,-1,-1,-1,-1,-1,-1,-1,-1,-1,-1,-1,-1,-1,-1],"loss_changes":[2.8206104E1,2.1844736E1,4.532528E0,1.1823687E1,1.5726025E1,4.678976E0,1.5382951E0,8.723385E0,8.983475E0,3.3663654E0,1.3411033E1,2.857973E0,1.7855453E0,0E0,0E0,6.9146214E0,3.2074218E0,8.778835E0,5.0209045E0,2.8928518E0,1.6148701E0,6.673787E0,1.1523734E1,4.2164993E-1,3.7212012E0,2.7251139E0,6.44928E-1,5.9828215E0,4.4290867E0,4.7444305E0,2.812292E0,4.9976006E0,3.2320006E0,5.75423E0,7.199898E0,0E0,1.6007795E0,1.021595E-1,0E0,5.397017E0,2.6318607E0,5.6688395E0,1.0539928E1,0E0,0E0,1.8894417E0,2.233276E0,1.6451343E0,2.5335975E0,0E0,0E0,0E0,0E0,0E0,0E0,0E0,0E0,0E0,0E0,0E0,0E0,0E0,0E0,0E0,0E0,0E0,0E0,0E0,0E0,0E0,0E0,0E0,0E0,0E0,0E0,0E0,0E0,0E0,0E0,0E0,0E0,0E0,0E0,0E0,0E0,0E0,0E0],"parents":[2147483647,0,0,1,1,2,2,3,3,4,4,5,5,6,6,7,7,8,8,9,9,10,10,11,11,12,12,15,15,16,16,17,17,18,18,19,19,20,20,21,21,22,22,23,23,24,24,25,25,26,26,27,27,28,28,29,29,30,30,31,31,32,32,33,33,34,34,36,36,37,37,39,39,40,40,41,41,42,42,45,45,46,46,47,47,48,48],"right_children":[2,4,6,8,10,12,14,16,18,20,22,24,26,-1,-1,28,30,32,34,36,38,40,42,44,46,48,50,52,54,56,58,60,62,64,66,-1,68,70,-1,72,74,76,78,-1,-1,80,82,84,86,-1,-1,-1,-1,-1,-1,-1,-1,-1,-1,-1,-1,-1,-1,-1,-1,-1,-1,-1,-1,-1,-1,-1,-1,-1,-1,-1,-1,-1,-1,-1,-1,-1,-1,-1,-1,-1,-1],"split_conditions":[1.4955135E-1,2.5305778E-2,2.3081106E3,1.959717E-1,7.071302E-2,3.5778176E-2,5.4894786E-2,3.215434E-1,5.1011435E2,